solver_type L2R_LR_DUAL
nr_class 3
label 3 2 1
nr_feature 362
bias 1.000000000000000
w
0.7626092849230285 -0.5262047166270405 -0.3045176925613253 
-0.02912786462981430 0.2218224901185372 -0.08239452192363470 
0 0 0 
0 0 0 
-0.09797620931136591 -0.01921673908952330 -0.01621437549082096 
0 0 0 
0 0 0 
0 0 0 
0 0 0 
0 0 0 
0 0 0 
0 0 0 
0.008519778188676396 -0.004515621332399086 -0.003545703316987045 
0 0 0 
0 0 0 
0 0 0 
-0.6377593522677937 -0.03037878933613541 0.5541871810471347 
0.6150787701660311 -0.4511880760946923 -0.4115969005336344 
0.09004657222553229 0.2572417437957542 -0.3903860011016538 
-0.4128040698319950 -0.09101694206988223 0.5477651878568055 
0 0 0 
0 0 0 
0 0 0 
0 0 0 
0 0 0 
0 0 0 
0 0 0 
0.2571403500493077 -0.2054667518585009 -0.07247122162269591 
0 0 0 
0 0 0 
0 0 0 
0 0 0 
0 0 0 
0 0 0 
0.04434018085758467 -0.02466474915175881 -0.04083536734437293 
-0.5952033478382907 -0.3400156126249382 0.8701040449101324 
0 0 0 
0.01768892736974586 -0.009625102607754756 -0.003548829279642343 
0 0 0 
0.06669965519397404 -0.002346812141712995 -0.1018429005124397 
0.01227324867594492 -0.0009668597977612823 -0.02646061183740070 
0 0 0 
-0.6004432353927118 0.7986364810847455 -0.09027480347233828 
0.003507005404237720 -0.001425412587224149 -0.001624615628253117 
0 0 0 
0 0 0 
0 0 0 
-0.3695926592826624 0.4825202356680997 -0.05599196327177979 
0 0 0 
0.2228866706548782 -0.3367567104950759 -0.01542871861790337 
0.2542964554528552 -0.09288672360174005 -0.1550529582034636 
0.1900777473649344 -0.08927308830829168 -0.05294266197739620 
0 0 0 
0.09274615516519337 0.3481881819205325 -0.6387536447665112 
-0.04604422957186848 0.1494083682116392 -0.1409691588927576 
0.3505234205773268 -0.2833250500634243 -0.1117656475020561 
0.1856161843221867 -0.1669255972765945 -0.3490962261927161 
-0.1129533087094691 0.1639216121488838 -0.03194811734350785 
0.6973139126581316 -0.8798847343313182 0.1183576975980092 
0 0 0 
0 0 0 
-0.06051886642701342 -0.1713111783961143 0.1452715694920508 
-0.1534546888777326 0.1734528535866781 -0.09349472984514776 
0 0 0 
0 0 0 
0.1657819778502361 -0.1198102729145509 -0.02748398078558968 
0.1434896517969416 -0.1493241259701609 -0.06486087457563036 
0 0 0 
0 0 0 
0 0 0 
0 0 0 
0 0 0 
0 0 0 
0.005686776608002653 -0.002501575206940202 -0.002439535734321760 
0 0 0 
0 0 0 
0 0 0 
0.3206580435927524 -0.1865645427873892 -0.1560000311846470 
0.3392296062213194 -0.2045733446915507 -0.6398658326664893 
-0.7138255591941606 0.6775103502426658 0.4635228134298325 
0.2911405391989337 -0.2005554853145425 -0.1282238611964074 
0 0 0 
0 0 0 
0 0 0 
0 0 0 
0 0 0 
0 0 0 
0 0 0 
-0.08706827042981975 -0.2322753132293497 0.3306172373778407 
0 0 0 
0 0 0 
0 0 0 
0 0 0 
0 0 0 
0 0 0 
0.008575716124219765 0.2070682017960560 -0.1346663297049027 
-0.2312738680678932 0.1529626302175812 -0.001990310179565006 
0 0 0 
0 0 0 
0 0 0 
0 0 0 
0 0 0 
0 0 0 
0.2240699939513113 -0.1331697116456347 -0.04643399492943163 
0 0 0 
0 0 0 
0 0 0 
0.1054796993794614 -0.03731884760374856 -0.01633767368462374 
0.5164992959590741 -0.5128508079353981 -0.04819452123129264 
0 0 0 
0.07764060049169424 -0.1057476557754476 -0.001094585040816483 
0 0 0 
-0.1251135711719253 -0.1330386049224261 0.2670740591210076 
-0.5889394005241017 0.5103666038208312 -0.002978232689623357 
0.1463577891666058 -0.1331813960335948 0.01368173890387988 
0.4163940826312143 -0.3533064647430754 -0.1763497323108062 
-0.07871887513609858 0.3444533486663209 -0.5683169518698019 
-0.2121944665075151 -0.6362882595295121 1.023453645199720 
0.3601433512983557 -0.06491619007017138 -0.7107050673323151 
0.09942048447974401 0.1765748119918942 -0.4314333485441172 
0 0 0 
0 0 0 
-0.1313673702597439 0.07322571050654660 0.4155396079604273 
0.8672902210690971 -0.8716218014249426 -0.3836221397919837 
0.3224383664252509 -0.3696250046381930 -0.2061979655356090 
0.7009742498991499 -1.080243277115785 0.1264947213470664 
-0.1336977895286079 0.2718839682504177 -0.2928995712146595 
-0.4733084148177431 0.4557688395230199 -0.01359822604416450 
-0.02574754581633826 0.08288947010829814 -0.08307971982674484 
-0.4355148455779858 0.4162342466521075 -0.05931336747998939 
-0.1172288846896297 0.1762921231127389 -0.03715309152240871 
0.1145892943909007 -0.05994094924031545 -0.05530897157224626 
0 0 0 
0 0 0 
0 0 0 
0.3725740237319593 -0.2091225771908742 -0.3955658809327827 
0.06812901829902215 0.1384229661089853 -0.5538819212023766 
-0.1767599941228772 0.4859898095263051 -0.5858201967563540 
0.2049724590469530 -0.05113294884019901 -0.2997330207027135 
0.8033913321918917 -0.8639923219353156 -0.003849671094988870 
-0.5061434250107989 -0.2044555813918405 0.7338551783254663 
0.1426364510783972 -0.1553978814782493 -0.01825977893185694 
0 0 0 
0.05141174897829820 -0.2732256060177906 0.1652934412455768 
0 0 0 
0 0 0 
0 0 0 
0.4043344932210298 -0.4821657023522406 0.1319035690782759 
1.048081478818285 -1.223634811485444 -0.4482316543490101 
1.754868203870573 -1.349246942532716 -1.368499663271966 
0.6561484247992296 -0.5971891287720424 -0.1064305473234471 
-0.4947198801887003 0.1441485562135247 0.1136772146644109 
-0.2868511663989871 0.1510394285451168 0.1135531261802061 
1.040566766478851 -1.073503124478611 -0.6474588565714661 
-1.083296316241610 0.9724068443900008 0.6238206011071282 
-0.6172559899057591 0.6179993901871731 0.2640895952339244 
1.169031977064625 -0.4843779759832524 -1.254482650920380 
0.4174540328797664 -0.3222459347938775 -0.1589394275503490 
-0.4266038900702327 0.7007150687522972 -0.4334165090983463 
0.1066369401897540 -0.8731137613003658 0.4343814118458954 
0.2180627611634947 -0.2702322923822414 0.04333903207827697 
-0.7337233494113319 0.3719098870222126 0.8001169922141442 
0.2186015705975243 -0.2569999677623504 -0.4382473785504445 
-0.3657946399498819 0.4570257585528169 -0.1635887545869298 
0.3077306696649395 -0.4428743067296115 -0.1987653792055698 
0.3192358130956741 -0.07813347442872146 -0.8033699947642606 
0.05855224292914469 -0.4763619005970011 0.8279924787737372 
1.007270299610413 -0.8337158914730588 -0.7609442650436500 
-0.1487646464817056 0.1035519723810968 -0.04049708684686906 
-0.2087696964549850 0.1361628658469171 0.1319244716923311 
-0.03880766173123725 0.04533170437266875 -0.6718026142830396 
-0.3532897130884152 0.1404297512037674 0.1402352679747723 
0.6871951994528170 -0.2667128134520997 -0.6486918167736186 
-0.4479998011109576 0.4975683082772474 0.3777338737690531 
1.000931488468607 -1.138544126099770 -0.5913366288539751 
-0.04897798129356996 -0.3722370691169064 0.7352515198714892 
0.1704085117163573 -0.04018073163246931 -0.3486381316858841 
-0.5799768874012123 0.4984037812980079 0.3718042435271791 
0.6973226729128381 -0.9553897441622211 -0.1616200682433158 
0.2715400837553633 -0.04243616960023420 -0.2132023366795250 
0.5805741731466044 -0.6349228439831359 -1.004230368585539 
-0.08598519203108591 0.05379152107236944 -0.1676359805634466 
0.5185873575917174 -0.7077843791645876 -0.1314363029354102 
0.5706472515679933 -0.3460018415888094 -0.2169439116601569 
-0.03378937471502588 -0.1343502767665479 -0.4912323348222015 
0.9694600424135998 -1.134344976447560 -1.007248529981182 
0.9694600424135998 -1.134344976447560 -1.007248529981182 
-0.3999249518169686 0.3590221204453852 0.2664230232281478 
-0.3608597555076276 0.4484385283064811 0.1100232392020135 
-0.1680068723917253 0.05633638965358045 0.005690010765125055 
0 0 0 
-1.441141861738166 1.355443754874388 -0.05108243587516355 
0 0 0 
0 0 0 
0.02826768839115390 -0.01286738567588312 -0.03236607081184215 
0.2248491615244725 -0.5202722478111835 0.2952236872068710 
0 0 0 
0 0 0 
-0.1726139962710269 0.3911254178665852 -0.08020455460717389 
0 0 0 
-1.791741060881261 1.807132963681369 -0.1698611450190186 
0.9821256563360234 -0.7009122829752779 -0.6177918530032968 
0 0 0 
0 0 0 
0.04534181517753155 -0.01332727031889988 -0.04901254423852775 
0.03485353304318467 -0.01885254809118667 -0.01841155237454656 
0 0 0 
0.7351749982222586 -0.3200680565858493 -0.3589204940091899 
0 0 0 
0.1825776298306651 -0.03908966980765979 -0.2088295594372780 
0.2354953290764568 -0.07088222042602836 -0.06129835582932597 
0.02114692096574060 -0.05415658855034104 -0.2033068282230928 
-0.4228839675195757 -0.3373034819787824 0.8038359541659692 
-0.2254762301015550 0.4623440922346914 -0.4441016225659918 
0.1702665999215107 -0.3160940434804204 0.07966770292169853 
0 0 0 
0 0 0 
0 0 0 
0 0 0 
0 0 0 
0 0 0 
0 0 0 
0.4898703578247958 -0.3907860681742443 -0.2219933018963022 
0 0 0 
0.6560984883499489 -0.5854002440615701 -0.1569211521407687 
0.2432710853059270 -0.1350846943531395 -0.1370079501181002 
0 0 0 
0 0 0 
-0.1793454022804838 0.03627876696272320 0.1480966548620991 
0.02820400730408828 -0.1059328364915868 0.1234891850826378 
-0.5438740586785730 0.7383203109303219 -0.4568314969511546 
0 0 0 
0.1795794421405278 -0.1489908791637716 -0.3043702540621924 
0.04130040798215575 -0.01075805532057146 -0.05558208871994732 
0 0 0 
0 0 0 
0.006540679806861998 0.1421693037927501 -0.3166028649902794 
-0.5891712604371031 0.7045419538800107 -0.1231157605885961 
0 0 0 
0.3598566056753258 -0.3009192290625550 -0.1227738831864530 
0.08093084187165343 0.06663554362039112 -0.04379959398974229 
0 0 0 
0 0 0 
0 0 0 
0.004144240998049459 -0.003885970111982055 -0.002400425555243550 
-0.1052360836010233 -0.3588915772256158 0.7702286857378718 
0 0 0 
-0.5438740586785730 0.7383203109303219 -0.4568314969511546 
0.4898703578247958 -0.3907860681742443 -0.2219933018963022 
0.1502085116846486 -0.06246889114041256 -0.1595107154830820 
0.4082352327083415 -0.4834636224253953 -0.08974552167371821 
0.3598566056753258 -0.3009192290625550 -0.1227738831864530 
0.6560984883499489 -0.5854002440615701 -0.1569211521407687 
-0.1793454022804838 0.03627876696272320 0.1480966548620991 
0.3424797156508146 -0.4240860769670671 -0.07282913728772829 
0.4510107149299766 -0.3327290565916491 -0.09479794833825153 
0.2288599248198676 -0.1439663699474729 -0.1047031796249456 
0 0 0 
-0.06083084245491058 -0.4070351335328061 0.4633101164810647 
-1.060219030840285 1.103544953982925 -0.01696336171781755 
0.006540679806861998 0.1421693037927501 -0.3166028649902794 
0.02777329869242737 -0.007260915525876505 -0.05364493128260699 
0.02820400730408828 -0.1059328364915868 0.1234891850826378 
0 0 0 
0.1795794421405278 -0.1489908791637716 -0.3043702540621924 
0.04130040798215575 -0.01075805532057146 -0.05558208871994732 
0.09071282084598895 -0.07189670188518855 -0.003410287606758903 
-0.5891712604371031 0.7045419538800107 -0.1231157605885961 
0.4118191667404873 -0.3051977217947311 -0.2532017719009929 
-0.9433437196610467 1.257304584103089 0.1363016961858934 
0.08093084187165343 0.06663554362039112 -0.04379959398974229 
0 0 0 
0.2432710853059270 -0.1350846943531395 -0.1370079501181002 
-0.4533025796487958 0.6316930565573419 -0.1529176539321281 
0.05047811024492277 -0.01052564235172404 -0.02449606543455186 
0 0 0 
0 0 0 
0 0 0 
0 0 0 
0 0 0 
0 0 0 
-1.222212061056787 0.9121368437531798 0.8102678454128416 
-0.3563387218588601 0.1766517585104999 0.4044211517372502 
0.06848329435681448 -0.4750715279992592 0.1412626249239639 
0.2831574368765510 -0.1033874360435514 -0.2446593512775903 
0.7648529276740127 -0.4234655950862284 -1.114797449923073 
0.06572920779563468 0.2230915567206309 -0.4276223674274869 
0.1656034342430535 0.3008182183903789 -0.3449050167096632 
0.6704884290040481 -0.8704717109158885 -0.1380946762176232 
-0.4337773878545510 0.4690133967899567 -0.02353061692469291 
-0.09668273999766938 -0.1798683024903775 0.4447740888382218 
0.3209527838127544 -0.2596654982099391 -0.05881438368917477 
0.2905694938211168 -0.6522649810325098 0.2535318486731640 
0.3396232913987088 -0.2168294475699571 -0.2048859394602491 
0.6133296170143167 -0.3577422829337846 -0.2443420880938459 
0.1742954106831337 -0.4247143586434943 0.1798336324848663 
-0.5050931865613124 0.8572978499071202 -0.2417178301321979 
-0.3331617371906725 -0.3045325107264947 0.6665634936900783 
0.5739116443778445 -0.2013129033806552 -0.5322567529745865 
0.8784462796496101 -0.3680239738941159 -0.7245731610767003 
-1.081580984187535 0.5156600605199024 0.8625739573165538 
0.7414721935706002 -0.5861629900203631 -0.5273898781336096 
-0.1954434987542948 -0.3772585054165416 0.5604085662538045 
0.3220000013731889 -0.6912028933885571 0.3493483412240813 
0.2775130476895190 -0.3098350472024457 -0.04628489325465925 
0.02778209551786569 -0.4149587565542910 0.7093834155478040 
-0.3518650143848216 0.1237260970789654 0.3332543580521645 
-0.7938829929391822 0.2833880450484455 0.8306233950620683 
0.2074868621686294 -0.2126329481352536 -0.08190259267047055 
0.2118830200001452 -0.3110705519661654 0.1767454953978195 
0.3930121120728766 -0.2674997896519473 -0.5159020506639578 
-0.3201796060407527 0.4478038176741026 -0.1154627821483788 
0 0 0 
-0.5439400099500977 0.6425622678762878 0.2050012686846087 
-0.06267042938912408 0.2430780246526671 -0.1620413251138746 
0.2060352326671445 -0.07462947260422040 -0.1210395173821396 
0.3934571174299423 -0.1497041512384432 -0.1983115444966681 
0 0 0 
0 0 0 
0 0 0 
-0.7781548279526980 -0.05789094064368364 0.8942862079409790 
-0.2114076184719696 -0.3921476535448275 0.6985606935386752 
0.4033053235898687 0.3652230627854970 -1.387981786942925 
-0.1538283646054222 0.4576884149878360 -0.3119539041232157 
0.6189043596505571 -0.7917537961432074 -0.3285006530846346 
-0.8398464557053659 0.2412808193818605 1.012568987477336 
1.183469500814732 -1.015106758991270 -0.8587098448992507 
0.4694206883037645 -0.4721782690220568 0.005492225834415921 
-0.3783251193511048 0.7187365837270402 -0.4107926428392634 
-0.03973636339657000 -0.1647918977476899 0.1936852652677624 
0.3394400463429921 -0.4646548509414801 -0.3419094980606962 
0 0 0 
1.048081478818285 -1.223634811485444 -0.4482316543490101 
0 0 0 
0.9673415327908913 -0.5504718365510288 -0.6926695737707601 
0.6053209627806198 -0.9045907348672036 -0.04790570639830797 
0.02711874615867505 -0.3187985091719962 0.3148285591083323 
0.1388692892405469 -0.5155068751018991 0.7815220707318846 
-0.5757748722420242 0.1044701071154467 1.232265583679869 
-1.999005162255934 1.922040328904981 0.7585858973888132 
0.06196394675146099 -0.4209876879348893 0.1451299743471636 
-0.2187201433920712 0.1175872510311635 -0.06941639053221915 
0.5183810434789824 -0.3356295228287362 -0.4622699192790257 
-0.09859109355269066 0.4912743898466028 -0.4171567474466428 
-0.3126123618902215 0.1990349854458919 0.07632075219481142 
0.6621516510404453 -0.4349177624296777 -0.3875567374656188 
0.2763633400608305 0.1075567808295793 -0.3397542513715190 
-1.045618658881704 0.9552204685286749 0.7221221727883932 
0.3323285258344327 -0.2306772997623839 -0.3008728409059513 
1.100617720028470 -1.483646147276587 -0.07311702524355769 
-0.01883275227557358 -0.4776757175529808 0.2004123365942596 
0.9768746625884297 -0.6934043277109455 -0.5076272223348681 
-0.3592143152739517 -0.4891919000049865 0.8886933993137855 
-0.9037174323600684 0.2717523777333413 1.215211337373492 
-0.7229443616390907 0.7027316024639846 0.06923743900661798 
1.105625344447906 -1.283112538985630 0.07043632986871552 
1.407869435809903 -1.155913831863710 -0.6804295683006586 
-0.3081335954492737 0.5250874055072222 -0.5380670376673791 
0.1888910480220720 0.1326980641405038 -0.4135735602487947 
0.2461487635785002 0.1338228052976856 -0.2983537037204506 
0.3788433520522199 -0.4713109028302631 0.04256556320263917 
0.7644437975612622 -0.6535657914839484 -0.4487058008910952 
0.08370196266024929 -0.4329222232468771 0.2898091110560552 
