solver_type L2R_LR_DUAL
nr_class 6
label 5 2 6 1 4 3
nr_feature 274
bias 1.000000000000000
w
-0.09835390605976080 -0.6144679136322094 0.02633064464986258 -0.4436271897156344 0.7658995216414008 -0.3151161421894889 
0 0 0 0 0 0 
0 0 0 0 0 0 
0 0 0 0 0 0 
0.4052257129378770 -0.1371020523343406 0.1731686728517373 -0.3618673825832305 -0.2721932602781770 -0.01117667184033740 
-0.04396998045011558 -0.03403488706648309 0.1632814001823593 -0.06694648926155111 -0.1396060653090117 -0.005332101215990025 
0 0 0 0 0 0 
0 0 0 0 0 0 
0 0 0 0 0 0 
0 0 0 0 0 0 
0 0 0 0 0 0 
0 0 0 0 0 0 
-0.2974164850623963 -0.1816309320888089 0.8740691343550390 -0.4384871919149438 -0.04729584663768580 -0.03389889891089978 
0 0 0 0 0 0 
0 0 0 0 0 0 
0 0 0 0 0 0 
0 0 0 0 0 0 
0.2712400914167271 0.1049944805303303 -0.7127190310523166 0.07134636569253955 0.5751908998000058 0.1295740983952951 
0.3962411842275536 -0.5473499647462555 -0.3874877590807004 0.6235281858595254 -0.5012926769924940 -0.5128069579050846 
0 0 0 0 0 0 
0 0 0 0 0 0 
0 0 0 0 0 0 
0 0 0 0 0 0 
0 0 0 0 0 0 
0 0 0 0 0 0 
0 0 0 0 0 0 
0 0 0 0 0 0 
0.6677585133845796 0.1962574566257506 -0.2095991266887137 0.1610295554233767 -0.7919596296399516 -0.1192449663427813 
0 0 0 0 0 0 
0 0 0 0 0 0 
0 0 0 0 0 0 
0 0 0 0 0 0 
0 0 0 0 0 0 
0 0 0 0 0 0 
0 0 0 0 0 0 
-0.02783546604851948 -0.2792084853667863 0.7002195457748221 -0.1106859419519702 -0.1745840704273203 -0.005615751615512379 
0 0 0 0 0 0 
0 0 0 0 0 0 
0 0 0 0 0 0 
0 0 0 0 0 0 
0 0 0 0 0 0 
0 0 0 0 0 0 
-0.01112849807976402 -0.07151655275384383 0.2585556845469415 -0.1049972205242544 -0.2723658676016156 -0.008610022769534396 
-0.3449562176950902 -0.1969076985464814 -0.8909722091196832 1.050685110292108 0.8088016285636832 -0.001421394883452268 
-0.09864732727495668 0.4402954227739682 0.03097058509887868 -0.2014432683020245 -0.1390412560626165 -0.02020023115588791 
0 0 0 0 0 0 
-0.01697282684888456 -0.08484779569139574 0.2882283698673920 -0.03587269421819682 -0.08348195597659896 -0.01463916524607536 
0 0 0 0 0 0 
0 0 0 0 0 0 
-0.1962336446492486 -0.05136973993532090 0.6018615240434928 -0.1509113620142714 -0.002052043162486116 -0.006520919841283166 
0 0 0 0 0 0 
-0.08249032113650073 -0.09740671069636024 -0.5401884812036960 -0.08305245429074436 0.2943467426311315 0.4435013575738059 
0 0 0 0 0 0 
-0.08192598509745390 0.2907175821821928 -0.2091208957355067 0.4875888681281873 -0.4311583784795980 -0.08516917626926258 
0.05116466754718053 -0.1031124194777698 -0.05530555424349360 0.09617718962163416 -0.2093197311439700 -0.4160737523565978 
-0.1702680339101119 0.1320132749784491 -0.8546607675274231 0.7423518813247455 0.1393175459404073 0.4063390446835128 
-0.3337511201540686 0.8871616521087701 0.1909425318876477 -1.517806451552376 -0.6943565892406537 -0.2182896142864019 
-0.08155930678844575 -0.4243691038457548 0.1557767587097206 0.1375847203609200 -0.2059283375927296 0.01395609134276104 
-0.4354630489617519 -0.5511312117364947 0.6825054100236789 -1.198257722480614 0.3669427828980020 -0.3111844858436577 
0 0 0 0 0 0 
0 0 0 0 0 0 
0.7955251463325486 -0.2222441476707324 0.3598701125443362 -1.367284060085946 -0.2918882709372301 0.6417765584452317 
0 0 0 0 0 0 
0 0 0 0 0 0 
-0.1041966226701330 -0.01144344136405532 -0.2297991746839096 0.8621899603861192 0.2027004702047581 -0.1336969373411912 
0.2260288077994205 -0.9769865814357857 0.4161263152559065 0.3663950520508774 -0.1354365522043376 0.7170896600547869 
0 0 0 0 0 0 
0 0 0 0 0 0 
-0.1623717332046064 0.8870462731869952 0.01700589542598138 -0.07930487325021973 -0.5078266260505708 -0.1323389655528418 
0.5630569892274648 0.3083294503890895 -0.7711606449472598 0.2981596882832117 0.1538544697331030 -0.04073182112948757 
0 0 0 0 0 0 
-0.5982693708981859 0.7574824722790805 0.1357470951418715 -0.5467986806226776 -0.9051758035035099 0.4136818636426865 
0 0 0 0 0 0 
0.5413029248553640 -2.051011217191587 0.6460665895930240 -0.1495848031864465 0.7489881123234514 0.2491825312392601 
0 0 0 0 0 0 
0 0 0 0 0 0 
0 0 0 0 0 0 
0 0 0 0 0 0 
-0.7684027492492596 -0.5098211407343644 1.022762412338253 0.1385077335258141 -0.7456928277165285 0.4053388004211072 
0.3602895188894413 -1.033313953507673 0.5217524657123205 0.1967358728980154 -0.4405293576887270 0.01200971783706499 
-0.8861844381508063 -0.7440233427065158 0.6753624644926960 1.124242023797892 -0.2885995366604898 -0.02160462259576895 
0.3248388344718254 -0.3991569542157702 0.1586124765330901 0.3305789663319076 0.1885597283108312 -0.4219449388022858 
0 0 0 0 0 0 
0 0 0 0 0 0 
0 0 0 0 0 0 
0 0 0 0 0 0 
0 0 0 0 0 0 
0.4730051253345901 0.2409537134398127 -0.4732512772595904 0.1651192660901552 -0.2395224631599337 -0.1722084978534534 
-0.4936506679692783 -1.530037633532580 1.869345012399045 -0.4596208763125895 -0.1866354746910297 -0.1153942261215430 
0 0 0 0 0 0 
1.303407264249569 0.4580605529916710 -0.9251924446517121 -0.7725923627034791 -0.1508217658072077 -0.02007698267519070 
0 0 0 0 0 0 
0 0 0 0 0 0 
0 0 0 0 0 0 
0 0 0 0 0 0 
0 0 0 0 0 0 
0 0 0 0 0 0 
0 0 0 0 0 0 
0 0 0 0 0 0 
0 0 0 0 0 0 
0 0 0 0 0 0 
0 0 0 0 0 0 
0 0 0 0 0 0 
0 0 0 0 0 0 
0 0 0 0 0 0 
0 0 0 0 0 0 
0 0 0 0 0 0 
0 0 0 0 0 0 
0 0 0 0 0 0 
0 0 0 0 0 0 
0 0 0 0 0 0 
0 0 0 0 0 0 
0 0 0 0 0 0 
0 0 0 0 0 0 
0 0 0 0 0 0 
0 0 0 0 0 0 
0.004059436703971929 -0.2344943872199049 -0.6999133416677606 0.7668021023729912 -0.1904280358470375 -0.02605454826168461 
0 0 0 0 0 0 
0 0 0 0 0 0 
0 0 0 0 0 0 
0 0 0 0 0 0 
0.3428940856771486 -0.4355665828053439 0.8722122053179098 -0.5864838973724669 -0.04071542726811332 -0.03591417356155300 
-0.2033635354937286 -0.4305844456956187 0.5628980169943372 0.4906315686400399 -0.7504696818415584 -0.07182052160118499 
-0.03884452266281761 -0.4716750078490550 0.02320895212199199 -0.3129260494385981 0.2556231911664587 -0.06732364118418500 
-0.3445986310538066 -0.3964853225725665 -0.0007803418797785316 0.07261471003412298 -0.2010058920239374 -0.01327138694027915 
-0.04897563294199799 0.5026031252287206 0.3709380001319140 -0.9251712605529029 -0.9112510702807189 0.3033489022594190 
-0.1183669604643262 -0.03383896913409484 0.2975629817336709 -0.3437462073209564 -0.1359821421259110 -0.8449788606213526 
-0.5169111206296189 -0.3294247171662689 -0.5266180001453717 0.2595167345155339 0.6105405092617016 -0.2767725875404035 
0.009446781786748572 0.2354142955773160 -0.1848015476046789 -0.04766255696659383 -0.01970465877263958 -0.08189676155273859 
0.4756674603830088 -0.03754082079151057 -0.03716566253041326 -0.3165722146324796 -0.2104519055160688 -0.01483344564347162 
-0.1144117278952475 -0.1335961186093129 0.3736157355645099 -0.1122416572123018 -0.2013474200711200 -0.001675327412855805 
0.1676523547749085 -0.6584720634020719 -0.03010368005180727 0.3825250094673953 -0.2005571987080371 -0.09452655204100902 
0 0 0 0 0 0 
0 0 0 0 0 0 
0 0 0 0 0 0 
0 0 0 0 0 0 
-0.5922015165134382 -0.3236657564297515 0.8193620266130872 -0.6862220497688393 0.08254388976702265 -0.1191895285057789 
0.03865136082719514 0.2552455468478632 -0.3233046957073289 -0.1010444840418492 -0.2083083968796950 -0.6406097042107750 
0.2007547880580238 0.9910323842776558 -1.072011304588558 -0.05542813563918948 0.06504808649374400 -0.2607976804278434 
0 0 0 0 0 0 
0 0 0 0 0 0 
-0.7445032059997613 1.306249706367211 -0.9922428276057174 0.4298909772764381 0.3984199186523686 -0.5124877366067625 
0.3364220284143192 1.024125871916232 -0.5918028961190115 -0.2197514221503063 -0.4269754499345260 -0.08366826884385302 
-0.02064554263468780 -1.289083920092768 1.396093735139453 -0.2945016102224343 -0.4261579378509638 -0.2876027239749968 
0 0 0 0 0 0 
0.5630569892274648 0.3083294503890895 -0.7711606449472598 0.2981596882832117 0.1538544697331030 -0.04073182112948757 
0 0 0 0 0 0 
-1.725743217990504 0.6536525103733538 0.6060920772393149 1.054871047227881 -0.1675693378753090 -0.7600719989874121 
-3.744287090665259 1.923242944792243 1.095934967426508 2.116055558125966 -0.4952105292104366 -2.795377739016115 
-0.2764638672574006 -0.7062910465765706 0.2347373464032158 -0.6792765297403129 -0.8036369185219550 -0.5078491983682958 
-0.2528781314457478 -0.6167245521422747 0.05111909093682308 -0.6643869623664688 -0.2104996685483186 -0.5840804623085798 
0.2744925859438264 0.3286025284666109 -0.3949927932052440 -0.1614216911137670 -1.240777635208150 -0.4315100469317200 
0.1959125275280633 -0.3224139088158248 0.5753079828508734 -0.3950404541961700 -0.05514927919827047 -0.02145251264616981 
0.09002361248936055 -0.04819595403424372 -0.1699623607698988 -0.08608839247086278 0.008400811516856198 0.3933175606491265 
0.3758233628966861 -0.1925981582824239 -0.2904635079619868 0.05134126294592833 -0.4919925279023069 -0.6984323755483558 
-0.6165116734950568 0.04976049221404164 0.6137209174538552 -0.6266346525205617 -0.2652986089859414 -0.4535392669536458 
-0.7692620211669420 -0.8703436358815708 0.1842948056289525 -0.3467905624102888 0.9517613418929849 0.005862427394317687 
-0.07982039289909210 -0.2678269623854316 -0.2320486066565184 0.2209709976589438 0.07891931081455066 0.1138245533595707 
0.5454536381657593 -0.2302152900224921 -0.6629684085470865 0.8353947104308140 -1.210891705717295 -0.5672423361657599 
-0.5733562894383917 -0.4371005422651254 0.2300626383718163 -0.4359285916007275 0.5048926565172138 -0.4389981269853224 
-0.08447506218091977 0.5441538126391641 -0.02614158922017539 -0.7999500094477252 -1.050848940378405 0.6806814593954860 
-0.4784834699237099 -0.5674965420549951 0.1753961278649687 0.09568421633264099 0.2172241549335005 0.3290602526124004 
-0.1407146394369000 -0.1012653004524156 0.4057748672108793 -0.7018823381295028 -0.03496738279086448 -0.2754539950474085 
0.4164547309918091 -0.1324203194904531 0.5212722336539743 -1.059636456818493 0.1766929776199376 -0.5822056793732240 
-0.2142209068808027 -0.3986714170725244 -0.3575394319943410 0.7226549771262082 0.3837616527456335 -0.2377712351130500 
-0.4198439250625174 -0.3885501726792127 0.6179071635467486 -1.182006828084992 0.08424872734018168 0.3999008327936536 
-0.1111562969808220 -0.4659191176545596 -0.03279529630700039 0.2830694241782956 -1.381061712065510 -0.7371234169557318 
-0.04742240804555983 -0.5303004028706306 0.1821631308986554 -0.2380796395776652 0.8424338705133887 -0.2776783107024944 
0.04908063138574556 0.06175409448555978 -0.4814185607983639 -0.2066464486224197 -0.5597574728583424 -0.4770287658123045 
-0.5293419987031505 -1.323015598718814 0.2858564373400361 -1.343663492106787 -1.014136587070278 -1.091929660676876 
0.7388105861986323 -0.3476115413040763 0.1940898069126370 -0.7204038500240447 -0.8926077515148185 -1.743238405294023 
-0.2956983550750078 0.1293430291910157 -0.7034378262983292 -0.05546399833250494 0.6573358428607233 0.6982782912554373 
-0.1368230462419117 0.1013286119620086 0.1531009768941821 -0.8661807763205901 -0.2874355540290521 0.2506003514627660 
-0.8356311835848664 -1.206075698567791 0.6421034798315499 0.2983851325703522 -0.4914291243871309 -0.2975698981010538 
0.4495919895179744 0.3274552280535430 -0.2783582709853235 -0.4458941238643468 -0.09005439965238762 -0.3947245299110488 
-0.4915604999109892 -0.07215184017949985 0.4959000488725141 -0.5943182300041748 0.5129615755930760 -0.3223676554874391 
0.2316842646460943 0.1242724627040565 0.3168488066626364 -0.7879567882341500 0.1259137892115301 -0.1695229734078519 
0.9196815363551011 -0.2497112432732038 -0.1267588025582269 0.3077185232381655 -0.1915092502631353 -0.2137668148364130 
0.3506862129201421 -0.4648839646299897 0.2715936170352661 -0.5006644794429302 -0.8475735169485489 0.4335138618506386 
0.8367126169218560 0.08936615027903573 -0.5873774393610792 -0.1220787990667348 -0.1939503137075741 -0.2063204675801223 
-0.7237348028936348 -0.9092862913964451 1.834783164030972 -0.9564748037339170 -0.3298185754370731 -0.1767238341218846 
0.5561557060314196 -0.1308371518195388 -0.4650737596131624 0.2328716554639567 0.6091874138787515 -0.1294215365530658 
0.7067649215248940 -0.6068992911969311 -0.2682948118940394 -0.1216014148331367 0.7180907075840627 -0.02459475162841548 
-0.2564377950970199 -0.09714643228746517 0.2360742070005230 -0.1899106481222875 0.002323809502924421 -0.01743338924334096 
-0.1521307836692438 -0.03759277697970673 -0.5944216572841812 0.3170850917942741 0.8177510723907365 -0.008759189292823336 
0.2177156847954510 -0.5054721435725281 0.1732167916398487 0.2822351123061013 -0.1631553660004245 -0.02349275050979240 
0 0 0 0 0 0 
0 0 0 0 0 0 
-0.01347628707512422 0.9823911485427811 -0.6739505685385039 -0.2916342636870496 -0.08330653426755590 -0.02905191537989339 
-0.2721057221246154 -0.2183701531058900 0.7596494884002079 -0.1339191998183243 -0.009385102362758538 -0.1179604243395731 
-0.1318338839202472 -0.2305577886711471 0.1027591056326568 0.6398985007014445 -0.2548880340838614 -0.02842310848652992 
-0.3388549104573083 -0.09907012725076778 0.6550813040468586 -0.4302659865607579 -0.07635901400655078 -0.006417453392361780 
0 0 0 0 0 0 
0 0 0 0 0 0 
0.2991294020837024 -0.007647779085596469 -0.1663839062944543 -0.09905237893159888 -0.09070737390240800 -0.02378380617948132 
0.3243388830774190 0.3250714815747424 -0.004823273665830859 -0.4576920305889328 -0.2476653884844665 0.3553410996382045 
0.2435410125396403 -0.06354714916375287 -0.5553242550461819 -0.06347716869989264 -0.05194979365178948 -0.02815527501831573 
-0.4767903863626340 -0.2239046321939059 0.1566985887106858 0.5192937214610228 -0.4169248428687825 -0.2546415814816838 
0 0 0 0 0 0 
0 0 0 0 0 0 
0 0 0 0 0 0 
0 0 0 0 0 0 
0 0 0 0 0 0 
0 0 0 0 0 0 
0 0 0 0 0 0 
0 0 0 0 0 0 
0 0 0 0 0 0 
0 0 0 0 0 0 
-0.3388549104573083 -0.09907012725076778 0.6550813040468586 -0.4302659865607579 -0.07635901400655078 -0.006417453392361780 
-0.2564377950970199 -0.09714643228746517 0.2360742070005230 -0.1899106481222875 0.002323809502924421 -0.01743338924334096 
0 0 0 0 0 0 
-0.2406078794584486 -0.4057982647534901 0.004772626258387508 0.6639602673762790 -0.1287842242433741 -0.02725062462124833 
0 0 0 0 0 0 
0.2177156847954510 -0.5054721435725281 0.1732167916398487 0.2822351123061013 -0.1631553660004245 -0.02349275050979240 
-0.2721057221246154 -0.2183701531058900 0.7596494884002079 -0.1339191998183243 -0.009385102362758538 -0.1179604243395731 
-0.02026854849446119 -0.1739584514658244 0.3555395621163252 -0.05133597686952719 -0.1591535384908872 -0.003096045068805964 
0 0 0 0 0 0 
0 0 0 0 0 0 
0 0 0 0 0 0 
0 0 0 0 0 0 
0 0 0 0 0 0 
-0.4767903863626340 -0.2239046321939059 0.1566985887106858 0.5192937214610228 -0.4169248428687825 -0.2546415814816838 
0 0 0 0 0 0 
-0.1318338839202472 -0.2305577886711471 0.1027591056326568 0.6398985007014445 -0.2548880340838614 -0.02842310848652992 
0 0 0 0 0 0 
0 0 0 0 0 0 
0.2991294020837024 -0.007647779085596469 -0.1663839062944543 -0.09905237893159888 -0.09070737390240800 -0.02378380617948132 
0 0 0 0 0 0 
0 0 0 0 0 0 
0 0 0 0 0 0 
0 0 0 0 0 0 
0 0 0 0 0 0 
0 0 0 0 0 0 
0 0 0 0 0 0 
-0.4364066441838094 0.1389536000403204 -0.9625485806413661 0.4062585635614849 0.8771532621163170 0.4137081051640966 
0 0 0 0 0 0 
0 0 0 0 0 0 
0 0 0 0 0 0 
0 0 0 0 0 0 
0 0 0 0 0 0 
0 0 0 0 0 0 
0 0 0 0 0 0 
0.1948694761726233 0.4177367870221545 -0.6875645154103325 -0.03831218659234396 -0.01842677097100266 -0.01423574481395252 
-0.5711643214119041 1.250130664358307 -0.6156069910510232 0.4353174818137745 -0.5750199134818903 -0.4015430551417222 
0.4120418332836300 -0.6366195835127557 -0.5583284949416925 0.7053211489007403 -0.1039805536166967 -0.2660390906487836 
-0.6071732802582694 1.024886062711079 -0.2509787262874481 -0.09950075003957598 -0.3472156351160490 0.3641337745432595 
0.3498018631662306 0.3467504140717875 0.1462903468334192 -0.9091530253366066 -0.4143303864159347 0.1219498066422004 
0 0 0 0 0 0 
0.08107479434099886 -0.4629609885127977 0.01245576047489358 -0.05782061687191922 -0.2127030482400905 0.3015941316390827 
-0.2257976921596833 -0.7269844912908607 0.3445092699079771 0.6899321020880382 -0.1371986598716384 -0.3035441196113647 
0.3702675781139972 -0.4238526440795126 -0.02441774040408731 -0.2266501114831272 -0.4944757878384924 0.4824252627080792 
0.05531760636498677 0.1410925780900702 0.1366211596595517 -0.4279035669627981 -0.3930700521770255 0.6330124894348654 
0.9073266756473046 0.08048615982053939 -0.1950524202259948 -0.6995769286598539 -0.04455326185501779 -0.1605812733251101 
-0.06483850110530902 -0.03009034738128094 0.08627971631133619 -0.001023451265073017 -0.008343416449474825 -0.05927708507128686 
-0.1059199148097394 -0.2206532823951812 0.2065477505197672 -0.2299975351158055 0.05286528396106217 0.4044622811779901 
0.2221949543110410 -0.02378868030367702 -0.3734920845229373 -0.5379189848982138 0.4140727031060528 -0.01681605460667542 
0.4216294267435941 0.5277020572746158 -0.4092649915805277 -0.3973287014862262 0.03470999418154612 -0.03445077126272465 
0.1008843253212426 0.01269613309811775 -0.3088215923661264 0.004756902968393043 -0.1073100700078132 -0.03823079672934752 
0.05914742466165715 -0.05855284489226736 -0.1867780722534232 -0.1204591461126157 -0.02069537956867319 -0.01410380509228548 
0.6301812395319311 0.02366100732827983 -0.5736529638619272 -0.05224085309504694 -0.2135754328629841 0.2341998154067075 
0.01462995275559416 0.2357119462490384 -0.5797605563269721 0.01115853449989678 0.2635270212711690 0.4708411092535312 
0 0 0 0 0 0 
-0.5037269888948774 0.5170262604957327 -0.05892454655205308 -0.7156750077849180 0.6478133252197364 0.1590964895728450 
0.6707221820640477 -0.06960135350737877 -0.3937575198954711 -0.1783672844317105 -0.1265083813151462 -0.1730350452696344 
-0.3162776012837270 -0.2883272186985078 0.1344975042970087 0.2179063350331382 0.7508583066713368 -0.3364996441839139 
-0.2976659263322629 0.2855965435949590 0.1400587965854902 -0.2941710994164782 0.03857993745624266 -0.05413422767616528 
0 0 0 0 0 0 
-0.3064093366970959 -0.05552521264773379 0.3501540298903243 -0.01075317945560209 -0.05436132328842294 -0.07224022253715875 
-0.03841284553786440 -0.05106926274619575 -0.4821694364484160 0.4275662727592572 -0.002489824677120449 -0.003234214444723803 
0 0 0 0 0 0 
-0.01273830494238513 1.045584521287966 -0.5216636461932860 -1.250962410686537 0.7792193252074208 -0.1345999304378621 
0.05292807786587305 -2.126536694573872 -0.8020475417864158 1.987260939476208 -1.010299541934706 -0.2372882167667547 
0.7745195019933151 -0.6376397805851364 -0.7174187170838751 -0.07129118633543441 0.7998159932657449 -0.7056729847383466 
-0.4786222740586898 -0.3135580634510818 -0.2654039096982153 0.1579368146206105 1.005420557208603 0.4497558673851996 
0.6191661962134427 0.1603128149612320 -0.3917298663896968 0.9288825301500951 -1.033272829390086 -0.3665928237190230 
