solver_type L2R_LR_DUAL
nr_class 3
label 3 1 2
nr_feature 362
bias 1.000000000000000
w
0.7623911109491512 -0.3045214701055587 -0.5259954296510484 
-0.02909944529065923 -0.08240290032460712 0.2217460224773626 
0 0 0 
0 0 0 
-0.09812064170971557 -0.01621902231453788 -0.01910329866768942 
0 0 0 
0 0 0 
0 0 0 
0 0 0 
0 0 0 
0 0 0 
0 0 0 
0.008509146130743328 -0.003545909483128662 -0.004516119762295203 
0 0 0 
0 0 0 
0 0 0 
-0.6378490524709700 0.5541525392568833 -0.03037557416445434 
0.6146894867559548 -0.4114722492090491 -0.4511175486582378 
0.09027995838622578 -0.3904731620809620 0.2571489995708075 
-0.4131920223879622 0.5476519962598763 -0.09105570296367060 
0 0 0 
0 0 0 
0 0 0 
0 0 0 
0 0 0 
0 0 0 
0 0 0 
0.2571218734885261 -0.07248830926253018 -0.2055216744564585 
0 0 0 
0 0 0 
0 0 0 
0 0 0 
0 0 0 
0 0 0 
0.04433050313846882 -0.04082827940285150 -0.02464020698642969 
-0.5951208639093033 0.8701439904134212 -0.3400356315300069 
0 0 0 
0.01768819756307188 -0.003548336549848217 -0.009635650109287460 
0 0 0 
0.06669505305321290 -0.1018255489317983 -0.002346959947507252 
0.01229677321678963 -0.02644637600956732 -0.0009679884323456327 
0 0 0 
-0.6002055434234603 -0.09031952232494252 0.7986130091791871 
0.003509909499629667 -0.001624500067817641 -0.001425198485954786 
0 0 0 
0 0 0 
0 0 0 
-0.3694016698340149 -0.05601067942075319 0.4825051288540481 
0 0 0 
0.2230048203417604 -0.01541869307031962 -0.3369150690506449 
0.2542492718442469 -0.1550430035071486 -0.09282315924112032 
0.1901518041405616 -0.05297527181676363 -0.08926359903157692 
0 0 0 
0.09272814739266880 -0.6387922531705276 0.3481487364857487 
-0.04572571579366697 -0.1410276498193684 0.1492047853668432 
0.3503752285807696 -0.1116890441580886 -0.2832809477633245 
0.1861143384645180 -0.3492025780435342 -0.1670309618018606 
-0.1131966613584570 -0.03191650243944270 0.1639601659589020 
0.6973830289980727 0.1185065890733725 -0.8797409368436306 
0 0 0 
0 0 0 
-0.06064328799969375 0.1450303230512211 -0.1711353528577995 
-0.1534371335600754 -0.09350343572242725 0.1734804118218205 
0 0 0 
0 0 0 
0.1658224087176996 -0.02749465390871038 -0.1198364315625008 
0.1434135484405336 -0.06484557733515275 -0.1493243047453920 
0 0 0 
0 0 0 
0 0 0 
0 0 0 
0 0 0 
0 0 0 
0.005689602560974664 -0.002439829678999434 -0.002505463393039014 
0 0 0 
0 0 0 
0 0 0 
0.3205730500423010 -0.1560075254599986 -0.1863875641041512 
0.3388498362100390 -0.6397246001881669 -0.2051933484299977 
-0.7131257859570848 0.4635131825890484 0.6774417828536456 
0.2914598427170155 -0.1281937592757815 -0.2004990078358666 
0 0 0 
0 0 0 
0 0 0 
0 0 0 
0 0 0 
0 0 0 
0 0 0 
-0.08723070444935767 0.3306770326023791 -0.2322376017411760 
0 0 0 
0 0 0 
0 0 0 
0 0 0 
0 0 0 
0 0 0 
0.008646762655697134 -0.1346286473113629 0.2073858287678747 
-0.2313858752208142 -0.001992577708472039 0.1530225834586451 
0 0 0 
0 0 0 
0 0 0 
0 0 0 
0 0 0 
0 0 0 
0.2240676179765047 -0.04641259366345887 -0.1331698335701827 
0 0 0 
0 0 0 
0 0 0 
0.1054257109031395 -0.01634215379124836 -0.03730462905385981 
0.5163539180733633 -0.04818727200282948 -0.5128944714532808 
0 0 0 
0.07770701925548011 -0.001094791053732384 -0.1057572653920708 
0 0 0 
-0.1248572264521065 0.2671495668304348 -0.1330461729401899 
-0.5889598817496166 -0.002981349102125321 0.5102946545266681 
0.1464006274272990 0.01369247733321968 -0.1332828414162932 
0.4160560703495073 -0.1762115059110073 -0.3534159964764380 
-0.07885611883730706 -0.5682834565880786 0.3444571713746572 
-0.2121399397181767 1.023282114342859 -0.6362692415760706 
0.3600908515539015 -0.7107722478572965 -0.06486973917153510 
0.09968612282694342 -0.4315648666999092 0.1765820232618870 
0 0 0 
0 0 0 
-0.1314746016627558 0.4156103521838266 0.07373497365637927 
0.8675146553215938 -0.3836988485299429 -0.8718990404904609 
0.3224355010564833 -0.2062244782893282 -0.3698763908552587 
0.7008801829323462 0.1263433527529850 -1.080084055517854 
-0.1336715730838434 -0.2928289724504449 0.2719101049778790 
-0.4734173451180400 -0.01359818142792460 0.4558978482247678 
-0.02555766519112722 -0.08294556146747584 0.08296248495627731 
-0.4355241462072197 -0.05932222149154172 0.4162256668226942 
-0.1172022132540108 -0.03716896592867581 0.1763344364561890 
0.1145877108578339 -0.05532205486421871 -0.05999120521664582 
0 0 0 
0 0 0 
0 0 0 
0.3721813756961493 -0.3954916241911036 -0.2091262588383088 
0.06843678026450630 -0.5539846408690311 0.1385531588211068 
-0.1765297108512183 -0.5858063109014142 0.4855940662185656 
0.2053147142213799 -0.2996886672849479 -0.05107050098035519 
0.8033465997939573 -0.003923365244733085 -0.8639354188029809 
-0.5062682809501233 0.7337461956612974 -0.2044999829660018 
0.1425722425984258 -0.01825351324690053 -0.1554052708351579 
0 0 0 
0.05130990068980687 0.1653429015888883 -0.2731447515899531 
0 0 0 
0 0 0 
0 0 0 
0.4042448128199256 0.1321460638893560 -0.4818798060037336 
1.048188589133052 -0.4482645609672786 -1.223587404195535 
1.754969741902712 -1.368540396828965 -1.349302877939101 
0.6561914789051723 -0.1064118356529717 -0.5971404626478495 
-0.4948700504771356 0.1137011718198124 0.1442210820123099 
-0.2864880703155304 0.1136023018989704 0.1509067161935127 
1.040617861773677 -0.6474830979108804 -1.073736921654905 
-1.083621985490497 0.6237260384994223 0.9725436438138958 
-0.6171919405322593 0.2640696716650239 0.6180440105674722 
1.169075822518983 -1.254497635535854 -0.4841519905399688 
0.4173059037103056 -0.1589461775204693 -0.3222465385287297 
-0.4265269138537315 -0.4334318237676471 0.7004430486455595 
0.1066909530311510 0.4345652546163197 -0.8730065847369078 
0.2183851668943973 0.04329888105235995 -0.2703496534858495 
-0.7339575002465148 0.7998711691805617 0.3714967699803388 
0.2186336037115842 -0.4381958145348504 -0.2566498609890944 
-0.3659651540347603 -0.1635213688638441 0.4567703721603320 
0.3079517732921841 -0.1986722696656903 -0.4428950517123125 
0.3191575748408584 -0.8034717601159629 -0.07826689584036162 
0.05859566088121912 0.8279168139621328 -0.4762227287815626 
1.007530066834110 -0.7608810022192247 -0.8340235889160853 
-0.1488899289995695 -0.04060018258715438 0.1038125418645412 
-0.2087729570478820 0.1318936229801461 0.1363605415708077 
-0.03938092443456032 -0.6716357290155500 0.04564719392074872 
-0.3529322293841843 0.1400914161496247 0.1405327673302680 
0.6876123458616900 -0.6487549402980476 -0.2668598529936903 
-0.4477543734102237 0.3778512986984500 0.4971143646674380 
1.000781730777541 -0.5913690645165860 -1.138580629705368 
-0.04896071574720406 0.7351582259146091 -0.3721001075685174 
0.1702412021030990 -0.3486773534420976 -0.04021854530552212 
-0.5801390617975968 0.3718664223690020 0.4987339329968891 
0.6977373940620625 -0.1616510239536411 -0.9555567057630860 
0.2716293248265979 -0.2131789105273421 -0.04252235663107908 
0.5803793786750996 -1.004372634397609 -0.6351196802573756 
-0.08580593629847864 -0.1676898325278379 0.05377327574836428 
0.5183821936895775 -0.1314154698246745 -0.7077137021558387 
0.5705545119892149 -0.2169679877929440 -0.3459786710730027 
-0.03352373361414823 -0.4912628563641349 -0.1345457121741696 
0.9696070357661644 -1.007336146509586 -1.134464809654645 
0.9696070357661644 -1.007336146509586 -1.134464809654645 
-0.3998451645869025 0.2665847897886735 0.3591590354227818 
-0.3606518285936225 0.1100323324129040 0.4485592624293823 
-0.1677769700254971 0.005713523207666056 0.05644854451909580 
0 0 0 
-1.441145729814249 -0.05110239419420407 1.355378775782624 
0 0 0 
0 0 0 
0.02826446640919448 -0.03237268821181513 -0.01286890427018192 
0.2248137959908284 0.2951912616804076 -0.5202831651616329 
0 0 0 
0 0 0 
-0.1727759955753341 -0.08021248234109575 0.3912116131287945 
0 0 0 
-1.791539706284449 -0.1698445964064271 1.807142061044527 
0.9822229029359051 -0.6177551346500828 -0.7009528536105555 
0 0 0 
0 0 0 
0.04531360029297006 -0.04901574005023950 -0.01331998277539591 
0.03487583316427061 -0.01841172901470533 -0.01886081375973556 
0 0 0 
0.7350653304462688 -0.3589599338880549 -0.3201068462595378 
0 0 0 
0.1826228517752536 -0.2088165096634219 -0.03909330585495043 
0.2356029650583773 -0.06128274418615406 -0.07093103687084999 
0.02134922468912842 -0.2035229676930720 -0.05387443012027583 
-0.4230991309319374 0.8038351138321788 -0.3373070046932727 
-0.2255861411658910 -0.4440625327075161 0.4622681284907791 
0.1707094877539160 0.07944092410217926 -0.3158701118696218 
0 0 0 
0 0 0 
0 0 0 
0 0 0 
0 0 0 
0 0 0 
0 0 0 
0.4899013067207949 -0.2219632439661618 -0.3907300742514806 
0 0 0 
0.6560537368714024 -0.1569287161228408 -0.5854863052041825 
0.2433065247843483 -0.1369702985694817 -0.1351529444713727 
0 0 0 
0 0 0 
-0.1792739794661409 0.1481492215344068 0.03638483560315781 
0.02840126691447780 0.1233917189220522 -0.1059481165211467 
-0.5440082280719585 -0.4568125210923096 0.7381270700650480 
0 0 0 
0.1794652795659971 -0.3043225974322155 -0.1488617231781315 
0.04128640118703993 -0.05559452797975625 -0.01076075216828098 
0 0 0 
0 0 0 
0.006569074276580990 -0.3166315887940354 0.1422182247697100 
-0.5892330813902673 -0.1231402337918735 0.7046378734246084 
0 0 0 
0.3599268883876365 -0.1228202446126681 -0.3008564774176407 
0.08091750392927456 -0.04368336325119783 0.06661314380240978 
0 0 0 
0 0 0 
0 0 0 
0.004142647207738112 -0.002399045919921977 -0.003884156902276679 
-0.1052825923754473 0.7701880111004639 -0.3587393201354261 
0 0 0 
-0.5440082280719585 -0.4568125210923096 0.7381270700650480 
0.4899013067207949 -0.2219632439661618 -0.3907300742514806 
0.1501382197318297 -0.1595731944935198 -0.06248178554522087 
0.4082345245206537 -0.08967837508368616 -0.4836054492393497 
0.3599268883876365 -0.1228202446126681 -0.3008564774176407 
0.6560537368714024 -0.1569287161228408 -0.5854863052041825 
-0.1792739794661409 0.1481492215344068 0.03638483560315781 
0.3424807049344624 -0.07280633647796787 -0.4241041133952475 
0.4510233628801681 -0.09477954617050055 -0.3327273268541671 
0.2289004709880737 -0.1047419816149261 -0.1440083636393499 
0 0 0 
-0.06054717148614474 0.4631353659967643 -0.4070209535438777 
-1.059653240343423 -0.01695620194610760 1.103676694932649 
0.006569074276580990 -0.3166315887940354 0.1422182247697100 
0.02783580247240372 -0.05366223612652514 -0.007260853534690333 
0.02840126691447780 0.1233917189220522 -0.1059481165211467 
0 0 0 
0.1794652795659971 -0.3043225974322155 -0.1488617231781315 
0.04128640118703993 -0.05559452797975625 -0.01076075216828098 
0.09069921571632378 -0.003412061303818312 -0.07196696013823684 
-0.5892330813902673 -0.1231402337918735 0.7046378734246084 
0.4117490821969100 -0.2531736213312064 -0.3051928149754355 
-0.9433774125889616 0.1363550084618170 1.257316402175446 
0.08091750392927456 -0.04368336325119783 0.06661314380240978 
0 0 0 
0.2433065247843483 -0.1369702985694817 -0.1351529444713727 
-0.4536273301565061 -0.1529057668286551 0.6313309018682699 
0.05045781321922031 -0.02451785019007766 -0.01051897137159231 
0 0 0 
0 0 0 
0 0 0 
0 0 0 
0 0 0 
0 0 0 
-1.222011082077525 0.8103478496808952 0.9118019124195119 
-0.3563332009521825 0.4044914418299513 0.1765574687155638 
0.06835628883562454 0.1413381484422601 -0.4749204474213133 
0.2829589766994127 -0.2445606400981732 -0.1033371765135519 
0.7647718915252985 -1.114827910112402 -0.4235424974316492 
0.06575760009140327 -0.4275793614565636 0.2231558606719241 
0.1655169122225899 -0.3447002275009486 0.3005469621803384 
0.6704260252243179 -0.1379724103371424 -0.8703332286803990 
-0.4338592477189406 -0.02352703977352349 0.4693175217030150 
-0.09684277071673277 0.4445736591608751 -0.1798582626174041 
0.3210406546842455 -0.05881823647488776 -0.2596547139031504 
0.2907970824265668 0.2535360622188693 -0.6522401601444335 
0.3396898524763546 -0.2049428410987200 -0.2168715168331455 
0.6134670936965640 -0.2443183175799015 -0.3577450101731718 
0.1743324781848044 0.1798964330375548 -0.4244814628271556 
-0.5048578674065248 -0.2416308219067793 0.8572381099297179 
-0.3333322590179282 0.6665639264150134 -0.3045341408092319 
0.5737838459579300 -0.5320345304314003 -0.2013182717188180 
0.8784867040411783 -0.7246955113253942 -0.3679691487598213 
-1.081512654549270 0.8626991170928094 0.5158294600406138 
0.7414366332890421 -0.5273110526460093 -0.5862812574359277 
-0.1955811855115150 0.5604585843784420 -0.3773552600747402 
0.3216932108859653 0.3494440753008530 -0.6910801679823639 
0.2779378242019797 -0.04635876970442916 -0.3097820770021909 
0.02777268609275355 0.7093265442162212 -0.4147998461755715 
-0.3518296958405298 0.3332415880109261 0.1236460430518277 
-0.7940542523632947 0.8306891854101882 0.2833569761232831 
0.2074853876688513 -0.08188900203580664 -0.2126738575711024 
0.2116468932325961 0.1766796454796137 -0.3110701597501839 
0.3927445251321411 -0.5159453362531241 -0.2677645242717136 
-0.3203436682111150 -0.1154603334202055 0.4478177448406909 
0 0 0 
-0.5439970606024025 0.2050272033383347 0.6428129819688524 
-0.06280710325899969 -0.1620719938195061 0.2429209593572593 
0.2060551991687741 -0.1209936424641443 -0.07460288865334815 
0.3936426421965932 -0.1982875463331071 -0.1496451402818051 
0 0 0 
0 0 0 
0 0 0 
-0.7780676324777548 0.8943182099423745 -0.05790723844636724 
-0.2113852238128521 0.6985270195236516 -0.3922219223932619 
0.4037426569798523 -1.388009854311523 0.3652495179038700 
-0.1537881140535486 -0.3119709891559794 0.4575708605351334 
0.6190601353860723 -0.3285798379549650 -0.7915686772595865 
-0.8397839506075236 1.012779695547728 0.2411393576680098 
1.183531403166769 -0.8587925015098350 -1.015155083110090 
0.4693563335275658 0.005444114881098479 -0.4720405977621052 
-0.3781213797624038 -0.4107806032448395 0.7188658570261544 
-0.03985471154771305 0.1936804467350593 -0.1649884251422152 
0.3393945379432326 -0.3419714290325294 -0.4647548373430584 
0 0 0 
1.048188589133052 -0.4482645609672786 -1.223587404195535 
0 0 0 
0.9670768866132189 -0.6926775948741606 -0.5509179075546268 
0.6054792680855856 -0.04794965797103142 -0.9049210008765853 
0.02747077616874206 0.3149660648739153 -0.3186289834197539 
0.1390103181740771 0.7814940796993829 -0.5155325464346535 
-0.5755684741001833 1.232279756036490 0.1043960095923733 
-1.998956506886734 0.7586731456099378 1.922105389148421 
0.06197867271270530 0.1453004746155592 -0.4210700839607718 
-0.2184282498143335 -0.06953444114900381 0.1176778916308884 
0.5186661234858738 -0.4624463975700255 -0.3359035081471041 
-0.09873648007204977 -0.4171612334582683 0.4913994772111533 
-0.3123194813334270 0.07613551848953058 0.1990779631943649 
0.6621484451551549 -0.3875733296514511 -0.4348271630049673 
0.2765935072286681 -0.3397889099573843 0.1075245950109124 
-1.045545270602123 0.7221804230770372 0.9553784782209066 
0.3323020099072513 -0.3007573874819805 -0.2305477130832826 
1.100556553096044 -0.07320014802645260 -1.483807039375494 
-0.01887211432652869 0.2003902981336140 -0.4776912366054639 
0.9767906163062783 -0.5076057273209144 -0.6934807537541081 
-0.3591300200971698 0.8886914571755948 -0.4894759485897116 
-0.9036479206561159 1.215362925673614 0.2716984070996338 
-0.7227824152062602 0.06927865746112043 0.7028871498027387 
1.105732596481335 0.07035597955232502 -1.282920829578352 
1.408181851682341 -0.6803908668665696 -1.155773071422948 
-0.3081372155092709 -0.5380358630944356 0.5248542998045610 
0.1887637989641231 -0.4135314726100185 0.1325283006032642 
0.2460112933322201 -0.2983679105122563 0.1338133480403881 
0.3789068178862622 0.04255948157812679 -0.4715470200411976 
0.7646880626830489 -0.4487396350137386 -0.6537254184207976 
0.08377463733444772 0.2898751646238488 -0.4331813297471325 
