solver_type L2R_LR_DUAL
nr_class 6
label 6 2 1 5 4 3
nr_feature 268
bias 1.000000000000000
w
0.2073854582160904 -0.2145274710680072 -0.5216387883520568 0.03479098197217394 0.4161588402031726 -0.5891248746857650 
0 0 0 0 0 0 
0 0 0 0 0 0 
0 0 0 0 0 0 
0.09236071311655616 -0.4664333807907219 -0.4409233861071674 -0.3755133954300438 0.4986253421792557 0.1992315590393902 
0.1615718476194379 0.7400359840001872 -0.2539459329008932 -0.1534183940024597 -0.4898319440960072 -0.03117904942533603 
0 0 0 0 0 0 
0 0 0 0 0 0 
0 0 0 0 0 0 
0 0 0 0 0 0 
0 0 0 0 0 0 
0 0 0 0 0 0 
0.5463534262716605 -0.09398122139955992 -0.3955454801486745 -0.09093881645320671 -0.07914591495765005 -0.02182222099147928 
0 0 0 0 0 0 
0 0 0 0 0 0 
0 0 0 0 0 0 
0 0 0 0 0 0 
-0.7320624828974590 0.1942187693874118 0.9228029298094302 -0.05493452017486995 0.01186166907070923 0.1536470863683026 
-0.4568544804393503 -0.3139546539305562 1.125807384368361 0.5664292990725290 -0.4561027214837365 -0.4785786616439673 
0 0 0 0 0 0 
0 0 0 0 0 0 
0 0 0 0 0 0 
0 0 0 0 0 0 
0 0 0 0 0 0 
0 0 0 0 0 0 
0 0 0 0 0 0 
0 0 0 0 0 0 
-0.1446172153518255 0.1754276612070450 -0.2319519638686462 0.4553504914249843 -0.5487201732911190 -0.3015704603550726 
0 0 0 0 0 0 
0 0 0 0 0 0 
0 0 0 0 0 0 
0 0 0 0 0 0 
0 0 0 0 0 0 
0 0 0 0 0 0 
0 0 0 0 0 0 
-0.3576862672995624 -0.1663937311449267 -0.4437393853355874 -0.009901960830985698 1.340431007066545 -0.01286967432858012 
0 0 0 0 0 0 
0 0 0 0 0 0 
0 0 0 0 0 0 
0 0 0 0 0 0 
0 0 0 0 0 0 
0 0 0 0 0 0 
0.5667084865631697 -0.06832575370975097 -0.2588037344620826 -0.03408642337400807 -0.2064835240967663 -0.06131763180949332 
0.3645002545407418 0.06813559397638450 -0.1704321775292631 -0.4244467926737562 -0.2803702747093368 -0.07053530907085283 
-0.5993030386004606 0.9467975434540388 -0.1574709495691430 -0.03275315772455029 -0.3127955046624854 -0.005851757982649875 
0 0 0 0 0 0 
-0.9170124460991285 -0.1312335798727669 -0.09916905938151238 -0.04095923002198591 0.9248355917519485 -0.005286624909070645 
0 0 0 0 0 0 
0 0 0 0 0 0 
-0.7018623852951662 0.5472831340753225 0.1337566739545744 -0.1493731766159037 0.2483507134647751 -0.06840141818621040 
0 0 0 0 0 0 
0.9009568366838291 -0.2885688720590903 -0.1493426129671321 -0.2480252062076833 -0.4507604982606001 -0.03203489355616417 
0 0 0 0 0 0 
-0.04378439439163674 0.03701013742881670 0.6832663698959192 -0.2155587138750926 -0.7433841683083331 0.007164709400388576 
0.1834397334124845 -0.1327929385206287 -0.1213728840591351 0.4110288734434738 0.5785322313311297 0.06825859030342003 
0.3356731153035542 -0.3718509758489709 -0.2648768652885510 0.007577178232137790 0.03370636836681701 -0.3173556391723143 
-0.007398939697909820 0.4250192305559614 -0.5365157951049143 0.003062742476219349 -1.411697992524918 0.3136924754816014 
0.2959953862465843 -0.9915991218689943 0.4747377231345302 -0.5785414865635208 -0.07294331795011919 0.3178304122484526 
0.4436858151921779 -0.7446379043203722 0.01302162646518592 -0.1014422842185439 0.03394722006893378 -0.4103918153402935 
0 0 0 0 0 0 
0 0 0 0 0 0 
-0.03093704239787949 -1.377332443215199 0.5244403778878799 0.1549561798870456 0.3824457413604103 -0.4544162652730767 
0 0 0 0 0 0 
0 0 0 0 0 0 
0 0 0 0 0 0 
0.1340970070440795 -0.4900206321660110 -0.6199745458069429 0.2127947475815619 -0.1106730730611585 0.1040138112207489 
0.2307192890110397 0.6120844294229854 -0.2256625370879493 -0.2352324659657387 -0.1545141597844751 -0.02482873480874522 
0 0 0 0 0 0 
0 0 0 0 0 0 
0 0 0 0 0 0 
0 0 0 0 0 0 
0 0 0 0 0 0 
0 0 0 0 0 0 
0.1582838173430951 -0.2074991200879346 0.1355142357734481 -0.02408397695015422 -0.1976235091919388 -0.03188041516819928 
0 0 0 0 0 0 
0 0 0 0 0 0 
0 0 0 0 0 0 
0 0 0 0 0 0 
-0.4657721141291669 0.3911044407431524 -0.09881432454153208 0.5588159262594945 0.4726864349392816 0.07932432863269698 
-0.2802399524551628 1.161765421825054 -0.7791135274193740 -0.7108761015203156 0.8173415084597040 0.2778636117355813 
0 0 0 0 0 0 
0 0 0 0 0 0 
0 0 0 0 0 0 
0 0 0 0 0 0 
0 0 0 0 0 0 
0 0 0 0 0 0 
0 0 0 0 0 0 
0 0 0 0 0 0 
-0.01652646349811396 -0.02693675755097798 0.6416433588065441 -0.6575429047821448 -0.2991192539726671 -0.4448672730115260 
0 0 0 0 0 0 
0 0 0 0 0 0 
0 0 0 0 0 0 
0 0 0 0 0 0 
0 0 0 0 0 0 
0 0 0 0 0 0 
0 0 0 0 0 0 
0.5318057254265653 -0.4213206383416053 -0.06387258951646807 -0.1065136543455717 -0.003317574083657829 -0.01295400459460534 
0 0 0 0 0 0 
0 0 0 0 0 0 
0 0 0 0 0 0 
0 0 0 0 0 0 
0 0 0 0 0 0 
0 0 0 0 0 0 
0.05941793400404950 -0.003185419998134170 -0.02830682689289511 -0.06699678460429627 -0.02837876593136095 -0.001692191646354611 
0.6811330013664745 -0.6857969408660090 0.03974532143380644 -0.8114571890232425 -0.07933522577584193 -0.01595348002726092 
0.2498372161978761 -0.3168421723685554 0.6042900721595140 -0.4575691869739394 -0.3094891443459142 -0.02354259381395522 
0 0 0 0 0 0 
0.4850948666039896 -0.08528783904097183 -0.1725607259228049 -0.1366568202876234 -0.03117863065284579 -0.02757480910022579 
0 0 0 0 0 0 
0 0 0 0 0 0 
0.003654529314618918 -0.2227397640583251 0.2579100360526233 0.1757920646226505 -0.1979400078181486 -0.02636935351231669 
0 0 0 0 0 0 
-0.2571366157720114 -0.2351186701920606 -0.4444299878261042 0.3744814063305819 -0.2695065801543822 -0.1036755106055920 
0 0 0 0 0 0 
-0.3099134955801035 -0.1466271044315268 0.4132496617044373 -0.2094677110982042 0.02827646923725694 0.6215567148562405 
-0.1027647074583784 0.2809404489581175 -0.2667541404269297 0.4802438782804990 -0.001110967402654066 0.1303611143386862 
-0.6285295488725392 1.056598002238679 -0.2643810655515907 0.5423966090042872 -0.4826022263877055 0.4066226137060371 
-0.04294634988711543 -0.7331757494785120 0.2160301178652133 -0.6374185290259669 -0.1648056746403271 -0.7509814037227935 
0.07448174038464010 0.5344926337264782 -0.4855523663255202 -0.2464098296240878 0.03606944481048936 -0.8279039044023351 
-0.3357094135521850 0.06452632443217018 -0.07573685181210936 0.7690903506900685 -0.3730118564418505 -0.2195974534187094 
0 0 0 0 0 0 
0 0 0 0 0 0 
-0.04162338895014223 0.1841894170648123 0.07671593720175425 0.1113265964527279 0.2227664791548538 0.6011714403120755 
-0.07051104880611647 -0.4028302183585077 0.1769152184103195 0.02239414451606910 0.08146922067985349 -0.4477115122811436 
-0.3111099736974029 0.4740100867157583 0.1212969994766434 -0.1433206602411516 -0.3251459843313289 -0.2331562512606710 
0.3262824531539254 -0.4775825730364334 -0.2373125398044628 0.2588283632155379 -0.9712063218920230 0.3134027898647228 
0.4172640915231983 -0.4312321836909591 -0.6650735852663843 0.2412670167581210 0.4523219199685813 -0.5538547149817810 
-0.6547010710214534 0.4703088624471566 -0.1317729540485071 -0.1378515857744230 0.3637488278114144 -0.1885264617662227 
-0.3319011720100393 -0.01957757225512671 0.6783012967586624 -0.3363331838997781 -0.3549237779165989 -0.1305166760389347 
-0.6594578233759336 0.3538755955994846 -0.4761486577214646 -0.4773072250171974 0.6677719846463308 0.1847335831535643 
0.4823674332220694 -0.07616614189753443 -0.09505135716880542 -0.0008268180766869514 -0.6338361031317136 -0.001489964060029483 
0.9398165341055307 -0.7411774059730237 -0.06349072808274700 -0.4585040430255877 -0.2459868166723003 -0.2893759912452094 
0 0 0 0 0 0 
0 0 0 0 0 0 
0 0 0 0 0 0 
0.5824259293129692 -0.3628618457355005 -0.5242730729178428 -0.3683378257267335 0.1568542164864798 -0.2636430261015575 
0.1585503514491192 -0.8037609068961121 0.2739826998594437 0.02044254977525175 -0.005683197662256122 -0.5666362623534149 
0.3830244096340517 -0.6221902943580873 0.1970321525790381 -1.239641973471746 0.1439665547198564 -0.1894101247049780 
0.1384346254594936 -0.1570514956905360 -0.1420230954387094 0.3562601672061818 -0.5838451717981811 0.3751209961520912 
-0.04668073828485927 -0.5715162490871383 -0.1667757300866954 0.2430478357550363 0.5825079123113289 -0.4571598903639406 
-0.5186614142185036 1.228032072164147 0.005468082718757516 -0.01552872444334742 -0.7764202655462793 -0.1906162006179931 
-1.211665905784602 0.4365633828786020 -0.2706435693182900 0.9862967791362698 -0.2356222083463617 0.1665568731155407 
0.7485297981165626 -0.1812731879811518 -0.1397990520354700 -0.7706489872694217 -0.01924070965866431 -0.04612899766874320 
-0.09590763259043666 0.1836869742566163 0.07469527719302664 -0.2435438125065946 -0.2283041813437094 -0.1745785660727078 
0 0 0 0 0 0 
0 0 0 0 0 0 
0 0 0 0 0 0 
0.03295631589432772 0.1731674968182962 0.02776401612370337 -0.2522029689455104 -0.2679564848369648 -0.2197436658832334 
0.8896065941463371 -0.3035003882933552 -0.3713942519906373 -1.009683790934199 -0.6842788469076974 -1.322252822909940 
-0.2058074380945746 0.4274916236875415 0.02675893119491060 0.3609757618569828 -1.937362197239780 -0.8768570553999775 
0.5469675017736480 -0.3244791773958865 -0.6633716838699009 -0.3794387121431550 -0.5592134685174329 1.103025656960023 
0.1693926889130831 -0.2363794876948823 -0.4839503960512193 0.5908436209516263 0.3494007196470560 -0.8816567723390908 
-0.1912828608937213 -0.05639365163081499 0.3958514387664472 0.03106047873414398 -0.4893419370891163 -0.2032375067519046 
0.009329852585950649 0.1874676721685069 -0.2459389105933406 -0.008618514496463718 0.2161662240446503 -0.9439086302405585 
0.1860819663852932 -0.9807869568360736 -0.3717199666132636 -1.190768971034829 1.303309558527509 0.3111954615461601 
-0.3766322875759010 0.1327084272524279 0.6500342797196158 -0.4357076554133981 0.1512540497893268 0.1449436476096474 
0.06623537236652637 -0.1990234226337532 0.3820658314718393 -2.346912384578122 0.4019093756208623 -1.303315376985849 
-0.2831214463624301 0.4196155348969985 -0.4054228933920847 0.1462057480044495 -0.01046645344854518 0.5914882360606025 
0.01712057827007740 -0.1381281561169552 -0.001756048875449678 0.4122270546473649 0.05817942697390543 0.1613964047518539 
0.05144815925380653 -0.1361399085544412 0.2373303566422252 -0.8077518766064601 0.1273487656696409 0.08582554386051634 
0.2715711404656911 -0.8468620365321754 -0.2031096861423403 0.7007963415392635 -0.2453849940269594 -1.016107903389497 
0.2222014268352864 -0.1759465996653911 -1.043129550367708 1.220032935922789 -1.216915146156921 0.4221598686952682 
-0.2074058077351796 0.2261130381565394 0.3416856832167755 -0.3562518104743789 -0.08045802546976410 -0.2879419716085834 
-0.4507437046947007 -0.1585978415884058 0.8327363075346772 -0.1894356170674181 -1.155003212419023 0.1283085028357859 
0.04698539857355666 -0.06310310482233839 -0.2788456596953711 -0.1480031352696302 0.6576650428547812 -0.6716531503943276 
-0.1230532078525910 0.9874856739407300 -1.229651485540339 0.1973280451185008 -1.257716972665038 -0.2684246008668316 
0.1598190941732869 0.07790172059231072 -0.1478686469967281 -0.7305199963401018 0.1819658657523230 -0.3350966164401891 
0.7396291312888612 -0.9493814221367840 -0.09622164426315069 -0.2796412705073146 0.3141300836383458 -0.1875683768543608 
0.06695226501391939 -0.4323574576078442 -0.04637887320318206 0.7436223834436299 -0.2903474881953347 -0.07446481211750220 
-0.3015395534085520 -0.3123191188268465 0.2738936947173527 -0.6250044009227611 0.5835196301961735 0.06240385522172125 
-0.4661886988600593 1.016311600833211 -0.2726158744944686 -0.8988538364661318 0.1306277927773990 -0.1328452511852786 
0.08661915261600407 -0.1293573490250829 -0.5013413203372981 0.6632876059296577 0.03069719277036341 0.07692205010033408 
0.2162399190052856 -1.696642353784640 1.211827173974972 -1.967794768817927 -0.9703891450070053 -0.1403183342646313 
0.2366279036325661 -0.1376735062717712 -0.08258097160818292 -0.02958068679018273 -0.2967347353190870 -0.7983947191239008 
0.1760749903826822 -0.1576930549599512 -0.2518248597650930 -0.06448948753785197 0.5356975951373850 0.03058300354934437 
0.3886189393798075 -0.2412117488819693 -0.7039650412714202 0.5024038048075506 -0.1383460557771984 0.2452704906142574 
-0.4999427830625005 0.4958948616410060 -0.09183541394525634 0.7633733773297809 -0.2573396954196466 -0.6277124383058261 
0.3488999814629834 -1.068764709045456 -0.4030275027402175 -0.6112309230759289 0.5075932974139707 -0.1177685534219908 
-0.1588172478546793 0.2476928447337563 -0.03064373403976086 0.3873809351842943 -1.476327590199599 -0.6713115811508231 
0.1141505066728898 -0.4599460590573898 -0.05109217509607730 -0.1972051576422087 0.2894046989124295 -0.07138327424857413 
-0.1661838171874188 0.4306463729199083 -0.2075728955706933 -0.6105988460112628 -0.2864574569645907 -0.4860317897943073 
0.9262059918354252 -1.667407661901355 -0.7544093089110253 0.5930114499492569 -0.5003957743070513 -0.2550282926707785 
-0.4771254305816039 0.9530126870870379 -0.2183934300959245 -2.194841057119002 0.001511810153506866 -0.5663620816317382 
0.1141514886385694 -0.2009992190029157 -0.02160890669778517 0.3056709733881886 -0.3569780768062361 -0.1146446628097514 
-0.4251826267986055 0.06502264336805650 0.3020753382579873 0.2645046422364645 -0.1099250098780034 -0.4104601615034340 
0.1380494230937772 -0.8503715504491681 -0.6923363074467538 -1.031653991545110 -0.9657870508377767 -1.346495198615684 
0.1380494230937772 -0.8503715504491681 -0.6923363074467538 -1.031653991545110 -0.9657870508377767 -1.346495198615684 
0.4053136656816337 -0.4156583352836944 -0.4804950496946715 0.08644884544733152 -0.01965665767841184 0.8173803655804445 
0.2167539191754851 -0.3059276252595664 0.001420583633332937 0.02419629789581107 -0.1497465651176585 0.8595842347294708 
-0.2650814809859333 0.1697029345776046 -0.1071301927873918 0.2873618332589011 -0.2909678795458433 0.07249359998491817 
0.7329473300581268 -1.923039520253997 0.4765200345143385 -1.041962963329355 -0.2250624682724237 0.5120348738988396 
-1.167212699445704 -0.04050340130150103 1.097856338461324 0.2299934240675312 -0.1334084859621069 1.048756561574125 
0.2222908766065419 -0.8924096327013629 -0.1621728844084527 0.7195499904217780 -0.4127342943413669 0.5264137406649475 
-0.5301981510534604 -1.213025523401629 0.9824656848091322 0.3136599402042395 -0.8582803889666502 -0.2808334515063828 
-0.1769351908685098 -0.005621087245148898 0.1648543876305323 0.1356051738127461 -0.1409178802880771 -0.2312130906500863 
0.2292677488790488 -1.426859580650971 -0.01504038516605631 -0.5410564176494063 0.2037689686067869 2.009642241396019 
0.02909163380064972 -0.2212439935614476 -0.3150575212262845 0.4517048246685303 -0.6964439640819432 0.5273964340674404 
0.6240819825129340 -1.369098009031434 -0.7833203925701572 -0.6739050548574870 1.037747610575365 0.5372526884172747 
-0.7411171623925890 0.2855171386255485 0.08037918289884219 0.1520381986619334 0.5806354444337798 -0.08239421462061819 
0.8333636619864335 -0.4136368080236020 -0.4218560141138417 0.1161382341422962 -0.1537145155771262 -0.2204096415603840 
-0.3319174509022362 0.8559493200725383 -0.8571558039156422 -0.1752261168858866 -0.2334819006910361 0.6566470736917940 
0.4241328887317165 -0.7551693683256923 0.4974659236450459 -0.08916988456104764 -0.7571080900616968 0.02740142824246396 
-0.1088245786269459 -0.3320420446268311 -0.8856799560906206 1.413475969975597 -0.05125330921692102 -0.2325473688339476 
0 0 0 0 0 0 
0 0 0 0 0 0 
0.4629507145960888 -0.4163403715066187 -0.07832980087508692 -0.002600212726313242 -0.02117534395186075 -0.005340288882925015 
0 0 0 0 0 0 
-0.2786214825843494 -0.1654474045535229 0.5266349098449263 -0.001840477291259916 -0.02839858993088533 -0.01623763896041627 
0 0 0 0 0 0 
-0.2946744569737283 0.2569124337426182 -0.3843460677270004 0.4122676070310504 0.4036335319018519 -0.01226206294420117 
-0.4350924338328420 -1.061222952898886 -0.7822447375146471 -0.05675108813975726 1.747369953189910 -0.02242791680015908 
0.1423214901680042 0.2957966337987618 -0.4464091086497112 0.1644540822513217 -0.6106167762082967 -0.1741092824002795 
-0.05101922446022843 -0.5587011667394282 0.3527101987996866 0.1500014790277245 0.4096384515889346 -0.7275819720676220 
0.4604136398174948 -0.6423201323705824 -0.01760621602600650 -0.2333095261490862 -0.6009516453931688 -0.3003755226914100 
0.01938210784537986 -0.3609420316085282 -0.5088705902694197 0.7320034747451949 0.06567089277886844 -0.3123890221764646 
0 0 0 0 0 0 
0 0 0 0 0 0 
0 0 0 0 0 0 
0 0 0 0 0 0 
-0.5690172080112468 0.5038622361713652 -0.2439046332622850 -0.3461841827159771 -0.01216144657221082 0.8857990607234734 
0.09637192895881190 -0.5130659604001279 -0.2654155855743890 1.317776600138568 -0.1542925503129938 -0.4393176343057761 
0.01442184930483176 0.5026923205060854 -0.4754896555750237 -0.6855198845742063 0.1803789881598351 0.05172552842608304 
0 0 0 0 0 0 
0.2243783959280098 0.1542934822327488 -0.3598967021580564 0.3510726967791977 -1.091508200852825 0.3715972145574467 
0 0 0 0 0 0 
-0.01319082608287236 0.3563346207221702 -0.05663462216734708 -0.3538882338841164 0.05596706515154523 -0.2059281977307606 
-0.2257937434501829 -0.6092048287309254 -0.2357692984648094 1.879087792603965 0.4048443291713037 0.006216582416734703 
0.01229665421681139 0.1489278539301420 0.3020574725445551 -0.4633668762069612 0.006294820404849140 -0.1398454584128852 
-0.3826060968422904 -0.1840407054164559 0.1857578117439152 -0.006398948268725219 0.5445372738504618 -0.01267844545372230 
0 0 0 0 0 0 
0 0 0 0 0 0 
-0.5266492722804245 0.1769843196692805 -0.1095844190405525 1.563459794626827 -0.6475672363095806 0.07020021744358006 
0 0 0 0 0 0 
-0.4157264249293137 2.181855251264496 -1.407728457694502 -1.134338918833288 -0.8273206791228739 -0.5891921258848435 
0 0 0 0 0 0 
-1.197398561649369 1.986164748898315 -0.4967587939281682 -0.1016979657705923 -0.04847268645523471 -0.04381350795697957 
0 0 0 0 0 0 
0 0 0 0 0 0 
0.02548871653666010 -0.2715179123822107 -0.1365710734042661 0.2493890447119550 0.4034586706725432 -0.1190418066459594 
0 0 0 0 0 0 
-0.2323493749493054 -0.6476120932909213 -0.7403488397453377 0.6148791722830366 1.266600164025275 -0.01817554693555329 
0.06039609562339139 -1.082471009994028 0.7475094365707985 -1.039200337245370 0.006927566695657437 -0.2147186637020354 
-0.7878022632600625 0.7303744169791305 -0.5700602398965464 2.070963943698339 -0.6396509602171124 0.03520739066725504 
0 0 0 0 0 0 
0 0 0 0 0 0 
-0.08024712060145363 0.02317463182716155 -0.2484524873558638 0.6534878118583511 0.2504369984705273 -0.1425116383476943 
-0.001895898803899149 -0.04672699104381838 -0.5525655913693142 1.181117275463471 -0.3156691845135381 0.6918314478012618 
-0.1792044073740972 -0.2825623549769646 0.8554906510858595 -0.1402998739699475 -0.2222736247796452 -0.05763648670483189 
0 0 0 0 0 0 
0 0 0 0 0 0 
0 0 0 0 0 0 
0 0 0 0 0 0 
0 0 0 0 0 0 
0 0 0 0 0 0 
0.02074088491485833 -0.2157291282661388 -0.8549395388543242 1.392694587063771 0.4067771943228604 -0.4538710092278770 
-0.5100201478875370 0.1196964231297549 0.6320924004164121 -0.4036860966393209 0.5958656405190659 -0.5374131522265149 
-0.3019215226494565 0.9177270783161906 0.2204353699176259 0.2146954040459575 -0.5248233549504849 0.1312749166370057 
0.3617010640108566 0.04953280587178508 -0.3069997632781301 0.7953046325609598 -0.2938690086301606 0.1311392109625069 
-0.1188526625877041 0.1882048400207146 -0.04795042012395871 0.3007935432624944 0.07587996369599345 -0.1687688386324094 
0.6798282632239988 0.2148909117840581 -1.149720721081610 -0.3345122231266799 0.9506854836554738 -0.1547392134484864 
0.5528174079254433 -1.559165752323480 0.7140207164487851 -1.493462097767403 -0.1678661851593274 -0.3026028253955719 
-1.149764345039136 0.6683506300648266 0.003537051185947093 0.1816542249781933 1.053277940828047 0.1191204085119874 
-0.4795482874476316 0.4538807920565020 0.03384794284226370 -0.2962299180646753 0.2292037132574575 0.02695023934278183 
0.1289199816844916 0.1305904422383439 -0.1481779758183655 -0.9689348011526608 0.02261111441076859 -0.7271190774444426 
-0.1031220990572838 -0.9607559945455082 -0.8128308682476124 -0.01547915057054840 1.463847800652113 -0.01725903963625029 
-0.6222632443155016 0.5653380028227508 0.1323459762692871 -0.2093202521448182 0.4584423896082480 -0.1808450377582046 
-0.4800628296031502 -0.1191154545369655 0.4327534877224418 0.8956263111621020 -0.6560329831148676 0.5560375866892684 
-0.2874672567914275 0.9837384297592788 -0.2455973494719274 -0.2045564974795469 -0.03948486547125163 -0.02689129615740471 
0.4627087441881188 -0.4841590109877737 -0.1001852556105492 -0.7693981871461135 -1.430114460615243 2.244717998361889 
