solver_type L2R_LR_DUAL
nr_class 3
label 3 1 2
nr_feature 372
bias 1.000000000000000
w
0.7681798888348451 -0.3045249407226549 -0.5324164556782963 
-0.03054774848426817 -0.08245888019548478 0.2231665331193954 
0 0 0 
0 0 0 
-0.1072007135702007 -0.01622523796819383 -0.008515664975567853 
0 0 0 
0 0 0 
0 0 0 
0 0 0 
0 0 0 
0 0 0 
0 0 0 
0.008316715571668932 -0.003553654923251467 -0.004328394600386273 
0 0 0 
0 0 0 
0 0 0 
-0.6341444181611093 0.5541805807228951 -0.03090841701149733 
0.6137706519589813 -0.4113277436579715 -0.4500418228406105 
0.08798149373550655 -0.3903757328172122 0.2589765343836920 
-0.4093367881712643 0.5477927797308967 -0.09271189491829210 
0 0 0 
0 0 0 
0 0 0 
0 0 0 
0 0 0 
0 0 0 
0 0 0 
0.2609586688128310 -0.07247678348940056 -0.2122237494619103 
0 0 0 
0 0 0 
0 0 0 
0 0 0 
0 0 0 
0 0 0 
0.04264077728321057 -0.04082464125609259 -0.02332799142178581 
-0.5914397685326319 0.8700040381795959 -0.3396568633091264 
0 0 0 
0.01718864440183621 -0.003549631550153762 -0.009243293969061851 
0 0 0 
0.06207218433558726 -0.1017079956184164 -0.002111707336977603 
0.01221877670860696 -0.02648135203535009 -0.0009441044013101792 
0 0 0 
-0.5983039194022298 -0.09035214148771173 0.7981775360014911 
0.003586498120787713 -0.001624032327999857 -0.001523914036183326 
0 0 0 
0 0 0 
0 0 0 
-0.3626703261433403 -0.05599742182509044 0.4761413721868053 
0 0 0 
0.2192114358506991 -0.01543140934357765 -0.3324320100653340 
0.2523042354721465 -0.1550380368705412 -0.09232722084070596 
0.1829488293744760 -0.05297952184179725 -0.08462391713066617 
0 0 0 
0.07535272562406133 -0.6387852482094631 0.3681440963261548 
-0.01203541264203163 -0.1411605385133898 0.1165252594136486 
0.3491579072050849 -0.1115076782884120 -0.2805705995990280 
0.1953071907375717 -0.3490491040740239 -0.1816132043616047 
-0.1207864159778997 -0.03214193377982060 0.1726503249237109 
0.6830504490843274 0.1183970693384738 -0.8668265557777021 
0 0 0 
0 0 0 
-0.06975886086654862 0.1452151516562010 -0.1628940848341401 
-0.1560080965127545 -0.09350913821665430 0.1774766243124393 
0 0 0 
0 0 0 
0.1686243125800391 -0.02746580645635161 -0.1207311730313403 
0.1415857468076986 -0.06482562082185861 -0.1489651988271778 
0 0 0 
0 0 0 
0 0 0 
0 0 0 
0 0 0 
0 0 0 
0.005496020954797958 -0.002440198535240924 -0.002419668434343713 
0 0 0 
0 0 0 
0 0 0 
0.3036086140987020 -0.1560617578196266 -0.1704568435977943 
0.3200887749742568 -0.6397809674094413 -0.1819567234031016 
-0.7663153109248676 0.4634849159870951 0.7356089809195878 
0.2772470610750593 -0.1282535290979221 -0.1900852869996846 
0 0 0 
0 0 0 
0 0 0 
0 0 0 
0 0 0 
0 0 0 
0 0 0 
-0.08731398639619070 0.3306845794193937 -0.2312530967058112 
0 0 0 
0 0 0 
0 0 0 
0 0 0 
0 0 0 
0 0 0 
0.01329548681732875 -0.1346608474211964 0.2043555934908977 
-0.2364414836662721 -0.001992970610881300 0.1588422356972818 
0 0 0 
0 0 0 
0 0 0 
0 0 0 
0 0 0 
0 0 0 
0.2245539745236475 -0.04639706010306271 -0.1371766224795175 
0 0 0 
0 0 0 
0 0 0 
0.1082751206409481 -0.01633431203023988 -0.03893863200906619 
0.5224740161846309 -0.04815526126417190 -0.5208915392314540 
0 0 0 
0.07399436710489056 -0.001095443564854131 -0.1001453424076454 
0 0 0 
-0.1181577681739102 0.2667710793506566 -0.1334070440687402 
-0.5861765093722426 -0.002979394484257155 0.5066300290493398 
0.1605660838861582 0.01372063961108593 -0.1514100584060339 
0.4244729079687451 -0.1761322276482126 -0.3628187913418293 
-0.06510221501754095 -0.5681966008516335 0.3350634510337360 
-0.2063619076093126 1.023404559339115 -0.6447529970952046 
0.3645246255204204 -0.7106932360407665 -0.06986783406900696 
0.1506105874295649 -0.4315057458113351 0.1176278970574559 
0 0 0 
0 0 0 
-0.1315837363613259 0.4154114291443581 0.07302359445652924 
0.8826842445981049 -0.3836926852515464 -0.8962580150588677 
0.3179872946900250 -0.2063637112836015 -0.3604379404487441 
0.7067178677990038 0.1266286959930655 -1.083988299733804 
-0.1328321206490117 -0.2927844339647063 0.2714561399274075 
-0.4793305065522026 -0.01356106977190765 0.4618979600224186 
-0.02498537160621617 -0.08300843458219749 0.08300642903650320 
-0.4449621861841735 -0.05935632432731555 0.4259594351405207 
-0.1188475849132262 -0.03717473577890822 0.1787164967135164 
0.1118786772683333 -0.05531416386076286 -0.05781593657026708 
0 0 0 
0 0 0 
0 0 0 
0.3490530551557917 -0.3955061573560560 -0.1868107430270894 
0.05917850943008702 -0.5536772966013243 0.1422575334931980 
-0.1577845342039063 -0.5858248812936734 0.4711668049611226 
0.2138480453133193 -0.2999350269229370 -0.06221097060527475 
0.8083911386044672 -0.003737387587341481 -0.8648946452050358 
-0.5050776343633087 0.7336442192372351 -0.2043895437263903 
0.1408164453088408 -0.01825433662677770 -0.1548474610785572 
0 0 0 
0.05041575808258571 0.1653438098665740 -0.2714786925967708 
0 0 0 
0 0 0 
0 0 0 
0.4017364310810933 0.1315846369578969 -0.4801060476145831 
1.048225019300405 -0.4484719331610209 -1.222018867234268 
1.750802437270543 -1.368533801602042 -1.343967688866282 
0.6517554867922960 -0.1064180851320234 -0.5961591680167738 
-0.5040977121643224 0.1138547575863626 0.1533424579436190 
-0.2835446780057270 0.1135875542288119 0.1461108124456118 
1.041460165962201 -0.6473349154425500 -1.067174211994353 
-1.073806715724843 0.6235910515043126 0.9604992764172731 
-0.6147874221029122 0.2640542460329733 0.6147823966897294 
1.161782905924315 -1.254523187376211 -0.4719486846827986 
0.4155205270984358 -0.1589504245949676 -0.3196302574203952 
-0.4114900155587351 -0.4333695200513005 0.6847849034655756 
0.1002618652510320 0.4346716027102879 -0.8659407188565784 
0.2176211474134255 0.04328525158559630 -0.2649965296786234 
-0.7312501524522564 0.8000041867645555 0.3608378505743717 
0.2153352843510290 -0.4383171018621165 -0.2556726887827151 
-0.4003551281419558 -0.1634866462842859 0.5011061165259840 
0.3291022656673427 -0.1988260903934591 -0.4695129423998984 
0.3185472509713753 -0.8033933548493004 -0.07685388366276376 
0.06215393951804814 0.8278470023237281 -0.4796304538940823 
1.014748824118734 -0.7610280362986023 -0.8439342642755970 
-0.1469833950727976 -0.04049441499013615 0.1013121879408443 
-0.2094321950335057 0.1321823476679128 0.1349471143843585 
-0.02835618296438180 -0.6717458321558983 0.03273337076718486 
-0.3705640040389535 0.1401808529235148 0.1629296400393941 
0.7046172735374661 -0.6487041251892120 -0.2850706922517223 
-0.4441727903225657 0.3777667333473043 0.4898096094747798 
0.9944511632368178 -0.5913900038444692 -1.129180274019537 
-0.05763716870030938 0.7353972147840490 -0.3637740053628832 
0.1694432712791730 -0.3487040326894366 -0.04001377402837086 
-0.5867828713133514 0.3720867456344765 0.5009700047187652 
0.7012066469068454 -0.1618959870921966 -0.9540121226892733 
0.2698167171209610 -0.2131406223408358 -0.04112611829247728 
0.5835410693127926 -1.004249329025604 -0.6383978891181656 
-0.08405296035953533 -0.1679545226082000 0.05069526362790419 
0.5163606589051465 -0.1307781207445467 -0.7095525590727404 
0.5696786129646156 -0.2170267845582533 -0.3453829412228345 
-0.03420474948297996 -0.4914397649131487 -0.1283258887134873 
0.9677815620272491 -1.007199192824167 -1.132566125381191 
0.9677815620272491 -1.007199192824167 -1.132566125381191 
-0.4082548577004333 0.2662577891718375 0.3729668724277530 
-0.3655509662170220 0.1097913565775120 0.4547987111878338 
-0.1624940705012051 0.005842926777357453 0.05212326004794140 
0 0 0 
-1.427910916736148 -0.05111855570081700 1.344344825327690 
0 0 0 
0 0 0 
0.02787346183093494 -0.03236594405519830 -0.01271819356433894 
0.2254490592660577 0.2950123305227866 -0.5215601736272639 
0 0 0 
0 0 0 
-0.1714918713697171 -0.08024308526598209 0.3910891050634047 
0 0 0 
-1.669306175745009 -0.1689058283048232 1.720306829047679 
0.9903270489707912 -0.6177953862886395 -0.7141939872284705 
0 0 0 
0 0 0 
0.04523571146024367 -0.04901074216040564 -0.01322229834032737 
0.03506117104474202 -0.01841836809055939 -0.01920674552398165 
0 0 0 
0.7336884964569568 -0.3590371460385806 -0.3185793248385596 
0 0 0 
0.1788068440521624 -0.2088695037294346 -0.03781481144279803 
0.2074139954605761 -0.05861414680871553 -0.06697429822265710 
0.03679164066010537 -0.2033995089528477 -0.07472251966294118 
-0.4235011768351631 0.8042860493581515 -0.3425885747352955 
-0.2212310075307210 -0.4441078137180925 0.4614927884288926 
0.1804770385168823 0.07956564495652438 -0.3257810785464855 
0 0 0 
0 0 0 
0 0 0 
0 0 0 
0 0 0 
0 0 0 
0 0 0 
0.4878568871617912 -0.2220372156857448 -0.3883159769770081 
0 0 0 
0.6590920914435593 -0.1569454029972376 -0.5892345052770935 
0.2368534533348503 -0.1369916037118737 -0.1307702290067145 
0 0 0 
0 0 0 
-0.1830957944818131 0.1482142226359586 0.04428391560284129 
0.02812462977680693 0.1239778224342598 -0.1085550627847558 
-0.5477858788200359 -0.4568635468926732 0.7488523803528366 
0 0 0 
0.1823527796053701 -0.3043975421579592 -0.1554089849841309 
0.04010610564021491 -0.05558168292302321 -0.01041239267729508 
0 0 0 
0 0 0 
0.007812463867488597 -0.3166998603183496 0.1433880639087656 
-0.5917061579055934 -0.1231021695014451 0.7066388392252967 
0 0 0 
0.3553347029185364 -0.1228277804050887 -0.2972079024296619 
0.08287871789328169 -0.04378739947761468 0.06582331788879063 
0 0 0 
0 0 0 
0 0 0 
0.004171420110352472 -0.002399038956727621 -0.003930574570080661 
-0.1202835019793663 0.7701509329397576 -0.3476784718971583 
0 0 0 
-0.5477858788200359 -0.4568635468926732 0.7488523803528366 
0.4878568871617912 -0.2220372156857448 -0.3883159769770081 
0.1503337593818243 -0.1595306612643797 -0.06228984595065803 
0.4157776995187646 -0.09019201800441251 -0.4892148649343301 
0.3553347029185364 -0.1228277804050887 -0.2972079024296619 
0.6590920914435593 -0.1569454029972376 -0.5892345052770935 
-0.1830957944818131 0.1482142226359586 0.04428391560284129 
0.3381837024646100 -0.07281606559790332 -0.4202320873286116 
0.4415439332418947 -0.09482574785165929 -0.3238676103662223 
0.2365203789618444 -0.1047424154163527 -0.1508561905564790 
0 0 0 
-0.04912079657629181 0.4632248769493481 -0.4164731953718317 
-1.063737489781636 -0.01696626988312113 1.106301837149803 
0.007812463867488597 -0.3166998603183496 0.1433880639087656 
0.02725372748423171 -0.05367521000367847 -0.007133286510489920 
0.02812462977680693 0.1239778224342598 -0.1085550627847558 
0 0 0 
0.1823527796053701 -0.3043975421579592 -0.1554089849841309 
0.04010610564021491 -0.05558168292302321 -0.01041239267729508 
0.09072426687111117 -0.003413296676343293 -0.07231038226851670 
-0.5917061579055934 -0.1231021695014451 0.7066388392252967 
0.4209273157344713 -0.2532924792635435 -0.3107315988928544 
-0.9469428970531664 0.1363095660280051 1.260108647196453 
0.08287871789328169 -0.04378739947761468 0.06582331788879063 
0 0 0 
0.2368534533348503 -0.1369916037118737 -0.1307702290067145 
-0.4525723930073403 -0.1529218873964418 0.6271666318645027 
0.05355406489316363 -0.02452460995215204 -0.01121182374061130 
0 0 0 
0 0 0 
0 0 0 
0 0 0 
0 0 0 
0 0 0 
-1.235353616273714 0.8103413727235487 0.9236048969118034 
-0.3630867914363828 0.4043847145662812 0.1834103350713134 
0.05499280790144724 0.1413362750301474 -0.4603494171949862 
0.2870426644140317 -0.2445252316847560 -0.1045951872471401 
0.7818975628124936 -1.114970066027608 -0.4380762799651901 
0.06175984284496684 -0.4275177370650907 0.2300967417128778 
0.1781351779413023 -0.3449089534493009 0.2915757837771821 
0.6644708460396330 -0.1380299662169050 -0.8621287729689392 
-0.4164501879664752 -0.02315852015903675 0.4496323091691968 
-0.1003704198187837 0.4447199403802009 -0.1793132643157203 
0.3127282658995245 -0.05886542762351872 -0.2528385819724531 
0.2909282584665174 0.2533673901884310 -0.6531265540485048 
0.3459254547218632 -0.2050111739265063 -0.2220534682644028 
0.6073954481567391 -0.2443053657581487 -0.3506949092599541 
0.1846602358436913 0.1799507234640122 -0.4312415621414407 
-0.4970508441614941 -0.2417831682939994 0.8513867330817003 
-0.3306032305958993 0.6664599784016723 -0.3080809407569531 
0.5727930998468059 -0.5320758920760774 -0.2013618426152500 
0.8785681415754154 -0.7245990567415237 -0.3702191185428199 
-1.085052170908998 0.8626868356498572 0.5178053199415589 
0.7478637694342076 -0.5278290607819972 -0.5884121151166019 
-0.1954975377388933 0.5602995396308742 -0.3783593191054500 
0.3100489902909713 0.3501844749425976 -0.6873599594499765 
0.2670642762981608 -0.04578386080328133 -0.3019089866809849 
0.01475792117527386 0.7092249713537299 -0.4042189907089787 
-0.3469867963990490 0.3331038768801385 0.1202127162379383 
-0.7906151767294193 0.8320041197186077 0.2731450181498727 
0.2063712963482904 -0.08190945511082473 -0.2102167594381485 
0.2072915103451673 0.1766876677593663 -0.3084783474190218 
0.3831404864665286 -0.5159018776411670 -0.2602501250543081 
-0.3102687834418150 -0.1154507290372569 0.4332543444605028 
0 0 0 
-0.5471418184677820 0.2052017835790805 0.6464600267557503 
-0.05326571340218671 -0.1620892513624916 0.2308987382914159 
0.2047007338682786 -0.1209764812245383 -0.07410129144795974 
0.3911563602402555 -0.1982903313728824 -0.1496719636641365 
0 0 0 
0 0 0 
0 0 0 
-0.7797614978124898 0.8943276557317793 -0.05765557271565564 
-0.2026989680719492 0.6983466859747394 -0.4060675147270317 
0.4071920664974127 -1.388157177329958 0.3608645999172350 
-0.1459253996153030 -0.3115850006287479 0.4452639391520311 
0.6255885165916947 -0.3286687610693901 -0.8017872923881768 
-0.8830133628578390 1.012574825518464 0.3261934341227173 
1.199447125446455 -0.8587776271012557 -1.039718035319197 
0.4713403062408088 0.005559425380099779 -0.4777710653453321 
-0.3836568780201516 -0.4103278355953958 0.7250093437643639 
-0.03731052309103213 0.1934381156387545 -0.1665079574208535 
0.3405239438380285 -0.3418375397064847 -0.4690486444903915 
0 0 0 
1.048225019300405 -0.4484719331610209 -1.222018867234268 
0 0 0 
0.9583613538579432 -0.6928106592897450 -0.5398707832032651 
0.6052226086065330 -0.04768401775304947 -0.8995582150282171 
0.02220080355576219 0.3152106020291952 -0.3120876120018847 
0.1378073040261124 0.7816117611833715 -0.5205680510330056 
-0.5840355167561688 1.232108787451506 0.1131604599432113 
-2.002165565916058 0.7586036305809034 1.923717459832784 
0.05757605154561377 0.1451586565875091 -0.4200277506893183 
-0.2117236697925535 -0.06961847011668647 0.1089406473003687 
0.4639117897495339 -0.4628127683525942 -0.2772251584727460 
-0.09656862355031726 -0.4171033030513082 0.4915163650339324 
-0.2579625886161204 0.07644527059537060 0.1418868453237202 
0.6592806367327451 -0.3876235278032621 -0.4327720580608152 
0.2809215526382374 -0.3397584626471513 0.1004107904231290 
-1.044405121727106 0.7221783029742977 0.9457513292732067 
0.3383342891114825 -0.3008612384710284 -0.2356536711197547 
1.098076911825379 -0.07326918112043057 -1.481105411128365 
-0.01208624192198057 0.2003193269592352 -0.4837976153882665 
0.9804315207908865 -0.5076061804808318 -0.6955056037513132 
-0.3662742424150944 0.8884098494873751 -0.4791145954670494 
-0.9044174642252716 1.214870052284517 0.2722505194886620 
-0.7200562355098761 0.06912231008315556 0.6964089565152085 
1.099053874348474 0.07035096865357485 -1.274563813797975 
1.402932602538535 -0.6808478025251375 -1.147014672014719 
-0.2867928361195176 -0.5377286015365698 0.5013434628899518 
0.1835318688245287 -0.4137567122011015 0.1380479637894911 
0.2500220199981510 -0.2983947977721400 0.1283398758827499 
0.3627463541167592 0.04371445863173846 -0.4651100068464803 
0.7618852105636436 -0.4487928304608619 -0.6522668849455814 
0.07555044297212189 0.2897982025603779 -0.4248676630625127 
-0.4828929971998965 -0.005382043945699825 0.4565109040750731 
-1.334471268679196 -0.02407748927484253 1.223823222993993 
1.265155256377913 -0.02250008436787260 -1.268189753420379 
-0.4057087815782867 -0.002016608801065296 0.3527141333565576 
0.2002463409412931 -0.05702231545473192 -0.05326117664123717 
0 0 0 
0.03234320412510326 -0.01565171743335978 -0.006885144428190443 
0 0 0 
0 0 0 
0 0 0 
