solver_type L2R_LR_DUAL
nr_class 5
label 2 6 1 5 4
nr_feature 166
bias 1.000000000000000
w
-0.1347316513827391 -0.3723176939467080 0.5613887065609862 0.09956798431410155 -0.4053456599628868 
0 0 0 0 0 
0 0 0 0 0 
0 0 0 0 0 
0.2876366919760411 -0.6505057640748068 -0.4199758032498705 -0.1125136642472060 0.4814749456970553 
0.6197258560897891 -0.1864845894371611 -0.1745123388446169 -0.05048952602556187 -0.2241072430736351 
0 0 0 0 0 
0 0 0 0 0 
0 0 0 0 0 
0 0 0 0 0 
0 0 0 0 0 
0 0 0 0 0 
-0.4276741896473281 0.6186654257785955 -0.2452108856083271 -0.05269878652698436 -0.02326968325182175 
0 0 0 0 0 
0 0 0 0 0 
0 0 0 0 0 
0 0 0 0 0 
-0.4780647986317402 -0.1308368638260332 0.07862032607782676 0.09084738765689862 0.6015656416249000 
-0.8809579515640381 0.1172806072676231 0.8952479499059047 -0.8319884839226391 -0.3884103084490594 
0 0 0 0 0 
0 0 0 0 0 
0 0 0 0 0 
0 0 0 0 0 
0 0 0 0 0 
0 0 0 0 0 
0 0 0 0 0 
0 0 0 0 0 
-0.6168331353776402 -0.2684664939672381 -0.1793624388228834 0.7250653013781843 -0.1530219017797041 
0 0 0 0 0 
0 0 0 0 0 
0 0 0 0 0 
0 0 0 0 0 
0 0 0 0 0 
0 0 0 0 0 
0 0 0 0 0 
-0.01055053985257645 0.6468899369081370 -0.2583701835339341 -0.08257496895458385 -0.09172913778276018 
0 0 0 0 0 
0 0 0 0 0 
0 0 0 0 0 
0 0 0 0 0 
0 0 0 0 0 
0 0 0 0 0 
-0.1014281018428823 0.3864490989845284 -0.06584264284466715 -0.02317674567011718 -0.3019183903813402 
-0.3629949817276069 0.1269972630748735 0.5735893188841589 -0.1140278684166468 -0.1133669046835653 
0.6550582551999666 -0.3276119313921619 -0.1553389652026998 -0.03239492088928295 -0.1891418328622164 
0 0 0 0 0 
-0.02394441859279218 -0.2645325102387322 -0.1122696755551483 -0.02198518669325182 0.2739666176258363 
0 0 0 0 0 
0 0 0 0 0 
0.3805879389898172 -0.5090049281594865 -0.1968089874128243 -0.06478520294548165 0.4393120922759787 
0 0 0 0 0 
-0.05799268009978095 -0.2237199728316678 -0.2731968170738842 -0.1273481868432267 0.2253314468692179 
0 0 0 0 0 
0.9948170450738277 0.1880534942221977 -0.2986903530071760 0.03622519649624686 -0.4824739381405201 
-1.172607235251325 -0.2707699566197603 0.3209393515678719 -0.2837278302068542 -0.1734888653742530 
-0.7661818066172396 -0.02422452353513827 0.06629713915791073 0.3558488697305245 0.1001270079597316 
0.1462998077459507 0.4531212322806328 -0.9235942846869781 0.04326961475560427 -0.8747723657993551 
-0.1369919230263371 -0.09988723973036728 0.4523992323301584 -0.2679787310091682 -0.2103096884016601 
0.7299916459815254 0.3515154087419878 -0.4011524945711189 -0.8059676949131532 0.1598159692493835 
0 0 0 0 0 
0 0 0 0 0 
0 0 0 0 0 
0 0 0 0 0 
0 0 0 0 0 
0 0 0 0 0 
0 0 0 0 0 
0 0 0 0 0 
0 0 0 0 0 
0 0 0 0 0 
0 0 0 0 0 
0 0 0 0 0 
0 0 0 0 0 
0 0 0 0 0 
0 0 0 0 0 
0 0 0 0 0 
0 0 0 0 0 
0 0 0 0 0 
0 0 0 0 0 
0 0 0 0 0 
0 0 0 0 0 
0 0 0 0 0 
0 0 0 0 0 
0 0 0 0 0 
0 0 0 0 0 
0 0 0 0 0 
0 0 0 0 0 
0 0 0 0 0 
0 0 0 0 0 
0 0 0 0 0 
0 0 0 0 0 
0 0 0 0 0 
0 0 0 0 0 
0 0 0 0 0 
0 0 0 0 0 
0 0 0 0 0 
0 0 0 0 0 
0 0 0 0 0 
0 0 0 0 0 
0 0 0 0 0 
0 0 0 0 0 
0 0 0 0 0 
0 0 0 0 0 
0 0 0 0 0 
0 0 0 0 0 
0 0 0 0 0 
0 0 0 0 0 
0 0 0 0 0 
0 0 0 0 0 
0 0 0 0 0 
0 0 0 0 0 
0 0 0 0 0 
0 0 0 0 0 
0 0 0 0 0 
0 0 0 0 0 
0 0 0 0 0 
0 0 0 0 0 
0 0 0 0 0 
0 0 0 0 0 
0 0 0 0 0 
0 0 0 0 0 
0 0 0 0 0 
0 0 0 0 0 
-1.228940604655063 -0.1010465015882341 -0.01628203732432748 0.1599177429484497 0.05383942605483680 
0.003434298149783544 0.03723734072283172 -0.2767433374669783 -0.4757478699137356 -0.1938809232670897 
0.4733912291494567 -0.3171100562732013 0.1697356627556811 0.07948279440361258 -1.441682836962320 
-0.3679960290007034 -0.08246507094052535 0.04393314634457934 0.01507293600836870 -0.1851688770481785 
0.1537778116824612 0.4203237403544214 -0.4629457536217000 -0.5648664275090943 -0.05365083170093833 
-0.3990088453199708 -0.04782353340073366 0.003954088218318497 -0.5266705547186459 0.5859555976114361 
0.3422070938177382 -0.4742972350849063 -0.3047471275384391 -0.08229376816091809 0.1958018015959976 
-0.09433744212114947 -0.1836481285483159 -0.08013571545123165 -0.01692847986521954 0.2080981738774591 
-0.2393636842596683 0.3094394442579760 0.1673872281547861 -0.1087998161254183 -0.5190737288018781 
0 0 0 0 0 
0 0 0 0 0 
0 0 0 0 0 
0 0 0 0 0 
0 0 0 0 0 
0 0 0 0 0 
0 0 0 0 0 
0 0 0 0 0 
0 0 0 0 0 
0 0 0 0 0 
0 0 0 0 0 
0 0 0 0 0 
0 0 0 0 0 
0 0 0 0 0 
0 0 0 0 0 
-1.164283586731058 0.1867589623374555 -1.225359624492176 1.040547877070580 -1.719977639235248 
0.002409741740996865 -0.2925715503563366 0.7825680980935168 -0.6518522358972528 0.1094335010775871 
0.5295120828220361 -0.05078308269873241 -0.06538151432959248 -0.1077987164826097 -0.3293124026813133 
-0.3326238484931769 0.08919581721813527 -0.02792615669419602 0.3474558129391492 -0.7227623417785137 
-0.5707999179204839 0.3312862125793200 -0.4273046144723330 -0.1376270995176610 0.2412144434500627 
-0.4131305669958219 -0.2742652241502355 -0.3287580782417331 -1.571358448219541 1.466280945771624 
0.5920799230203969 -0.4290111354302928 0.5363180442072084 -0.4402006328252611 -0.3946387052448734 
-1.740466519947173 -0.4200287449129223 0.8689592805028554 0.9011102975487930 -1.989605168912610 
-0.8932590701280904 0.07398530288559005 -0.2931736900609396 -0.5458339602797649 0.9129718955806944 
1.292626321215196 -0.4216797457141037 -0.9465071730621103 -0.5417122388120019 -0.6761839000218364 
-0.02476661126195114 0.09695707929310640 -0.1689825646226272 -0.3347838521521044 0.06805821846001167 
0.2206704800373739 0.09972932909249624 -0.2663130313519891 -0.6617713557662916 -0.1475610387465431 
-0.09230598302921063 0.2694852314686084 -0.1855784051616592 0.2023205928293515 -0.1901996833371437 
-0.1193347894432519 -0.1378384526134664 0.2357517378271610 -0.5401629263005850 0.6727574783367468 
-0.4245344989736277 0.8323669570571599 -1.797072493950918 -0.7357311237949811 0.4909004504902088 
-0.9191988049291498 -0.2762648050203012 1.197509607159476 -0.7457583979765923 -1.935250982577725 
-0.2211319561735882 -0.9775158171910978 0.4057915977028512 0.2536052275949270 0.4750007637778046 
0.2080290875192595 -0.01797633534644744 -0.5620725568407241 -0.2929491487559556 -0.3804124303309647 
-1.356836172557111 -0.4393900005006886 -0.7558438459293149 -1.520833442932607 -1.349762198640673 
-0.7020191529159524 0.2137674580684476 -0.5448417799570362 0.6065759525120511 -0.1428155960128265 
-0.4843164791844257 0.8120356770616455 -0.7742140135431070 -0.5265649106147658 0.02419380297870866 
