solver_type L2R_LR_DUAL
nr_class 3
label 3 2 1
nr_feature 362
bias 1.000000000000000
w
0.7673163634135016 -0.5248854251852652 -0.3074227441602267 
-0.01761181652669671 0.2100885802933714 -0.07974698666661860 
0 0 0 
0 0 0 
-0.08314918708001869 -0.03096598379191562 -0.01707659787775613 
0 0 0 
0 0 0 
0 0 0 
0 0 0 
0 0 0 
0 0 0 
0 0 0 
0.008957525881314508 -0.004593753145295296 -0.003632936230415636 
0 0 0 
0 0 0 
0 0 0 
-0.6371559270474996 -0.03055672026768307 0.5716833129100705 
0.6165425601624206 -0.4524002801685907 -0.3730639326625884 
0.1201350579525596 0.2447155504323589 -0.4464083051767747 
-0.4417002226716879 -0.08075832633634229 0.5453717402928472 
0 0 0 
0 0 0 
0 0 0 
0 0 0 
0 0 0 
0 0 0 
0 0 0 
0.2605744000014666 -0.2072242414161358 -0.06944743254744179 
0 0 0 
0 0 0 
0 0 0 
0 0 0 
0 0 0 
0 0 0 
0.04070390701688084 -0.02177133861090012 -0.04012771033156225 
-0.6125077264662109 -0.3367249754618498 0.8853612868605605 
0 0 0 
0.01740557315343995 -0.009156191545524812 -0.003710764334431345 
0 0 0 
0.06572488378559736 -0.002497016828306723 -0.09785149743042415 
0.01268040176276653 -0.001026415187124089 -0.02715683144597511 
0 0 0 
-0.6320350948907812 0.8162488303858696 -0.08358042483587472 
0.003341069696082590 -0.001302162830225051 -0.001567640353144411 
0 0 0 
0 0 0 
0 0 0 
-0.3764819210387587 0.4963882506967157 -0.05681055213700584 
0 0 0 
0.2316095742634799 -0.3479691008479430 -0.01657030831178567 
0.2611367222292839 -0.09786624874055518 -0.1590387220044374 
0.1753673650529420 -0.07804076985582346 -0.05501458087776603 
0 0 0 
0.08796329600337640 0.3518622878056277 -0.6506106376240202 
-0.05732848471520675 0.1436972589456089 -0.1169588994230028 
0.3356000953036210 -0.2892899032877933 -0.1093163563030955 
0.2089861883920710 -0.1556029268880245 -0.3890103970909583 
-0.05546810270307677 0.1298452167289214 -0.04391104553682983 
0.6813432758100877 -0.8740948601134767 0.1269687022052422 
0 0 0 
0 0 0 
-0.07181831018121455 -0.1623209085297315 0.1526305454414886 
-0.1552772399373787 0.1778897066812533 -0.09280525802113360 
0 0 0 
0 0 0 
0.1491197135994692 -0.1053544983939898 -0.02549431706296591 
0.1344010076074586 -0.1435603492445152 -0.06472505881334394 
0 0 0 
0 0 0 
0 0 0 
0 0 0 
0 0 0 
0 0 0 
0.005685516530439584 -0.002242007968444427 -0.002814160775950690 
0 0 0 
0 0 0 
0 0 0 
0.2905468203956564 -0.1580156121202947 -0.1495652228846844 
0.3648976996733317 -0.2308474722259755 -0.6129140380436409 
-0.6385201142177053 0.6204467318436153 0.3959979815264600 
0.2383517597456931 -0.1585521670780049 -0.1122779315461202 
0 0 0 
0 0 0 
0 0 0 
0 0 0 
0 0 0 
0 0 0 
0 0 0 
-0.1101601082058744 -0.2199150726728773 0.3579245570654126 
0 0 0 
0 0 0 
0 0 0 
0 0 0 
0 0 0 
0 0 0 
0.01694786358955161 0.1898001848604382 -0.1324019261261691 
-0.2504176487079121 0.1658639308514887 -0.001810416738008755 
0 0 0 
0 0 0 
0 0 0 
0 0 0 
0 0 0 
0 0 0 
0.2942103848613334 -0.1810874447586136 -0.08207290699812446 
0.07609502977438125 -0.07435311649454183 -0.01441528681064368 
0 0 0 
0 0 0 
0.1063426274245532 -0.03603116009151631 -0.01623979193082844 
0.4899128857090193 -0.4906837489187412 -0.04084733709785837 
0 0 0 
0.07625080195413916 -0.1016982046766300 -0.001010883388712102 
0 0 0 
-0.1256319895136476 -0.1322304298453599 0.2710061948181529 
-0.5907089600127688 0.5019480519016755 -0.002748450947418947 
0.1538681511796414 -0.1497356183754408 0.004622572301294470 
0.3652702220171947 -0.3447547825745703 -0.1125931715554599 
-0.08926636213673347 0.3573102609737975 -0.5632978129377886 
-0.2341318582621656 -0.5942903583092204 0.9950312271256547 
0.3793038655099056 -0.05071245614303897 -0.7493773209424881 
0.1066780183445846 0.1692458760889287 -0.4184520467505470 
0 0 0 
0 0 0 
-0.1308396508280098 0.01261323836643217 0.4898618466638498 
0.9437388695681111 -0.9294482264582955 -0.4149614003395954 
0.3272176523475915 -0.3754880691175579 -0.2098748621866623 
0.6741547829672714 -1.043148265338213 0.1106058507454142 
-0.1328911067394210 0.2712046365672634 -0.2965726543309422 
-0.5369329521421359 0.4945409650418251 -0.002540498917176649 
-0.02685682595152454 0.07532281995561038 -0.05904738515122762 
-0.4107810076282936 0.3952257071657023 -0.05874229008747988 
-0.1261513133751550 0.1806924328103575 -0.03184132613523436 
0.1168483998629906 -0.05953740863671787 -0.05289291806499154 
0 0 0 
0 0 0 
0 0 0 
0.3690968786555203 -0.1981735052338188 -0.4085251832111740 
0.1030124253836217 0.1097866311465965 -0.6025487818780666 
-0.1430860208894502 0.4526064388968734 -0.6284038822756170 
0.1473201792944427 -0.002888556863943057 -0.2644985629615482 
0.8599352174739305 -0.9082513020444998 -0.01485997446910727 
-0.5169832286737437 -0.2010656865496588 0.7735958985323528 
0.1313234626119258 -0.1485248321049700 -0.01678739226379630 
0 0 0 
0.02115422474476673 -0.2558639188017558 0.1936502613458389 
0 0 0 
0 0 0 
0 0 0 
0.4109150075560589 -0.4947113581131019 0.1577298766287187 
1.059821851035377 -1.229433809643156 -0.4527194942244472 
1.773118223251547 -1.351497548219260 -1.381163574245264 
0.6402172955029857 -0.5845575665490113 -0.1003506104952946 
-0.5026097653128744 0.1501866307307447 0.1046781779093663 
-0.2763327712475630 0.1432962654073604 0.09667880264986359 
1.065830384861249 -1.101666878589503 -0.6514294738130513 
-1.106138870582593 0.9932874151420752 0.6322099976036045 
-0.6121347197317878 0.5970710168572914 0.2807264192973604 
1.214533638311276 -0.5613877303609764 -1.255256885669730 
0.4014894176389005 -0.3123654879756077 -0.1458647330668668 
-0.4586884819006286 0.7424042509725914 -0.3921082590733006 
0.07908499862064675 -0.8427407750052774 0.4558593879811640 
0.2585576078397272 -0.3177623190282655 -0.01866487191607676 
-0.7292026215815746 0.3967299777638028 0.7585603635870070 
0.2161752178126102 -0.2587585815865724 -0.4211752629356188 
-0.3860250046247236 0.4739437546395512 -0.1890251050984125 
0.3015829467756416 -0.4354366015104510 -0.1818058757016713 
0.3375667330212709 -0.1080140284628846 -0.8082565041502293 
0.07477227233411870 -0.5113968916011595 0.8440153251518802 
0.9837287989156009 -0.8272213194863808 -0.7436333163310985 
-0.1307154889872781 0.09777407786203180 -0.04526837231131183 
-0.1989604806936738 0.1564703433389837 0.1053235873474242 
0.01357091230012997 0.001115185201831995 -0.7132226124439729 
-0.3901605487395705 0.1678798821499462 0.1868594358399577 
0.6751170282244638 -0.2697314112642935 -0.6648374203862807 
-0.4552227896553490 0.4905681711289718 0.3940931305959422 
1.003041004485570 -1.141374925563216 -0.5753747181608613 
-0.04822932956426624 -0.3688530803559927 0.7328654100347171 
0.1838334996899798 -0.03348448651755010 -0.3790334865729204 
-0.5479219907666689 0.4594377882823441 0.3677967449122147 
0.6747777865427758 -0.9509262224093982 -0.1546222619194471 
0.2777198269757154 -0.03496473994155646 -0.2240454319412452 
0.5773741539891370 -0.6274274911516972 -1.007779312144943 
-0.03263749306087506 -0.006350561426726709 -0.1813830199097260 
0.4900463675867676 -0.7060157808070723 -0.1413862417868836 
0.5555341514096229 -0.3236239749303123 -0.2214732550807537 
-0.03099324919456089 -0.1178903480561966 -0.4744077443160523 
0.9819497767409513 -1.153880665220309 -1.018650261093411 
0.9819497767409513 -1.153880665220309 -1.018650261093411 
-0.3983825728276033 0.3570287690642406 0.3005118949464092 
-0.3660017957911528 0.4652554253337593 0.1125994205770795 
-0.1749144539566474 0.05370316446713599 -0.001585989178825310 
0 0 0 
-1.480382964423457 1.366510209612990 -0.05192629762937316 
0 0 0 
0 0 0 
0.02957836804531254 -0.01346924778384334 -0.03583660112143497 
0.2722341116712145 -0.5288182735881125 0.2758854153522004 
0 0 0 
0 0 0 
-0.1670276568874104 0.3796687537819289 -0.07592190640111457 
0 0 0 
-1.819438964887809 1.820218288456752 -0.1671524257649869 
0.9479532705786233 -0.6850292377183542 -0.6081353651564332 
0 0 0 
0 0 0 
0.05346814982267974 -0.01785045310137047 -0.05030682962934480 
0.03223010847518749 -0.01699890286114627 -0.01720257987238574 
0 0 0 
0.7339923518881507 -0.3037781496359960 -0.3739093407318559 
0 0 0 
0.2085468499145879 -0.04473593471840674 -0.2170179011216003 
0.2364996103431693 -0.06902509036440271 -0.05650343769796877 
0.04423309486603249 -0.06213898201887229 -0.2434506125472633 
-0.4313095533045440 -0.3102924088511838 0.8125777813442985 
-0.2535766289577429 0.4632117398023597 -0.4055609684352743 
0.1803429228712877 -0.3056816163454985 0.04725102083117989 
0 0 0 
0 0 0 
0 0 0 
0 0 0 
0 0 0 
0 0 0 
0 0 0 
0.4877293135085044 -0.3903175670172113 -0.2313286180129384 
0 0 0 
0.6293525840335080 -0.5600243904890317 -0.1498692385076971 
0.3806320162442956 -0.2264643069597077 -0.1524614170752337 
0 0 0 
0 0 0 
-0.1859755855210721 0.04475718964102310 0.1379531399205327 
0.04311877176756307 -0.1150888997951956 0.07208549391559399 
-0.4766868373073449 0.6740355560779582 -0.4876424791917304 
0 0 0 
0.1537469003396363 -0.1228666126732730 -0.3090818270993009 
0.04090128768157796 -0.01018872194940943 -0.05769497594052112 
0 0 0 
0 0 0 
-0.01448917616130148 0.1621484819240965 -0.3150942899192086 
-0.6098494345788441 0.7351998448713607 -0.1250580683484618 
0 0 0 
0.3434798850766923 -0.2780185006112598 -0.1255748987725300 
0.07963295955637073 0.08182193323869157 -0.06048189480305608 
0 0 0 
0 0 0 
0 0 0 
0.004087981818814272 -0.003567198424924647 -0.002500345382786935 
-0.09040972535365546 -0.3567352088788382 0.7445172536667463 
0 0 0 
-0.4766868373073449 0.6740355560779582 -0.4876424791917304 
0.4877293135085044 -0.3903175670172113 -0.2313286180129384 
0.2369709756874900 -0.1812704625120058 -0.1733514020800391 
0.3815184610433633 -0.4606542718853196 -0.06680398502948175 
0.3434798850766923 -0.2780185006112598 -0.1255748987725300 
0.6293525840335080 -0.5600243904890317 -0.1498692385076971 
-0.1859755855210721 0.04475718964102310 0.1379531399205327 
0.3635394528189840 -0.4110586354592996 -0.09201837436599444 
0.4269057909364937 -0.3074382648070113 -0.1009544485096448 
0.2209219537378186 -0.1353975473953966 -0.1026162704529584 
0 0 0 
-0.05938399589543662 -0.4005210260277252 0.4257584072786187 
-1.071580507537612 1.122353460875007 -0.01695486973141622 
-0.01448917616130148 0.1621484819240965 -0.3150942899192086 
0.02741233899176295 -0.006972811443902271 -0.05604385545815550 
0.04311877176756307 -0.1150888997951956 0.07208549391559399 
0 0 0 
0.1537469003396363 -0.1228666126732730 -0.3090818270993009 
0.04090128768157796 -0.01018872194940943 -0.05769497594052112 
0.3017319012818209 -0.2404415167345818 -0.06656587180892187 
-0.6098494345788441 0.7351998448713607 -0.1250580683484618 
0.3908451909614901 -0.2786578847104612 -0.2448038086800169 
-0.9498505516546604 1.293891436760656 0.1278290181430073 
0.07963295955637073 0.08182193323869157 -0.06048189480305608 
0 0 0 
0.3806320162442956 -0.2264643069597077 -0.1524614170752337 
-0.4679255006315576 0.6371876151063682 -0.1405379422383022 
0.05401811418191441 -0.01336520119171763 -0.02727813941306800 
0 0 0 
0 0 0 
0 0 0 
0 0 0 
0 0 0 
0 0 0 
-1.207473919608997 0.9353747469838826 0.7620274886886214 
-0.1847068910624951 0.005381687056071761 0.3586157323228487 
0.06100885733096872 -0.4764410023370853 0.1507938457806693 
0.2303203026279901 -0.05185077638000477 -0.2326286844320653 
0.6833614400922895 -0.3501532669352480 -1.092279849029029 
0.008698924786494287 0.2723377427227477 -0.4224343219621055 
0.1322951991497480 0.3291704294842245 -0.3224277832153339 
0.6582306731578811 -0.8710064317609120 -0.1253921873934863 
-0.4256217793813411 0.4534184569511153 -0.01051201927208824 
-0.001205982558155132 -0.2885533955673310 0.4518521825829706 
0.2895783966627077 -0.2319875952122283 -0.05788475959643667 
0.2522802565785691 -0.6190862274264913 0.2410619189779445 
0.3210096681390786 -0.2023862765817208 -0.2054146227130932 
0.5777283004142166 -0.3369297671738333 -0.2301973957662633 
0.1374592039642132 -0.3903354321514037 0.1725259671361539 
-0.4582706878035288 0.8326891362138944 -0.3121658243938467 
-0.3651647318180832 -0.2942644964910846 0.6660650295691019 
0.5754563139903556 -0.1994935225043111 -0.5309058882862054 
0.8552070932304154 -0.3857405013124967 -0.6973340627720254 
-1.128998047964836 0.5391772116543914 0.8682617959180392 
0.7825124731513535 -0.6250783392926590 -0.5494807045319228 
-0.1590485956535266 -0.4143344938561841 0.5589941787359839 
0.2762852349077244 -0.6559956886732996 0.3626336818608293 
0.2615062625582714 -0.2821336070337394 -0.04469753587986314 
0.02703471432196973 -0.4063802375868591 0.6878027139185462 
-0.3720601289397277 0.1430496557745034 0.3262616985607400 
-0.8404451450793640 0.3310214833405628 0.8416596360076082 
0.2113924302569051 -0.2226582712447027 -0.08567094948816921 
0.2162086561767665 -0.3135666254892776 0.2043571713663528 
0.3704867096929624 -0.2488629576252874 -0.5196640305337062 
-0.3260115798361639 0.4560553773743741 -0.1237275060322197 
0.2865280828464641 -0.1269605392548493 -0.05891779755586979 
-0.5756956153844548 0.6621310537355998 0.2060762144368136 
-0.1043028589146776 0.2568335704250219 -0.1530318220586892 
0.1993731344549210 -0.07206778617258268 -0.1273477929267630 
0.3834677354918215 -0.1441355546878314 -0.1976041771481235 
0 0 0 
0 0 0 
0 0 0 
-0.8045645318050387 -0.05103154653906391 0.9019978590667010 
-0.2605817966581239 -0.3529227415663440 0.7282026760535917 
0.3778419880667803 0.3813710122671653 -1.365337611151910 
-0.1844630247542244 0.4786138857859649 -0.3429781026693724 
0.6253072740338043 -0.7942781865044275 -0.3702496499125467 
-0.8639651353401069 0.2529651967829757 1.021658585903808 
1.165378810170739 -1.059329243834238 -0.7847441165582191 
0.4769419284994906 -0.4786955799175345 -0.03734016137326369 
-0.3544747371683770 0.7287349693035183 -0.4558332080957049 
-0.001761379058854354 -0.2105547888270199 0.1560679878240471 
0.2783640419328144 -0.4426270360536502 -0.2661655465973139 
0 0 0 
1.059821851035377 -1.229433809643156 -0.4527194942244472 
0 0 0 
0.9380612216795253 -0.5312272977760347 -0.6770118279210148 
0.4860021706214694 -0.8711495302076427 0.1286567700192424 
0.03626698354509991 -0.3380256940097728 0.2998103205618286 
0.1506486012036971 -0.4971184568848463 0.7413602381112631 
-0.5901813614800373 0.1270087784477029 1.189572317682681 
-2.017103075693668 1.939110641920664 0.7673885723691058 
0.07367935287379665 -0.4181738735128571 0.09686045880430781 
-0.2381521878269388 0.1424620023624495 -0.07339896027655080 
0.4924613910100027 -0.3081119781771547 -0.4609346744584930 
-0.08399111637032865 0.5076833187701607 -0.4736179067301139 
-0.3522405276186030 0.2629436520721628 0.04763441711070730 
0.6495050335423247 -0.4242607418020303 -0.3781772637317246 
0.2336629592223795 0.1384931598320948 -0.3202778211182659 
-1.086086857201244 1.000631851430209 0.7156042062931007 
0.3487226460531295 -0.2499675067504511 -0.3015302745397073 
1.060197843704823 -1.454258301194252 -0.09012823873439650 
-0.04728913848012493 -0.4559210406067507 0.1934098349409182 
0.9706819916297548 -0.6868273136304576 -0.5165582543191974 
-0.3356211382884881 -0.4977735664728273 0.8676144788851138 
-0.9246625531861595 0.2978940339233878 1.212862159790776 
-0.7830707280364575 0.7403564828509475 0.09444512433335404 
1.143645360443499 -1.351989439751944 0.07100687818441706 
1.399975613380326 -1.137508261377054 -0.6910923805953152 
-0.3133667305158439 0.5426664931268390 -0.5498802300632301 
0.2355068427450574 0.1313802890161143 -0.4331507028355231 
0.2408256012482832 0.1516444513922150 -0.2996297552039934 
0.4115278505556699 -0.5212734969780768 0.04048426113732481 
0.7217400547088423 -0.6212187115232113 -0.4526557606121643 
0.08800554221806012 -0.3877716079344580 0.2337714970368495 
