solver_type L2R_L2LOSS_SVC_DUAL
nr_class 10
label 5 3 7 1 4 2 6 8 10 9
nr_feature 268
bias 1.000000000000000
w
-0.2151699555650880 -0.2351192973990708 0.05566481490667150 0.1063196907352566 0.2109949215304439 -0.02298791768240515 0.3053025856002556 -0.3078350943950509 -0.4783229507930699 -0.3374604065474223 
-0.1498732007004107 0 0 -0.04381507387047548 -0.2857239669859361 0.2943238541798360 0 0 -0.009720610669497087 0 
0 0 0 0 0 0 0 0 0 0 
0 0 0 0 0 0 0 0 0 0 
0.9957443235776475 -0.5807512377409314 -0.006304212544112606 -0.5213854199532272 0.02977626947860333 -0.08551354807067094 -0.3738477416396982 -0.09384643081216729 -0.02722080218702084 -0.1029740804923506 
0 0 0 0 0 0 0 0 0 0 
0 0 0 0 0 0 0 0 0 0 
0 0 0 0 0 0 0 0 0 0 
0 0 0 0 0 0 0 0 0 0 
0 0 0 0 0 0 0 0 0 0 
0 0 0 0 0 0 0 0 0 0 
0 0 0 0 0 0 0 0 0 0 
0 0 0 0 0 0 0 0 0 0 
0 0 0 0 0 0 0 0 0 0 
0 0 0 0 0 0 0 0 0 0 
0 0 0 0 0 0 0 0 0 0 
0 0 0 0 0 0 0 0 0 0 
0.03219168657092877 -0.3971226621689876 0.04431158105511220 -0.1475228679613932 0.1274237811193763 0.1182564116258469 0.3628786958896006 0.1628433542641231 0.1016515358297801 -0.3421699690400169 
0.02480517937769541 -0.3883051394299611 0.05162000393432301 0.1294339800476413 0.1045435478795110 -0.07650086183782535 0.3130670899805491 0.08871118478588091 -0.3910439510016354 -0.3084249637973386 
-0.1104666871841991 -0.4289166835279459 0.3633968825523112 0.1416910032762951 -0.001672437460156061 0.09535273430965280 -1.517883041479706e-17 6.938893903907228e-18 -0.03821478339375484 -0.06674843546316113 
0 0 0 0 0 0 0 0 0 0 
0 0 0 0 0 0 0 0 0 0 
0 0 0 0 0 0 0 0 0 0 
0 0 0 0 0 0 0 0 0 0 
0 0 0 0 0 0 0 0 0 0 
0 0 0 0 0 0 0 0 0 0 
0 0 0 0 0 0 0 0 0 0 
0.1067325709248058 -0.1464148163999090 0 0.2218292038101083 0.1694876529253116 -0.4171035846173721 -0.1642319736241932 0 0 0 
0 0 0 0 0 0 0 0 0 0 
0 0 0 0 0 0 0 0 0 0 
0 0 0 0 0 0 0 0 0 0 
0 0 0 0 0 0 0 0 0 0 
0 0 0 0 0 0 0 0 0 0 
0 0 0 0 0 0 0 0 0 0 
0 0 0 0 0 0 0 0 0 0 
-0.09479752757307817 -0.06439288535366736 0 0.08874875522830725 -0.2267327687631001 -0.2001850197026071 0.7934115278319174 0 0 0 
0 0 0 0 0 0 0 0 0 0 
0 0 0 0 0 0 0 0 0 0 
-0.1780759386029723 -0.01456271914070701 0 -0.1747975862054656 0 0.5299266659432800 0 0 0 0 
0 0 0 0 0 0 0 0 0 0 
0.6738109302895920 0 0 -0.2683022455864911 -0.5750880906570617 0.04736949437762066 -0.06717832947744830 0 0 0 
0 0 0 0 0 0 0 0 0 0 
0.2811388237928666 -0.1537796844311686 -0.2217837222582210 0.01953439413640323 -0.3853457055969020 0.1005907680226265 -0.2116721903219809 -0.07184394877277334 3.469446951953614e-18 -0.06553931497988681 
-0.3347684779105253 -0.3657483498288464 -0.04396751624162405 0.6252109337452293 -0.1048604409124378 0.1656237255249035 -0.2161465462627169 3.469446951953614e-18 0 0 
0 -0.1770158885582335 0 -0.1877375928163812 -0.1121754670928215 0.6897157473993928 -0.2540121998972217 0 0 0 
0 0 0 0 0 0 0 0 0 0 
-0.08028094158897588 0.8865913495407347 -0.1600104148940299 0 -0.2566988071267957 -0.3020029957049766 -0.09339366683638410 0 -0.1039498149869508 0 
-0.3935881990303225 1.188150549455491 -0.3435555873333024 -0.3967463227230376 -0.05541699618568200 -0.3450789576426202 -0.1648962246163217 0 -0.08881153167077556 -0.08571562646334883 
0 0 0 0 0 0 0 0 0 0 
-0.2677588439095860 0.3102915590191407 -0.2402214459956522 0.2848404174357782 0.6388764956271140 -0.7061743599739003 -0.1161184743192455 -0.01888709055174237 0 -2.081668171172169e-17 
-0.2308004761928063 0.4504513513558043 0 0.1524298590076694 3.469446951953614e-17 -0.3154120829360621 -6.938893903907228e-18 0 0 -0.06568463015299213 
-0.4134059560637255 0.3864500025456378 0 -0.1759567576967050 0.3799404961853519 -0.1602257099169684 -0.2462426541566296 -1.734723475976807e-18 -0.04993316976342406 -0.03968228894121716 
0 0 0 0 0 0 0 0 0 0 
0.1239422016882096 -0.1104139609863971 0.08574832530935728 -0.1031357268843382 -0.08565087341465830 0.1561180849045509 0.01040704197605221 -0.006304217874305153 -0.1371835323399538 0.6402794552795784 
-0.04355191376761925 -0.1200288607924782 -0.05696992612428034 0.002163907118183078 0.1012163787835706 0.1240960661882014 -0.06596868350360986 0.2003074930810558 0.1877164113853886 0.1480745578152671 
0.06015312706874185 -0.2421017078154999 -0.2431919468603261 0.1697127293448037 -0.009626565345285745 -0.05637098544188046 -0.1840734379954067 -0.02260880459939846 0.3055252000099255 0.3013713475349359 
-0.1028957357620485 -0.1879549335160057 -0.1901821304084488 0.002227527248614681 0.05134153779606412 0.2128939805207372 -0.002244973546132009 -0.3155670812458565 0.4241367735031036 -0.07152773753174002 
-0.1958814340075995 -0.03334512494290891 0.04653902136370583 0.02376091031198967 0.1013524994984475 0.1280855160499099 0.006897384515407866 -0.2255684590003408 0.08431590304908534 0.1580848102919756 
0.1050333114653626 0.04201563437175336 0.4086200121134408 -0.1376430251198342 -0.01310423829439726 -0.01995857533486389 0.03070126059620580 0.1819381981840422 -0.2863871212689536 -0.3208259681137207 
0 0 0 0 0 0 0 0 0 0 
0 0 0 0 0 0 0 0 0 0 
0.1282586706901164 -0.09594705643287657 -0.3022395641432590 0.4012792099694606 -0.2414224966760693 -0.1076163968383326 -0.1081115375466103 -0.3539460424322501 0.1744637387154976 -0.3174550900299314 
0.7729658643371214 -0.1339489257899945 -0.1299596438766878 -0.06409432739802838 -0.2411893386836885 0 -0.1327473814846317 0 -0.1721357445394130 0 
0 0 0 0 0 0 0 0 0 0 
0 0 0 0 0 0 0 0 0 0 
-0.7685896841975515 0.2809743812209813 8.023096076392733e-18 -0.3063022610583832 -0.2199773259949333 -0.2329919819843434 0.7723281519292272 -0.05789719891182314 3.469446951953614e-18 2.428612866367530e-17 
-0.08975623692706884 -0.1443338211515221 0 -0.1395210509554086 -0.1812398787578923 0.05656950892976692 0 0 0 0 
0 0 0 0 0 0 0 0 0 0 
0 0 0 0 0 0 0 0 0 0 
0 0 0 0 0 0 0 0 0 0 
0 0 0 0 0 0 0 0 0 0 
0 0 0 0 0 0 0 0 0 0 
0 0 0 0 0 0 0 0 0 0 
-0.1107171592860577 0 -0.1507632073064703 -0.5969865088042123 -0.06658741606202763 1.085025499560103 -0.1396259511497587 0 0 0 
0 0 0 0 0 0 0 0 0 0 
0 0 0 0 0 0 0 0 0 0 
0 0 0 0 0 0 0 0 0 0 
-0.004546933071128349 0.1219280645672236 0 -0.8570014249226170 0.1114802712491382 0.5663131048429089 -0.1015025374058345 -0.1026343565554980 0 0 
0.1271387164340173 0.2567291187361049 0.2375597291946864 -0.03930930791980242 -0.05275241633116242 -0.08935812268319254 -0.008351788783319878 -0.1950215526179875 0.2824096697380457 0.1832579270729438 
0.1300755641957181 0.2345461062143499 0.08478873291347011 -0.2509342574610551 -0.008613917003862350 0.1549210022163231 -0.0006713625875457250 -0.2589486173335110 0.2163473931066557 -0.2812969449636064 
-0.09645183739575396 0.7871618180674614 0 -0.1460691891507671 -0.04590270421762729 -0.2432848086592684 -0.1076176134506789 -0.09620147313502223 0 0 
0 0 0 0 0 0 0 0 0 0 
0 0 0 0 0 0 0 0 0 0 
0 0 0 0 0 0 0 0 0 0 
0 0 0 0 0 0 0 0 0 0 
0 0 0 0 0 0 0 0 0 0 
0 0 0 0 0 0 0 0 0 0 
0 0 0 0 0 0 0 0 0 0 
-0.2342960401550330 -0.2642949867318120 -3.469446951953614e-18 0.6370920116575643 -0.03196829200781839 -0.4380291490166006 -0.02942968725600535 0 -0.06509055486368988 0 
0 0 0 0 0 0 0 0 0 0 
0 0 0 0 0 0 0 0 0 0 
0 0 0 0 0 0 0 0 0 0 
0 0 0 0 0 0 0 0 0 0 
0 0 0 0 0 0 0 0 0 0 
0 0 0 0 0 0 0 0 0 0 
0 0 0 0 0 0 0 0 0 0 
0 0 0 0 0 0 0 0 0 0 
0 0 0 0 0 0 0 0 0 0 
0 0 0 0 0 0 0 0 0 0 
0 0 0 0 0 0 0 0 0 0 
0 0 0 0 0 0 0 0 0 0 
-0.1847911486624030 -0.1375681224823076 0 0.9136948592069980 -0.1187572916156335 -0.1913809383218306 -0.05567605719894112 0 0 0 
0 0 0 0 0 0 0 0 0 0 
-0.1322977956223981 -6.938893903907228e-18 0 1.047372025795131 -0.3467134605749313 -0.6526428460790850 -0.1207285854753795 0 0 0 
-0.1019717774966062 0.3706129266395632 0 0.3339856478678977 -0.2074460856760704 -0.4506960519605904 0.2324997542317052 0 -0.2339097546568905 0 
-0.04596490340393826 -0.06903533354624997 -0.09335145913335768 0.3256312639790706 0.3018125265723115 -0.6273221847280260 -0.01184577025664161 0 0 0 
0 0 0 0 0 0 0 0 0 0 
0 -0.06761865021699835 -0.01721710601326308 -0.4331455359175664 -0.06387209753384786 0.7501292916199219 0 0 0 0 
3.469446951953614e-18 0 -0.009257103790976736 -0.6864174323636176 0.8509921274244964 -0.1012311508678638 -0.1184277311386588 0 0 0 
0 0 0 0 0 0 0 0 0 0 
-0.7204451898332985 -1.160437024275041 -0.1039396404270976 0.7106642017298258 0.2128465575201249 -0.4092688629046168 -0.06966360617455171 0 -0.3947523424884218 1.734723475976807e-18 
-0.02005839866659852 0 -0.08531093078439528 -0.6047351341543520 -0.07240626734507681 0.7910033412320770 0 0 0 0 
-0.1359377280721896 -0.2438776083077741 -0.2498282206123089 0.1017069757145930 0.6760818024965369 -0.5242967526267606 -0.2839564353828573 0 -6.938893903907228e-18 -0.05562090175363650 
0 0 0 -0.2906883032703236 -0.1566451538855327 0.5370178762327428 -0.004759712696517226 0 0 0 
0.1214364211223703 -0.1465758203040078 0.3040855492118996 0.09044208732930785 -0.09239655525976839 0.06371046340001771 -0.05247307526508672 -0.1073335378280886 -0.6770172815877907 -0.06886684266510217 
0.1793609965569630 -0.01545210422718355 -0.001912083756126456 -0.1089024004957556 -0.03299470585297228 0.06658701689087543 0.1040883935836140 0.2234464463531665 0.1139716449140165 -0.1067560957536252 
0.2625977013869255 0.09489090261392968 0.2082448968348414 -0.2905444012064951 0.04841508351231562 0.06163659491276751 -0.005755389517957173 -0.05004314010184062 0.2280919041524780 0.03406282138587188 
0.1851539373366196 -0.1258894644765836 0.3149685568377554 0.2894925754674478 -0.08776966118633520 -0.2634575899291708 -0.1043981862631527 0.1790180004437160 -0.09555097222329839 0.1062771830194946 
0.1590125807511086 -0.09567998460279380 -0.2383573257783802 -0.1291495516907081 0.01062368137114793 0.1014953264232316 -0.009369726034104211 0.3859150652933298 0.08768592086349257 0.2305557074594251 
0.1720612468759585 0.1717920787413751 -0.2177974407954072 -0.09669907931927493 -0.1407397624922661 0.05200626052335398 0.01883432551668018 0.004985509889270726 0.02804393457156800 -0.2831010143732717 
0 0 0 0 0 0 0 0 0 0 
0 0 0 0 0 0 0 0 0 0 
-0.04265127890559154 0.1634533644268056 -0.07248954473551622 0.07501870983042610 0.03966660317014239 -0.1367127604168363 -0.01120109176064064 -0.02358047788446571 -0.2638336199361020 0.1998022151073496 
0.06572902994081779 -0.08240763475812612 -0.01719553830045308 0.01625872752932914 0.1641344320551020 -0.2638032967967448 0.1399192336363468 -0.1577131886525596 -0.2066434323968292 -0.3650117656854363 
0.08281139780542221 -0.1154703559169128 0.03375386857893041 -0.01023536813769823 0.03664579516410484 -0.1460017223468900 0.06197983043255912 0.2553531056508638 -0.2954590295822331 -0.1951481472977879 
0.1400322330602216 0.02553010167645671 -0.1008814016905362 0.2368382176688379 -0.006279002127967406 -0.3920363061091224 -0.2678405769007190 -0.0007227356045959835 -0.1231468631043998 0.02235241325249056 
0.3326034651216865 0.04771092730500683 0.05500343471016358 0.2413545777462051 -0.2036626795564000 -0.3869809916028719 -0.3297076205834607 -0.1238965531230242 0.07692105083498138 0.1091402254386169 
0.2797083537413304 -0.5534875319974340 -0.2182789807803623 -0.3563360772099740 0.3956712481653698 -0.1222858627041454 -0.3128884594657735 -0.3078350943950508 0.08712996524957964 -0.1302759763093230 
0.3875650260211343 0.08550770918445853 -0.1908898319443400 -0.3726994722374948 0.05165352414719869 -0.03114459531680850 -0.1538995987450757 2.775557561562891e-17 -0.02470060758121532 0 
0.08601475811089275 0.3869210344134694 -0.006304212544112599 0.09828830445827241 -0.2722025634974100 -0.2592972612534646 -0.02169306936742398 -0.05657294198690017 0 0 
0 -0.02991293925116579 -0.005493599454364143 0.08905616087626878 -0.1901018953683201 -0.6106806712435817 0.7531748754179163 0 -0.02154352771763982 1.734723475976807e-18 
0.1067325709248058 -0.1464148163999090 0 0.2218292038101083 0.1694876529253116 -0.4171035846173721 -0.1642319736241932 0 0 0 
0 0 0 0 0 0 0 0 0 0 
0 0 0 0 0 0 0 0 0 0 
0 0 0 0 0 0 0 0 0 0 
-0.05079774031407122 -0.009704422736152768 -0.008252744887410877 -0.006091524545885847 -0.1176787068721021 0.1769267608858249 -0.07906684372873794 -0.07445412012516034 -0.0002503725734671900 -0.1488679339749788 
-0.1188642368176953 -0.02654245205800492 -0.03224591304973019 0.1008942081963361 -0.2293713443018204 0.1624988896223207 -0.02896917682417697 -0.1422014463965227 0.1201365013797943 -0.08277323448131713 
-0.05518788681515853 -0.07082520354134542 -0.03713865350963981 0.1607425882046399 -0.09957860097103129 0.04057960813462397 -0.03141087848373487 -0.2028980506551417 -0.4054432932752953 -0.3824255611034883 
-0.1681223289756286 -0.07969480982826872 -0.04189943094458681 -0.1189022416797345 -0.1599204728693606 0.2517926381514590 0.1393499596307750 0.2454212007369987 -0.3737522985331035 0.05512347895834667 
-0.03211971697075634 0.3063673901302504 -0.2007898751570199 -0.4667659386278955 0.1634659574565956 0.1975088094354478 0.08158405130650889 -0.001794479058917245 -0.03091221714819217 -8.673617379884035e-19 
0.5074258010254862 -0.1339489257899946 -0.1299596438766878 -0.3801581721153435 0.3792268087615976 -0.8219595221910032 -0.1327473814846318 -0.1948368025259714 0.2478744948859809 0 
-0.1255172362331318 -0.1033800951888289 0 0.2586026779931549 -0.1812398787578922 0.3867130892160270 -0.3525946473426092 -0.05789719891182311 3.469446951953614e-18 0 
-0.09546995835138508 6.938893903907228e-18 0 0.6337929104599833 -0.2586518301539190 -0.2621004242197715 -0.09475305294849551 0 -4.704169778801736e-06 0 
-0.2691098296507665 -0.2642949867318118 0 -0.3712538152563237 0.3066052906964805 -0.1771213988505193 0.1612464600680972 0 -0.06509055486368984 0 
0 0 0 0 0 0 0 0 0 0 
0 0 0 0 0 0 0 0 0 0 
0 0 0 0 0 0 0 0 0 0 
0.03524410731264474 0.06226293469294264 -0.05390586299111599 -0.01062504043250581 -0.05063668134580741 -0.03866235662879013 0.05407053781466505 -0.0006709444371419248 0.09393073180639660 -0.05459367351941138 
0.1705875731097520 0.8680479843353409 0.04649603275771114 -0.1839893026361981 -0.1519543712228337 -0.4515122007620696 0.1086900642879821 -0.08404275171283869 0.07658993114123730 -0.07334033665765005 
0.01980491736917961 -0.05901053593373053 -0.04124880851174018 -0.1465226394323426 -0.2061343045732632 0.2533170060027740 0.01915308718735408 -0.1979431832050026 -0.3565751037968538 -0.2636026546143145 
-0.3371049604148575 -0.3206241925063115 -0.09353522327683841 0.1871318876403223 0.3879980310937139 -0.5173487358893342 -0.1342048097573030 -0.1879223051237300 2.797241605012601e-17 -0.1912137320942183 
0.06014414538179196 0.1268486422013659 0.3170002067848262 -0.3363522655608897 -0.001354776448019232 -0.08016777017059049 0.04383336441027120 -0.03793610996601694 -0.09477750837289722 0.3815662788382479 
-0.06302300536659783 0.05842812252201373 0.006840277859630972 0.05894989700740708 -0.06002981224954641 -0.02698198840892321 -0.03819254400874455 -0.1170766724351717 -0.02544415088412980 -0.6022294678575096 
-0.1624638175413660 -0.1740038780841739 -0.3258027736377175 0.1187897400150935 -0.06143762191056908 0.02650868865718023 -0.01865685836446036 0.01071680907543658 0.2569719035598984 -0.3683500362443995 
0.04415592513680533 0.07907833224043362 -0.3509002468383707 -0.1240389515707325 -0.05489117878609398 0.1627864965434551 -0.1746334533607231 -0.05610745086011867 -0.1489953856994718 0.2455370500318911 
0.03072366233193431 -0.09273999618375235 0.03736030619513438 0.05290302453006569 -0.2012931141376656 0.1367247534498425 -0.03466029591340211 0.1576080155780693 -0.1386221991042947 0.2393493113388668 
0.0004001691998471068 0.1574232790231588 -0.1918579507014851 0.06597348738512068 -0.1372180023230163 -0.03637387742168625 -0.04159124603764391 -0.1524167840779982 -0.3992705534549240 -0.1786037018212856 
-0.4968725580176230 -0.4665671191396362 -0.09763656847698317 -0.01481925516126442 0.1745603386636228 0.1528385466206961 -0.1865292423632503 -0.1981869543159418 -0.1168415420712597 -0.1394890280989849 
0.07988094928408285 -0.04897157619622574 -0.06084600548936239 -0.07509131893291560 -0.02802945841080978 -0.1835294294924281 0.03659586064339805 0.1882600951891933 0.1970562145401131 0.008325942245187089 
0.08677005247225648 0.03030056118288656 -0.04269227092387463 -0.006703944853049326 -0.01200105967758278 -0.1073250147398120 -0.05149979121227696 0.005036012096662725 -0.3441342451375167 -0.1067510465290371 
0.02287174113184185 0.01576666898073979 -0.3233673706113864 -0.1650853264861713 0.1176807783086568 0.02670315916025094 -0.04342260017947305 -0.1097918660196235 -0.1609872007792709 -0.09285898750838617 
-0.07964614246658067 -0.002285122999330001 0.2924983800828832 -0.1312150505909555 -0.1556782647488681 -0.008032468061600620 0.07600086011881260 -0.3701381778700856 0.2957311600932810 -0.005945451569236086 
-0.02116734470693763 -0.06769019659574936 -0.02638447530486690 0.1378021012681704 -0.1564571088234432 0.1105575341189864 -0.1269153507765758 0.2085767780612608 0.02100372251183085 -0.04362097731969679 
-0.04588049775706288 -0.1774781196912831 0.03311048391311935 0.1420667490646358 -0.1777244489228391 -0.01682536790917280 -0.06918503903879711 -0.05709838378615163 -0.07683151133720580 0.1485571291055720 
-0.1004757297695447 -0.1615298493139433 -0.3466569065303909 0.08166804933628598 -0.05379986418161414 -0.007825247965730224 -0.03572307758313757 0.01582620052007317 -0.1233144160040085 0.03478236474529096 
-0.03265896859412301 -0.1193894245740841 0.06798203966727340 -0.1798056514653011 0.06722736760393920 0.09685558021568980 -0.1578062213305904 -0.1077836275623341 0.03992477526865659 -0.4206060286861464 
-0.1679314117258307 0.1752544220085753 -0.03903335899886799 -0.09658510750500644 0.05860519031690772 0.009531846678109555 -0.05404342560285692 0.07104470036157745 -0.1443894494573000 0.1305741373747056 
0.002075886750277306 -0.1037261773229561 0.04872329959579576 0.1495644111801439 -0.07183781200287402 -0.1817239080076823 -0.05275006077656140 0.04915092433520233 -0.1447345986857028 0.1112105010065176 
-0.005087369390597602 0.05183183260958285 0.03458958120051757 -0.1841652515606785 0.03190064207360253 0.01638283846472387 0.03956249430398168 0.1570693785256852 -0.1733798672303199 -0.4034179127205946 
-0.05780504261622908 -0.04698618946004443 -0.2490014002725193 -0.1018825064211484 -0.05151385189856689 0.03844270870846602 -0.007416179779044345 -0.5568700893305861 0.1152826231481343 -0.1600434414267852 
0.003609559629710006 -0.2678431472641025 -0.1281147282492217 0.01641443761713143 -0.1070942542573557 0.08506237620433033 0.009973960282270329 0.009275978365844359 -0.1691807362268295 -0.2101870047563829 
0.02681806906325667 -0.2564809631588823 -0.08870709400653654 0.1016684183173215 0.008482479651314311 -0.09436505496365020 -0.02615126945025552 -0.04255407367365421 -0.05958863689153209 -0.1088873800532591 
-0.1378746108666711 0.3234126950694869 -0.03021675459327769 0.004103694758090418 0.1096211888703736 -0.2527254706162621 -0.2344001356203023 -0.1677877811509879 0.3482252027370006 -0.2147095945585543 
0.01070999339332492 0.01192798528485421 -0.07451741542240757 -0.1388991712533935 -0.1173940822459954 0.1093305233936106 0.04876573265864902 0.02967852004949185 -0.1350253043077985 0.09947586284966620 
-0.01066734446910771 0.06327423249139548 -0.1947168621634627 0.2484097998926971 -0.02197608857503159 -0.3220587676240792 -0.2435867068088908 -0.1639471980694735 0.03062335261874522 -0.08832484755882955 
0.05515450893813962 -0.2182259203011275 -0.1254630020528684 0.009016923136912430 0.02899922118428357 -0.1359989947771292 0.06591539805656757 0.2106393473203294 -0.3496891992684021 0.02596529975717051 
-0.3555133087917549 -0.03808838786578012 0.1914495950626993 -0.4298534098398355 -0.09778124163902988 0.5655938385675864 0.04212151107495393 -0.3039656897780831 -0.1728071229589278 -0.06227558628125034 
-0.2317409469207417 0.02876978355531094 -0.09977190836487967 -0.3753776087807001 0.09684103985715929 0.2802566744966415 0.06350737842518406 -0.3112648646852357 -0.06804477737822010 -0.4095197476169188 
-0.08230107264939075 -0.1934641777528514 -0.2448709874118061 0.1403527857704802 -0.1145093913941631 -0.1623909150239226 -0.009341878952420501 -0.07380609538249198 -0.06294514725586639 -0.1312823976925665 
0.08517904233944763 -0.06209621842999208 -0.04210443017949941 0.1439226782271571 -0.1159844134892513 -0.2737883531212307 -0.3537377992755028 -0.02284461290783440 -0.1883691712864531 -0.1007349464027325 
-0.1789001558724196 -0.1552328931166240 -0.06353893546888836 -0.09803716258800951 -0.06349001198519172 0.1107610438329165 -0.03778921000426751 -0.02074532396097127 -0.1880833483772094 0.08259384111077720 
-0.08525525350066465 -0.1644931960159627 -0.1719742041668514 -0.1140926285033422 0.1010984387348379 -0.2225820986193390 0.1019139254389510 -0.02623560021318012 -0.3379124813279495 0.3760483432585786 
-0.1242832408610046 -0.04076672232140027 0.1554427661722590 -0.07297380669121137 -0.1783127928674752 0.2472953839300690 -0.1824369582471088 -0.3867700592974286 -0.03026290423684453 -0.4211637968441903 
-0.2319426065906614 -0.2472401646655082 -0.1428084772523731 -0.1284691343757653 -0.1200714815030321 0.2664711506206190 -0.1962357409366215 0.2828275203113573 -0.2475665520400346 -0.2111654725919789 
0.03371796784922249 0.07047657725871308 -0.2909463461781055 0.1263962621992425 0.0001430586242215779 -0.3363459857469533 -0.06060273606222681 -0.2984827577372787 0.1082994933070815 -0.3026623244238417 
-0.4077631331031241 -0.3820235057441412 -0.4502862614250716 -0.1891393073710788 -0.1971427770114429 -0.04516154981559276 -0.3373615098070046 -0.4286608969365309 -0.5074424442977519 -0.5589432506014251 
-0.4077631331031241 -0.3820235057441412 -0.4502862614250716 -0.1891393073710788 -0.1971427770114429 -0.04516154981559276 -0.3373615098070046 -0.4286608969365309 -0.5074424442977519 -0.5589432506014251 
-0.005330843419254447 0.2638871498121582 -0.06976597619912833 -0.1202346531211394 0.1472608131495222 -0.1263725462304225 -0.01207993597653831 -0.2732601286344297 0.1672234361046358 -0.1117445810668125 
-0.04249375374603888 -0.1063925593824515 -0.06717721673392710 -0.05844576099924868 0.1021553473216928 0.06792369713280771 -0.09957328242783106 0.07083318118686578 -0.02702693351298827 -0.02550780964153307 
0.006867676917427557 -0.08485741525410790 0.2172013600711419 0.06427425991821102 0.02289664156583700 -0.1266500887273113 0.01989473169126329 -0.1294955876212610 0.09965706887655479 0.01188106569882760 
-0.1486734623044601 0.06707911886587734 -0.08836384181553442 0.2957150622782865 0.4262004730157711 -0.8211909337587203 -0.04835478100339630 0.04271907215320498 -0.1722098216006518 -0.1121357694660505 
-0.1455130826306611 -0.3173536468465346 -6.635317295611287e-17 -0.6806750161765358 0.1343678663150780 0.3772027834128368 0.02172773599950910 0.1910577627169673 0.4902244949892032 1.734723475976807e-18 
-0.1540006076321620 -0.1889360881256725 0.1234494355668336 -0.01211567891124899 0.03885535949364944 -0.3596247859074918 0.09306181561334001 -0.2173931506300166 -0.1833357000173924 0.8270995525081212 
-0.06579582730056590 0.04326571874227875 -0.07988506161147829 0.1619322708765443 -0.08324072617136591 -0.1593499035264898 0.2578040065817874 -0.02238598359226276 0.1440935328095856 -0.08303722059857582 
0.1615764756085733 1.387778780781446e-17 -0.05880463768989047 -0.2179970990131814 -0.3630159578090029 0.1455011546095489 0.08096038211243024 -0.02369106674085716 2.168404344971009e-19 0 
0.4533644301289582 0.3321776152096892 0.2864116378440151 -0.2597440946244511 0.2506698211156753 -0.8022483296002881 -0.1010235419129516 -0.1976585500681499 0.1781267103353810 -0.01851668526916905 
0.1125578036792265 0.2757679425123424 0.2346745221330996 0.04723561230778368 -0.01802879965409090 -0.2375899944228107 -0.1581725423903024 -0.3001029909958221 0.2296559355339624 0.2363765137294525 
-0.04002154250379536 0.6427167139034141 0.1333053154181053 -0.06495501942253765 0.01737542497513329 -0.4875168278643912 0.04658918614305223 0.1123645389319302 0.1254000469746971 0.2874356364204445 
-0.04257681676469133 -0.6365982104258211 -0.02484881514313441 -0.9644579601469286 0.4488740100734174 0.2043096876991498 -0.1968167477437115 0.4771508956275882 -0.07602765206097234 0.9513030412229683 
-0.1121398953257388 0.3283146479634941 0.2592134766419590 0.3262081525391817 0.2958224029145489 -0.7756105571467076 -0.04704069288214643 -0.1903634363881670 0.2135861422753281 -0.1137991327827567 
-0.04027218983051746 0.2232985640987085 -0.3296721610902326 -0.7811148076832924 0.1345778292967012 0.3556595823310557 -0.4410917380653618 0.6654248225989157 3.469446951953614e-18 -0.2039190715684746 
-0.04977991473930055 -0.06350663090276269 0.2100514109407416 0.09460403263586425 0.02053357583487148 0.03883382415853393 -0.07679319427544291 0.09716371650145968 -0.3299428789274230 -0.2814934047401447 
-0.2667176929917140 -0.1831270683125441 -0.1137648162827684 -0.4286915724371417 0.02564054785532138 -0.4526860365593636 1.028821093616510 0.1481672562076207 -0.07095392659868507 0.1015194174807940 
0 0 0 0 0 0 0 0 0 0 
-0.1120904084971801 0 0 0.3883190247052485 0.03835100109622431 -0.5701628021851620 -0.1265547188966285 0 -0.05276849899090808 0 
0 0 0 0 0 0 0 0 0 0 
-0.03433814878288167 0 0 -0.8064886320281000 -0.05186816061350887 1.023146322218171 0 0 0 0 
-0.4792123195593986 -0.3743049728346251 -0.01198715564724925 0.1082333069090539 0.3753419913807122 -0.4515652492420292 -0.3372110621124138 -0.1952142616997371 -6.938893903907228e-18 -0.2302915462020744 
0 0 0 0 0 0 0 0 0 0 
0.4176046050605023 0 -0.03954613056036040 -0.2378802049432647 0.1356081355174127 -0.1836526593789631 -0.09313949490935589 -0.07280181594396710 -0.1920247970075849 0 
1.051273322274079 -0.1281996951152968 -0.06269776848572124 -0.6494422301529360 -0.05374000464002627 -0.4654746295073404 -0.2411726761277152 -0.1628764909604681 0.3508326287460145 5.204170427930421e-18 
0.07436560601082595 -0.05582715311189631 -0.1664149064874969 -0.05941035786821883 0.04464902123107793 0.09707518527081099 -0.05412079427295169 -0.1286663713340331 0.06456722729574281 -0.1057168546413822 
-0.01458590934349063 -0.2152552953151974 0.02006684251874390 0.2105447817942975 0.1447372377471916 -0.1646519396568718 -0.0005633982749087649 -0.04187960573433199 -0.08413051576033581 0.04411556035487255 
0.1021218701503964 0.1090906668681301 -0.1321859942696810 -0.1113208148194230 -0.04772182116800865 -0.04599275508315008 0.1618187537930570 -0.1243031512462818 -0.1952912631931453 -0.01625467305133145 
-0.1122915157085564 -0.4307984087231846 -0.1850701281465360 0.4668910287130124 -0.1358895191983618 -0.1774218891186822 -0.3953681408532571 -0.1699081177318803 -0.6410058532103974 0.3467269767402565 
0 0 0 0 0 0 0 0 0 0 
0 0 0 0 0 0 0 0 0 0 
0.3803794840442522 -0.4908248995319808 0 0.6143956002495667 -0.3009605216974201 -0.4937865323019515 -0.05294679591331869 0 0 0 
-0.2680956592577071 0.7075302015170046 -0.06459456030736113 0.2730924190768337 -0.5149504262673483 0.05646830001532271 -0.3012044122137638 -0.1917407211353845 -0.03269795112093610 -0.005985787943576675 
0.6307614517737980 0.4251330364914250 -0.05596177968604244 -1.045273592877993 -0.007321032647907156 -0.2534310997482363 -0.2088315663783614 0 0 -0.005810224940439634 
0.06898540654354712 0.02450829751520558 0.008864784358327663 -0.1226510438879046 0.05871049438194823 -0.01834660584751244 0.02925091434170682 -0.03204744690990440 -0.03441880473163705 -0.4404077434701381 
0.1388120235822931 -0.1969843187545219 -0.4224072648854043 0.01811395712758801 0.1115986632955551 -0.2574941089594907 -0.01097510230929230 0.2576317726552967 0.1077242724851613 -0.4424368536972111 
-0.03063865919637461 0.09075366634982690 -0.1120242155213455 -0.06752534420907033 0.3419135521019542 -0.3104094032727541 0.08310919354844455 -0.4268906108250415 -0.3059544179923092 1.040834085586084e-17 
0.06610929987535344 -0.002258863908310931 -0.2478009447443910 -0.1905740373014123 0.1978386394577716 -0.1052818597300733 0.2025715352590884 0.1563770001061029 0.07551453316463547 -0.06270528061277839 
-0.5210527220179249 0.4058299309429765 -0.2131160646825708 0.2685256659450253 -0.07787730988156230 -0.4018726325246650 -0.04509295931763134 0.2638569700776701 -0.03848596381351521 -0.1022179773367268 
0.04985067149603839 0.004041291464056504 -0.03594296018952763 -0.1727415779156858 -0.3575334923479767 0.4900106888911344 -0.7117955642313458 -0.2338166107824548 -0.2422677316192395 0.06420674716494017 
-0.1814431745320119 0.003236979345668717 0.3737515802832434 0.4525437984542370 -0.5109518361808703 -0.6054962212383717 -0.2975127296624955 -0.2064833174403400 0.5374777502937620 -0.1255375303437511 
0.02279486196202024 -0.1234823775885240 -0.1390958100551410 0.3267262551805292 -0.4673170176536824 0.07507052582191995 0.003126997649042908 -0.2076644224098420 -0.1989252501072062 -0.2158133945763961 
0.2084943426489000 -0.06222884148867890 -0.06857206426313553 0.4900399900587197 -0.04178820679581502 -0.6295600161193693 -0.1347191949553647 -0.1034821407160434 -0.1211241075964050 -0.1004783492344783 
-0.03584535471850284 -0.3079816438936032 -0.2688781709666722 -0.2087121303476834 0.1218183455182752 -2.428612866367530e-17 -0.1055937584800800 0 0 0 
0 0 0 0 0 0 0 0 0 0 
-0.01075820455572703 -0.1489629538940233 0.06866604691546552 0.09569347283274826 0.1069090070176089 -0.1951621255810211 0.1120177597034582 -0.001770288735774561 -0.06025291280669762 -0.5530218258869758 
-0.1689162917512239 0.4157777851178666 -0.03826987783283490 0.4861224101477407 -0.07326869983340446 -0.5173974736143323 -0.09733232904644387 3.469446951953614e-18 0 -0.02426883120272243 
0.09526154042391355 0.09301164919337768 -0.1536503771512310 -0.07625940526981567 -0.2105476542241504 0.2152927184185910 -0.02916691484042429 -0.09367459730691732 -0.1391428010658664 -0.02440037759316384 
-0.2889725699926697 -0.1881879430014660 -0.1340661408119085 0.04745938221317453 -0.4376160211066230 0.5245541405651363 -0.1077636967309882 -0.04265995022990590 -0.1667102719437612 0 
-0.01203394318371049 0.05154557730001086 -0.1426579668212568 -0.04383217444310465 -0.2466803363451511 0.2641203033277046 -0.4514229751886768 0.2622845381174860 -0.2954621228622947 -0.1766346108205428 
1.306047914056192 -0.6520922645983560 0 -0.4627571574176562 -0.1034305220987715 0 0 0 -0.1013448415888988 0 
-0.6039887777013077 -0.9065069724158776 -0.1304604965243409 -0.2985415872134067 0.2680775200532179 0.5205191582214002 0.2209999754336476 0 7.806255641895632e-18 0 
-0.02011243761391069 -0.8542926465100844 -0.1435561826366784 0.09768365076165633 0.1002815836528084 0.02982660942890100 -0.1133109885810214 -0.1910755482120779 -0.1249791739061997 1.734723475976807e-18 
0.1524569752447984 0.1571871690886380 -0.06828935069661195 -0.3643265668553957 0.3293263821071623 -0.1009977553236967 -0.1840024312333592 0 -0.09749693722752915 -0.04355284316186728 
-0.2585762041484458 -0.2128147325181876 -0.03770846683141623 0.3777388629213056 -0.1669396405332117 -0.1915359346774302 0.3185209737087069 -0.03727348882526715 -0.3379124813279498 -0.4412414443303453 
0.06219240396406624 -0.1846931436965530 -0.3405488638003162 0.06017688834808485 0.2200952059077496 -0.2796810056420052 0.01271020125700897 -0.1039481408947453 -0.1200564431402756 -0.1438937526357924 
-0.06682960265665820 0.2550182739286932 -0.1334566806699733 -0.8145016927147958 -0.05644509244784896 0.5766133915823911 -0.07550003899553259 -0.1327026879574971 -0.06638023663402540 -0.02897745485824225 
-0.8690400712681197 0.03523764603199070 -0.1833720696118315 0.4832426424023750 0.4067000672367956 -0.6022941757991188 -0.2375580102505973 -1.734723475976807e-18 0 0 
0 0 0 0 0 0 0 0 0 0 
-0.2631286295736221 -0.02052889848675208 -0.2398737012864471 0.5075008560933758 -0.6017137892120044 -0.01217624549931110 -0.1436550356559798 -0.2918113306743703 -0.3322803762696953 -0.1811410499288222 
-0.08060985117726505 -0.04099631760997390 -0.6301775233464317 -0.04018617339215886 0.1285608037292740 0.03064556541540499 0.06306636878608497 -0.4873101365686516 -0.4023245154391019 -0.3580897205202437 
-0.6041928692335776 0.5768283547751482 -0.1274294182163335 -0.6221193355653110 -0.03800591355909089 0.2830006875249609 0.2082164143023279 -0.003347297444441930 -0.02688179787397414 0 
0 0 0 0 0 0 0 0 0 0 
0 0 0 0 0 0 0 0 0 0 
0 0 0 0 0 0 0 0 0 0 
0 0 0 0 0 0 0 0 0 0 
0 0 0 0 0 0 0 0 0 0 
0 0 0 0 0 0 0 0 0 0 
0.03767289634586116 -0.04634406482519514 0.2046585134768229 -0.03220432521686006 0.1100467347631403 -0.07584682495742648 0.03405337263497012 -0.1212738477955486 -0.05953995646684527 -0.005418895647224804 
0.07682374922891662 -0.1261433788499556 -0.2760843728107428 -0.1285604700401849 -0.1068401364046168 0.1501600104765624 0.1234291654815672 -0.1327026879574972 -0.07219109256961657 -0.5565541263131680 
0.07290833948569563 0.1681803715711177 -0.2837950019265330 0.1554956856243928 -0.07077813182610466 -0.1712740205136133 0.2072213113753519 -0.1192556812694443 -0.2569502023018258 -0.02355855921101750 
-0.04936427313598511 -0.2875797267980199 -0.2837950019265332 -0.1230153297791326 -0.02523234407324492 0.3700104540643830 0.09500926749342764 -0.1192556812694443 -0.2569502023018262 -0.02355855921101750 
-0.02407906403062765 0.07538821540333390 -0.01037799861590637 0.07508355884231317 0.02572953257988839 -0.1284780301771677 -0.09994140860952909 -0.03150562911710303 0.09512229067423364 -0.4570993105909574 
1.010019554130120 -0.2639761876171066 -0.1833720696118315 0.4754508444773905 -0.5343346182400022 -0.2548493757152353 -0.2375580102505973 0 0 0 
-0.1070889485227994 0.07557805631593142 -0.3826272398148641 0.08478799224762174 0.1619454260342340 -0.1214673219366416 -0.2051090663761411 0.1765091294743524 0.02396909907680997 -0.2736858651275554 
-0.4955735096096971 0.3040919071914358 0.5822998917885532 0.09346002515709241 -0.1062997146026560 -0.03156374381967109 -0.3402872844874018 -0.1192556812694443 0.2144144101969582 -0.02355855921101748 
-0.03660266211943151 0.01864869237215270 0.1211395233117255 0.08590707858430537 -0.05148150628337033 -0.005673946119381308 -0.1995315259202976 -0.05543701103251236 -0.04360822232972425 0.1041093893152165 
-0.002969474795408666 -0.04244894466924668 0.1587923321265484 -0.1942884455754317 0.07039626382481605 0.08568730136859537 0.07853551081124663 0.1311512435819525 0.05106956658750721 -0.1739148719451252 
0.2070717065618594 -0.8021924898133890 -0.02565103449594531 0.2655528207513210 0.4201416073318823 -0.4468901052214130 -0.2785532341944490 3.035766082959412e-18 -0.01858926341323954 -3.469446951953614e-18 
-0.3271429344718139 0.2583219265422395 -0.02662772478824674 0.3429143307720015 -0.5303301220003113 -0.07788507821402538 -0.2575458692239566 -6.938893903907228e-18 -0.1169637689962578 -6.938893903907228e-18 
0.04076662626169497 0.1120649592893379 -0.3071480487995071 0.1743035889518476 -0.02763144174896924 -0.3360930957030319 0.1576608150665531 -0.2086194074992703 -0.2430026061192731 3.469446951953614e-18 
-0.1797018995274181 -0.3692408324558255 -0.2916378899520997 0.01315517085833975 -0.1516588959943826 0.3862011979545042 -0.2868021737176631 -0.2632023085663616 -0.2569502023018262 0 
-0.1523276006608888 0.7677455002214666 -0.1965380778422213 -0.2947603194014151 0.03296020296698148 -0.2784412695944605 -0.1370156115807580 -0.05979545606586672 -0.1088376221011054 -0.4497512172660526 
