solver_type L2R_L2LOSS_SVC_DUAL
nr_class 10
label 6 7 4 9 10 1 2 8 5 3
nr_feature 233
bias 1.000000000000000
w
-0.2822273466317034 0.2350675987433685 0.07560552609156157 0.1288792510456459 0.01596333175083874 0.2020008533573694 0.1143910676496583 0.1430392934550051 -0.3578879726525032 -0.07766082313397280 
0.4852707262750775 -0.03464803911469185 -0.7137820109024028 0.5194407000447802 -0.1490599037381221 0 -0.2672701414856544 -0.1425278447596367 -0.4058912035680340 0 
0 0 0 0 0 0 0 0 0 0 
0 0 0 0 0 0 0 0 0 0 
0.1133136332081450 -0.02493326746569557 0.5923781214670942 -0.06812701866050594 -0.05723553892399831 -0.5490626096298534 -0.01115014992134701 0 -0.1184393408415452 0 
0.6579094331189184 0 -0.2576777445187095 0 0 -0.3262748208033640 0 0 0 0 
0 0 0 0 0 0 0 0 0 0 
0 0 0 0 0 0 0 0 0 0 
0 0 0 0 0 0 0 0 0 0 
0 0 0 0 0 0 0 0 0 0 
0 0 0 0 0 0 0 0 0 0 
0 0 0 0 0 0 0 0 0 0 
-0.8059465339187465 0 -0.2516805729686998 -0.06364903852802571 1.168959006167604 0 0 0 0 0 
0 0 0 0 0 0 0 0 0 0 
0 0 0 0 0 0 0 0 0 0 
0 0 0 0 0 0 0 0 0 0 
-0.4367754363827179 -0.2405481468073608 0.4464865241628223 -0.02804909183054840 0.9040173420137904 -0.2857022577950574 -0.05522463573766627 -0.08096797528892638 -0.4705493886729636 0 
0.1051293969786048 0.1278219522450745 0.09411734324228270 0.06275370882609688 0.01362417304582459 -0.2247556525751998 0.1622330026744113 -0.1755329799802638 -0.04054015785943246 0.02283317276959270 
0.1426043271095616 0.003567012682988525 -0.09960787292009280 0.1467864170543070 -0.05051710620237757 0.02903868526890189 0.1438301070066468 -0.1776017987741483 -0.1332213824604015 0.05400653816368685 
0.1281276599542707 -0.04732552295021598 -0.4750302991727046 -0.09228836270083594 -6.938893903907228e-18 0.5262474752876996 0.6476136211400094 -0.1082085730182192 1.387778780781446e-17 0 
0 0 0 0 0 0 0 0 0 0 
0 0 0 0 0 0 0 0 0 0 
0 0 0 0 0 0 0 0 0 0 
0 0 0 0 0 0 0 0 0 0 
0 0 0 0 0 0 0 0 0 0 
0 0 0 0 0 0 0 0 0 0 
0 0 0 0 0 0 0 0 0 0 
0.2475709230627667 -2.168404344971009e-19 -0.2140809527965570 -0.03382230701058669 0.2593284508959911 -0.05900611375863762 -0.2889859796225129 -0.1309731886641510 -0.4133724273561404 0 
0 0 0 0 0 0 0 0 0 0 
0 0 0 0 0 0 0 0 0 0 
0 0 0 0 0 0 0 0 0 0 
0 0 0 0 0 0 0 0 0 0 
0 0 0 0 0 0 0 0 0 0 
0 0 0 0 0 0 0 0 0 0 
-0.6824652833551165 0 0 0 0 0 -0.06544045384936234 0 0.9024763400437110 0 
0.02178914427472539 -0.03621264236114546 -0.01935026807114533 -0.1690775902145732 -0.5101298878046490 0.1925331072119294 -0.1916811062528184 -0.2505235704477460 0.5255589934151992 0 
0.5040041511634082 -0.04216656738019902 -0.07262972194259620 -0.09521760840765010 0 0 0 -0.1021683820112713 0 0 
-0.2525206852741799 0 -0.1461723762428524 -1.734723475976807e-18 -0.006903701534467191 -0.1538698096988701 0.6427195034182177 6.938893903907228e-18 -0.6032509052303636 0 
0.2899691205760982 -0.09628225117589936 -0.1040083409404657 -0.03231339289894679 -0.3711347152626051 -0.5914638352172399 -0.2020800910755293 0.4504858313491690 0.4068162482484020 0 
-0.6004986949141783 0 0 0 0 -0.08717056604135826 -0.07228536028330573 0 0.7927854838953597 0 
0.5065513506060434 0 0 0 0 -0.3069411698065422 -0.1876826228832477 0 -0.2665764332820105 0 
-0.9613129025292754 0 0 0 0 1.008833128189089 -0.1865133905396560 0 0 0 
0.3080954274596120 -0.03961885249897585 -0.3629141652623539 -0.09764786846690522 0 0.1526202553149159 -0.08833495687343407 0 -0.09462360336547405 0 
0.1560414167448704 0 -0.3242369011430139 0 0 0 0 0 -0.1768329555851219 0 
0 0 0 0 0 0 0 0 0 0 
0 0 0 0 0 0 0 0 0 0 
0.2413877317348193 0 -0.1125855368550904 -0.0008133352719180162 -0.1496669892172868 0.0002743921833675278 -0.1871142498466089 8.673617379884035e-19 0.2798638332431968 0 
-0.01086590137282473 -0.3065159087027163 0.2554928404358066 0.1257095230080728 -0.01675456757574477 -0.3550573689310180 -0.1459417377915729 -0.1070705308517564 -0.2170425614324285 0 
0 0 0 0 0 0 0 0 0 0 
0.6293954365298713 0 -0.1934137496682714 0 -0.2461747549083634 0 -0.009892809766843248 0 -0.3262079830561728 0 
0.7689328013824960 -0.1969701964767444 -0.1546430566701476 -0.07376926519897582 -0.03712975197192386 -0.2394387626597481 -0.04413053934735740 0 -0.1593310735290283 0 
-0.06997606078674123 0 0.2382498095299386 -0.3282045631129529 -0.1075389390529589 0.4985692096774083 -3.469446951953614e-18 -0.02034932305134614 -0.1556885031169119 0 
0 0 0 0 0 0 0 0 0 0 
-0.4101400610638325 0.3521702994550793 0.4878887288954316 -0.3833010914164218 -0.1600906350183362 -0.003719298559988388 0.004873786286900002 -0.1689285959004953 0.1932463252062491 -0.05692333234510184 
-0.1691006696701133 -0.01898009466172641 0.4409760278205004 0.09241621742471474 -0.1328237030871477 0.04179991573301078 -0.1772551805400374 0.1497332002292130 0.1739724564136134 -0.003598780274153431 
-0.04627085830143352 -0.1055740364541213 0.2081302829243700 -0.01558698600019400 -0.2701431333726787 -0.09867120634881416 0.01905661258874591 0.02990788274563406 0.09338177022483067 -0.1649267627459843 
-0.1232226720549094 -0.2340075436714148 0.1771089654089481 0.1443865291299283 -0.5710264885344083 -0.1019425572340958 0.1326325484891180 0.2642158405900070 -0.07206570358620797 -0.08924340602280934 
-0.2164748290622767 0.1875149674511446 -0.01556198416809602 0.1721655813519586 -0.2934296277336961 0.2319766537668503 -0.06258172242754562 0.07420544468628934 0.01849879888619866 -0.1250480630939065 
0.06716383723224009 1.040834085586084e-17 0.1190394096218261 -0.4107388411122049 -0.009540468343879758 -0.1866077860276566 -0.1296474663866460 -0.1346486489730872 0.03659916109082238 1.040834085586084e-17 
0 0 0 0 0 0 0 0 0 0 
0 0 0 0 0 0 0 0 0 0 
0.1931801773348339 -0.04958847387461206 0.1874294708179437 -0.2998933274648700 -0.6520187182719389 -0.5159770958954855 0.04540079691073939 0.1384088396680774 -0.09893994727915972 0.07768295762687091 
-0.2621201372381006 -0.1666498164167696 0.2037696891257289 0.2852223901607843 -0.3447797709710616 0.1380441096129878 -0.2754117022540991 -0.1818029429950008 -0.03688335774303563 0.3874911797300359 
-0.2401901386467848 -0.1348225224055742 0.2310500931605418 0.2964536586307878 -0.2133564502755531 -0.1215342495015385 -0.3079978397388464 -0.03813090422069876 -0.1020676378895593 0 
-0.3121963771415810 0.1612807330854371 0.2807652517423714 0.1758136760969701 -0.1837034369046973 0.03515360632661620 -0.01546333140448406 -0.07854335079120031 -0.1220213428575491 -0.01974898111198346 
0.1016304927653589 0.07155400360645142 0.08416662007629513 0.04980597716163865 -0.07797528819560798 0.01295429581032569 -0.2110253239236871 -0.04035486727016629 0.01162929582929631 -0.1305944790602439 
0.1062358150293195 -0.1627311754742530 0.3441454993382838 3.469446951953614e-18 0 -0.09787009152829924 0 0 -0.05432136915914992 0 
0 0 0 0 0 0 0 0 0 0 
-0.2298486912624381 0.3774621133743925 0.1340476133220867 0.04076152369265756 -0.4268891506191025 -0.2003825093526416 -0.7777570576002419 0.3903102370870267 0.1437682519081214 -0.1035117232232042 
-0.3149931735542638 0.6257272468462522 -0.5016172508080101 0.4041479978492014 -0.1919252827146598 0.1097152094751532 0.1106923804541045 -0.05718705928312992 -0.3427345377917707 -0.06152366246905067 
0.1320354488538729 0 0 0 0 -0.2428453533389313 -0.2314695722768003 0 0 0 
-0.1308004569405631 0.05779855387005276 0.09675478047642991 0.03353381363270323 -0.1314869952299817 -0.08354197719019175 -0.03119129953748088 0.2558148339233092 0.009739870766397733 -0.2197039436577776 
-1.047920524326019 0 0.9427003992713979 0 0 0 0 0 -0.06355717414105765 0 
0.1015480452136851 0.1188893332168694 -0.08794234158473058 -0.01518793476238577 -0.5747332741633437 -0.08792782433479204 -0.1295461891792700 -0.3233309468933349 0.1931545954956788 -0.05394567878133844 
0 0 0 0 0 0 0 0 0 0 
0 0 0 0 0 0 0 0 0 0 
0 0 0 0 0 0 0 0 0 0 
0 0 0 0 0 0 0 0 0 0 
0.07027748459415387 0.08039577896658650 0.01374550237783320 0.2305341498133450 -0.1679630303154221 -0.2531790805659114 -0.01963180909597453 0.06511645903101301 -0.1651128463446440 -0.1420741508603056 
0.3852443257754037 -0.1239024944595210 -0.1510509335004089 0.01190671579658896 -0.5273327340245003 -0.1402993627253554 0.05625744401052053 -0.1165985799350455 -0.3381564765738890 -0.08478269513688888 
0.1815382776720528 -0.09268152413387432 -0.1374822719232320 -0.01736525824602032 -0.1153618289070877 0.02848421187187142 -0.09788512620702201 -0.07479140747815005 -0.09574348662640433 -0.3903173671904778 
0.2153976979958358 -0.5118918345665663 0.1608945689768324 -0.1333422849620481 -0.5639427747281565 -0.09479214146709328 -0.1342498675794837 -0.1001945730809277 -0.05741935237186652 -0.007919889590478443 
0 0 0 0 0 0 0 0 0 0 
0 0 0 0 0 0 0 0 0 0 
0 0 0 0 0 0 0 0 0 0 
0 0 0 0 0 0 0 0 0 0 
0.2092188243205423 0 0 -0.1830163690524802 -0.6076364832419558 0.2825833566934268 -0.1144114049950388 -0.1580741682547259 -0.2086218603218762 0 
-0.5979170931040135 -0.1322800522754697 -0.09819024791710403 0.9026143003054354 0.5927813963224582 0.1525018934056730 0.3255198303362898 -0.4305262160201963 0.2486224173174869 0 
0.1417040510414148 -0.1619146518707015 0.1018794624586229 -0.06120479929707245 -0.4264189766324174 -0.1298845586592498 -0.4844590516288144 0.2546006616314305 -0.2033052243619267 0 
0 0 0 0 0 0 0 0 0 0 
0.06904466067681513 -0.1250546661113722 0.04456074856347726 -0.2802032546051007 0.3443800734494758 -0.1297777666026849 0.1331903184896050 -0.3367595165931778 -0.7488665590030560 0 
0 0 0 0 0 0 0 0 0 0 
0 0 0 0 0 0 0 0 0 0 
-0.8800613469877376 0 0 0 -3.469446951953614e-18 0.4976838016303966 0 0 0 0 
0 0 0 0 0 0 0 0 0 0 
0 0 0 0 0 0 0 0 0 0 
0 0 0 0 0 0 0 0 0 0 
0 0 0 0 0 0 0 0 0 0 
0 0 0 0 0 0 0 0 0 0 
0 0 0 0 0 0 0 0 0 0 
0 0 0 0 0 0 0 0 0 0 
0 0 0 0 0 0 0 0 0 0 
0 0 0 0 0 0 0 0 0 0 
0 0 0 0 0 0 0 0 0 0 
0 0 0 0 0 0 0 0 0 0 
0 0 0 0 0 0 0 0 0 0 
0 0 0 0 0 0 0 0 0 0 
0 0 0 0 0 0 0 0 0 0 
0 0 0 0 0 0 0 0 0 0 
0 0 0 0 0 0 0 0 0 0 
0 0 0 0 0 0 0 0 0 0 
0 0 0 0 0 0 0 0 0 0 
0 0 0 0 0 0 0 0 0 0 
0 0 0 0 0 0 0 0 0 0 
0 0 0 0 0 0 0 0 0 0 
0 0 0 0 0 0 0 0 0 0 
0.4821277937804833 0 -0.1886626873899516 0 0 -0.09004689902945592 -0.1882394903101066 0 1.040834085586084e-17 0 
0 0 0 0 0 0 0 0 0 0 
0 0 0 0 0 0 0 0 0 0 
0 0 0 0 0 0 0 0 0 0 
0 0 0 0 0 0 0 0 0 0 
-0.8911663793728437 0.4749885375845568 -0.4278815989685431 0.9830196295681474 0 -0.1401997675691585 -5.204170427930421e-18 -0.02997794242141156 5.204170427930421e-18 0 
-0.2966860473562338 0.1941619992969134 0.1696727959119626 0.05013895466575271 -0.5154462211292938 0.5436015780952671 -0.6570763136154196 0.1465274711046459 -0.3639493060760644 -3.469446951953614e-18 
0.03881725582293394 -0.1744993111442465 -0.3223007835234317 0.1225375954122036 0.1667759836206558 0.04853858924312200 0.01356203926469935 -0.08211614245583754 -0.003387847196236498 0.02903042522532458 
-0.02466454426455349 -0.03571392014488704 -0.2673109198858727 -0.2251101986447494 0.2990472165589567 0.1488209529275322 -0.01313279645204447 -0.02022333600928081 0.09054691997521780 -0.1944181986066531 
0.1820093440387932 0.1552604459320252 -0.08660706771586918 0.07236141997003480 -0.05333485509131127 -0.5256012052853268 -0.1050330477823585 -0.2361972438610658 -0.1861793569090046 -0.2816364165655199 
-0.1554311170455305 -0.03581757280082587 -0.06932475002524408 0.2360059003808019 0.1199574247624989 0.1041527806128395 -0.1067612147672845 0.1212113306408556 -0.08381093208858660 0.06911058192038128 
0.08966539755679045 -0.2051335556407304 -0.3155419111244331 -0.08172436837014231 -0.004334762104118796 -0.6578100307017491 0.2703470989897782 0.1285018373476722 0.2466019290133906 -0.03184205604318984 
-0.01398976338802099 -0.1571852053799167 0.5611431118301222 -0.3919727787885827 -0.2494770266281849 -0.7646563936593989 0.1422371735732554 -0.3559649060538919 -0.3555691127433112 -0.03080579261299189 
-0.3895778846277817 -0.06455211996467146 0.06040003391522725 -0.1019493256710927 -0.1595685418456352 0.7686996537879789 -0.07542463820314321 -2.602085213965211e-18 -0.1184393408415450 0 
0.4703529988121198 0 0 -0.01475377369039548 -0.3882483923305064 0 -0.2324753199628203 0 0 0 
0.1082768951887342 -2.168404344971009e-19 0.05764031188688479 -0.1154629035438221 -0.5082246553509531 0.1920655139781025 -0.3991816400375187 -0.04312545827418038 -0.1780844441370832 0 
0 0 0 0 0 0 0 0 0 0 
0 0 0 0 0 0 0 0 0 0 
0 0 0 0 0 0 0 0 0 0 
0.3566438536177929 0 -0.2477801247301360 0 -0.2017976519056991 0.2402571346407633 0 0 -0.1979352164479622 0 
0.2919166053398728 -8.673617379884035e-19 -0.1647773695861363 -0.08364429655337310 -8.673617379884035e-19 0.1520483440049018 -0.5845996405687679 -1.040834085586084e-17 -0.5353344075519634 -0.1260695680626865 
-0.1382313028998419 0.0002740032238028418 -0.06099576254337863 -0.07758895661062389 0.08412126348254997 0.2129725998674553 -0.01790704111979474 0.1266368980006013 0.1242584689020861 0.02919687743385402 
-0.1274954448798511 -0.02323237758730144 -0.0003564359859372338 -0.05290386404137736 0.3007076210948376 0.1961623675327993 0.01473423330878902 -0.1379016659317258 0.1039690736430954 -0.3555341134704755 
-0.1282865370161692 0.1155015585336155 -0.02812907810767625 0.6990617517397666 0 -0.1827662397742570 -0.1170986776469465 -0.1004714425477075 -0.1041207769258493 0 
0.7207056742336382 0 -0.1728365201386949 -0.02782117369804692 -0.1042460295116805 -0.6056726619907428 -0.3409329318570556 -0.2109742758036323 -0.2599295390138756 -1.561251128379126e-17 
-0.2884905064118605 0.1296578451423380 -0.04439726142068116 0.09337541171062010 0.1280089967593068 0.1542156957883452 0.2356202573742462 0.2157875109631449 -0.1999372583134191 0.08578397623292619 
-0.06453018838591582 -0.3426262464056548 -0.06213325739407625 -0.4903670752830034 -0.1031902441617384 -0.02651365504126917 0.1617654758229501 -0.2696385860470110 0.3268138963502788 -0.1975412390542208 
0.4053762896034665 -0.1455387202858356 -0.06100516520505388 -0.9608772831844160 0.1663624196900404 -0.3300566528391575 -0.1980238078175152 0.2501952357914531 0.1208598368997832 0 
0 0 0 0 0 0 0 0 0 0 
0.2870898554890742 -0.2711551737135470 -0.04603451914926361 -0.2404362769985826 -0.1919252827146598 0.1799778679048305 0.2810532541541422 -0.01237471037537435 -1.734723475976807e-17 -0.06152366246905067 
0 0 0 0 0 0 0 0 0 0 
-0.3044255776485732 0.04967622802974125 -0.1724124662071324 0.001080817778080054 0.2073231538985355 0.3143413519496163 0.1068883912731752 0.09609851536225195 0.1739424447775462 -0.2679359412187507 
-0.6009783919106063 0.1283696683655950 -0.3529471179435227 -0.2849297597313560 0.09177815168704573 0.6878919942178459 0.2012643120814587 0.04063001154584642 0.4025209889720059 -0.1682474211951898 
0.2099397595210769 -0.2303964458633830 -0.2017716137202466 -0.2697624730495031 -0.3044607444134214 -0.3722066426110278 -0.2779073460688025 -0.2137714347208308 -0.3618720240946208 -0.2137159132043232 
0.09551882257240590 -0.2872447932798749 -0.1801303609223659 -0.2303059598962366 -0.4729468639951794 -0.3135834964858721 -0.2279549993086335 -0.2741424839448918 -0.2264501608325347 -0.2268455434783264 
0.2653815115401003 -0.2860982537502061 -0.3051634467618906 -0.1570581340411295 -0.1063440537096514 -0.01257567999939740 -0.05264558646993937 0.01074735775321663 -0.2826640231829019 0.1246195440550014 
0.02651544723113397 0.2482739421890136 -0.08393928639011007 -0.1600455878585809 -0.2845352957450101 -0.1390444403118077 -0.07543238395997448 -0.2763798251190977 0.01428914510262414 0 
0.03209803778033260 0.07034172690884534 0.01862715858353197 0.2569771236760886 -0.1002488516166566 -0.08240603557552170 -0.02703781904405469 -0.3961634869299681 -0.2463950703694050 -0.08531851972314740 
0.2558023900147179 -0.03305304673437388 -0.08900088253896896 -0.06076117888674101 -0.5656637133958411 -0.09585704337899603 -0.1893532839720766 -0.07034441250889231 -0.1197775287753028 -1.214306433183765e-17 
0.05732585007133072 -0.2812078423778879 -0.03150596138531034 -0.4126141350938094 -0.1438848534542202 -0.2890238725585330 0.05037285548013695 0.09172028886240453 0.05869011709312036 -0.2064257338804409 
-0.4143630161175617 -0.08811256402479250 0.2083481788805849 0.03939112996690913 0.3911512392842643 -0.04271886678852412 -0.1825681626575446 0.1159359406792480 0.1235709187786062 -0.3431790007132031 
0.08269836157342213 -0.1477852013538517 -0.09926773503045337 -0.005957650708477282 0.03211792022851724 -0.02416420048412085 -0.02919796475398533 0.03657021859736075 -0.1360357435739004 0.06974225357914045 
0.2236509535044878 -0.01318405784800703 -0.2414205941337950 -0.1403762299713154 -0.1454864997483828 -0.01029399608293488 -0.07723237058351971 -0.2242325725964169 -0.2401168183021534 0.07098790108813940 
0.01405173170284510 -0.2676379621598652 -0.02600144400630391 -0.05694369571954553 -0.4667065482045214 -0.09660757742325911 -0.06292544738324207 -0.2148528271321390 0.2042057577139721 -0.2705493513761619 
0.1209954115123384 -0.09251639489355638 -0.03190797802990521 0.05969367179819900 -0.3199123972222688 -0.4440980365976953 -0.1807711573862446 0.1616917966875422 -0.1597078309372798 6.938893903907228e-18 
-0.1206252798346402 -0.08622327947026032 -0.08326952853650853 -0.1812726203689396 -0.08912401824066271 0.2163922061867883 -0.1192388507096858 -0.008675054090761991 0.07027010029713553 0.03210085842200237 
-0.1189747793752800 -0.1418186504348780 0.04175088410147934 -0.1264659733956406 0.2145407638717228 -0.05289274512791452 -0.0002567503771160320 -0.2035630249208480 0.06431565204570429 -0.07832641639270058 
0.1241276240048085 0.3469595208121847 0.03947285962395421 -0.1147294564471800 -0.07861037199822447 -0.008560462831812870 -0.1098057046554631 0.02182264192089314 -0.3547381788937543 -6.071532165918825e-18 
0.06223292057892399 -0.2632204151488731 -0.08052617366153550 0.06002587115868011 0.1078914631337340 -0.2897295272200686 0.04436793571783360 -0.02010487853399780 -0.1725508668507811 -0.1947744484239278 
0.3091799850255613 -0.09828834348430229 -0.0004903690049733386 0.1496722475559722 -0.6413272746220169 -0.4133230858744836 -0.3474003522992332 -0.1444070937465989 -0.09852700569758639 -0.07349244800217813 
-0.1118837402627215 -0.08193769263981573 -0.02699987511615771 -0.3574406984550188 0.004316221100375473 0.1096404696439420 -0.09028791314423834 -0.1336445153551017 -0.1560019398899630 -0.09882329097548792 
-0.2651249075477610 -0.1632801251085702 -0.1361954296094703 -0.04675203567850838 0.2741906575998275 0.01698974239085038 -0.001676091588858918 0.2107693414846990 -0.3825415144851059 0 
0.3732872448784042 -0.1741350779105644 -0.2182163009120163 -0.2455479463681867 -0.4145872124867837 -0.3990972652571970 -0.06649798834510562 -0.4206316510487194 0.04874827514549933 -0.2682457177049820 
0.3054585820934840 -0.5176412391432424 -0.3819019746426215 -0.5000684329457517 -0.7774076084085965 -0.6857901390969041 -0.5058623453774140 -0.4879139186657278 -0.5883221849271725 -0.4405614566826474 
-0.1176076131086522 -0.1518382492777259 -0.1992446208832195 -0.2243429345371332 0.1962425970561681 -0.01682536783805421 0.02306485245296758 0.1256026583108229 0.1265948035716324 -0.08568141964205592 
-0.2932916171637430 -0.3477019346104845 0.09758843139518178 -0.1011936544063547 0.3115425235046191 -0.3536687012234204 0.1697818952911853 0.02564927934635444 -0.3122839140690842 -0.1321794641064251 
-0.5472459254556619 0.2004987867484708 0.4447879955268707 0.1558771298415531 -0.7099507037497669 0.09455134638342368 -0.01070948684556503 -0.3178698001922380 -0.02620730003040839 -0.1452422965133939 
1.263603737821545 -0.2185998420035161 -0.7250337806814519 -0.3304089738438094 -0.5752420252196215 -0.4098474164188470 -0.6879996062760256 -0.3212960561306681 -0.3764257743993000 -0.07745827642077437 
0.1228915456299586 0.04084759813779218 0.09083408286461910 0.01463452668662448 0.1128801634438042 -0.1911869674023156 -0.01075565429068384 -0.004396325940770082 -0.1644984510892574 -0.2206543668240450 
-0.1632384249404406 -0.3427477638691706 0.09601731555871687 0.2316203341169208 0.3124671089557893 -0.2028028431191133 0.4398413321880451 -0.3587811995085009 0.08856594044192925 -1.734723475976807e-18 
0 0 0 0 0 0 0 0 0 0 
0 0 0 0 0 0 0 0 0 0 
-0.5191535660439267 0 0 0 0 -0.3337767044393343 -0.3049576745676420 -0.1102725590352349 1.085147668784018 -0.01501949948317616 
0 0 0 0 0 0 0 0 0 0 
0.2025513645486584 -0.1308653042366371 -0.4790156015178286 -0.2299269056169196 -0.04646493869112087 0.5182431061279380 -0.2296814815498793 -0.1915263920495680 -0.1117442771900481 0 
0.009027347404542950 -0.2763401576164130 0.2096272110246313 -0.2935278312550109 -0.6587173774257654 -0.2342717759732151 -0.05205543054103962 -0.2852823103397821 0.1898187712772469 -0.05692333234510182 
0.1335942502480250 -0.2921598838188676 0.1690729315858799 -0.4960772959680686 0.4156593885244796 -0.06438796344878825 -0.1558051599412248 -0.3078138593044312 0.1616506922566049 -0.05252969119388107 
-0.3298469283755189 -0.01123638145467077 -0.2826486975738705 -0.1955085226323783 -0.1714857669091970 0.5888512303752873 0.09096368765841069 -0.05365413633890911 -0.5606747052199800 0 
0.6415746031053797 1.734723475976807e-18 0.2057954266831876 -0.5643829982713403 -0.2838001649830553 0.1359454064576909 -0.3427953056333322 -0.3887332631563044 -0.3471136852347677 3.469446951953614e-18 
0.5586528285918814 0 0 0 0 -0.2124576431458206 -0.1940176940593255 -0.1600021143716535 -0.2131870962242442 -0.1776718555423426 
0.3815229794478689 -0.1571167904268170 -0.5750717639081513 -0.06405055730793104 -0.6202749941850420 0.1594876261876315 -0.2098806616820149 -0.5406364236407344 -0.4960386963167717 -0.04362880240024306 
-0.4390275579977792 0.5903951933322482 -0.1975256937294315 0.5138848466135004 0 -0.4161986812693997 0.2415192090757042 -0.01868028968700465 -0.1897194220023664 0 
-0.7804734324116285 3.469446951953614e-18 -0.5732910457334318 -0.4583484573132470 -0.06576655204701339 -0.1203688832066702 0.7627420892592169 -0.06419039111063729 0.2691320003958593 -0.06760507051224754 
-0.03278696601119790 0 0 -0.2626222846184841 6.938893903907228e-18 -0.2372756789591502 0.6762232329665716 0 -0.2009180823621214 0 
-0.05990791944513059 0 0 0 0 0.8211559517801414 -0.3947558023974576 -0.05442816503141854 -0.4640817139167262 0 
0.4173896744164850 0 0 0 0 -0.06640854738345774 -0.09161621010538824 0 0 0 
0.3908867608079027 -0.1984106386444836 -0.01829291592272918 -0.3781945743524785 -0.3319558114890976 -0.1163640972966797 -0.4570585888812246 0.2305376358664954 -0.3988353645103760 0 
0 0 0 0 0 0 0 0 0 0 
0.4583154924076698 -0.05354380112858321 0.1148642393854353 -0.3891005487913463 0.1773563246676877 -0.1717855355166530 -0.3562599779585164 -0.3243991901818186 -0.4303469943750001 0 
0 0 0 0 0 0 0 0 0 0 
0.1636860435717303 -0.1260856152733470 -0.1067525141679107 -0.2326736396214270 -0.5809706338607695 -0.09923893865115613 -0.01971412977269400 -0.003472615771741003 -0.6487975974603803 -0.1298144476636036 
0.1447158364846412 0 -0.09839339765153558 0 -0.2726782659424947 0 -0.02156804490782549 0 0 0 
-0.2982430006573171 0 -0.08963369057205678 0 -0.4280270011957088 0.7938151067223991 0 0 -0.09555471414063424 0 
0.1196625703948480 -0.1351799944798256 0.2493528253497600 -0.08735378480141762 -0.1146643626935146 -0.7985352802205155 0.1709622799867447 -0.3200464864822011 -0.06876250037088673 -0.007084150352422824 
0.9672951116477550 0 -0.2916424960273645 -0.1570395471140951 -0.2469467716149750 -0.5774741506051809 -0.2433838192760717 -0.1260797778997457 -2.602085213965211e-17 0 
-0.2461684340218683 -0.1998414416288627 -0.1313709153358174 -0.08793011854306577 -0.01078112028049951 -0.01657287977654625 0.3790601784096294 -0.03138160468252332 2.081668171172169e-17 0 
-0.8258761243227545 -0.06242168403912154 0.3639199974598735 -0.3875339696307921 0.01607751706716672 0.4164365808062566 0.2060271123161533 0 0.1261286869492689 -0.06242770781587082 
-0.2325393549247749 -0.3846702005401260 -0.2971073569728601 0.5855929656426959 0 -0.3671373711568774 0.9211433862003086 -0.1305084898160622 -3.729655473350135e-17 0 
0.5958545291529683 -0.007782797888299971 0.5808896972603094 -0.6783252023018793 -0.3906129149279149 -2.428612866367530e-17 -0.3124379399707570 -0.3744648738952487 -0.2018054760095353 0 
0 0 0 0 0 0 0 0 0 0 
0.1460218252738883 1.062518129035794e-17 -0.1752477131163807 -0.2789449007887230 -0.3413205345147707 0.1625934792914279 -0.1282715336097945 -0.4031369590547485 0.1760578022921725 0 
-0.1400403990478606 -0.2936196707037020 -0.1051315485274186 -0.03733564264780352 0.6878379201407834 0.1032965486447821 -0.3911686035522906 0.08072967976009437 0.2052469083701174 0 
0.5768534581548272 0 0 -0.1839806088363196 -0.04271822045403401 0.2479716955211176 -0.4598521674646681 -0.3543202034348021 -0.3470546966971061 0 
0 0 0 0 0 0 0 0 0 0 
0 0 0 0 0 0 0 0 0 0 
0 0 0 0 0 0 0 0 0 0 
0 0 0 0 0 0 0 0 0 0 
0 0 0 0 0 0 0 0 0 0 
0 0 0 0 0 0 0 0 0 0 
-0.05969006244944974 0.4801782152875307 0.1159876241179386 -0.9927913605761229 0.5778237874758549 -0.3192523989771464 -0.03863791895604778 0.4388754184524430 0.007932149414809516 -0.1298144476636036 
0.4463334724911228 -0.05354380112858325 -0.1926511222920122 -0.07531593955888782 -0.6688803629950810 0.1058570290735972 -0.9808314226095230 -0.6682901378004362 -0.6978902907624572 -1.647987302177967e-17 
0.02789590238771770 0 0 -0.06440013832575261 -0.2417133145255714 0.5757281114654881 -0.3984889808067688 0 0 0 
-0.3686389552877828 0 -0.05140005536789939 -0.06440013832575261 -0.2417133145255714 0.04996320669243667 0.7067552386593203 -0.01859272351717925 -0.1913721611776200 0 
-0.1174748396976160 0.1503032553635623 -0.04455565496514453 0.3355603987930495 -0.5801937012625890 0.01585874312714136 0.1603885189890206 -0.3448126354332897 0.008387750110094610 -0.02549533607460192 
-0.7886784283302943 0 2.602085213965211e-18 0 -0.1361313604598585 -0.2147990565429004 0 1.419233735314876 -0.4731142635705332 0 
0.02724587908176754 -0.1335842519832624 -0.06713870790916036 -0.2172787682092304 -1.081010597799162 0.02437739944284685 0.2474122037080804 -0.3677480724183498 -0.2206724651051792 -0.1974195181758511 
-0.1680914295829148 8.673617379884035e-19 -0.2827454560901628 -0.06440013832575264 1.232850452473481 -0.1400050886942522 -0.3984889808067688 -3.469446951953614e-18 -0.4382457239989843 0 
-0.5018138800544302 -0.2076242395171626 -0.4627730859673988 0.3876472839467474 0.3426951883799604 -0.08679721981243033 0.3678443466881845 0.4217467040784981 0.2425929247586444 -0.01501949948317615 
-0.06333355751656454 0.1900665716171340 0.02461959102193879 0.2220854578102104 -0.4334856076992414 -0.03903432681138665 -0.02518798817729654 0.1087699168281303 -0.3827775320047018 -0.2170844147945914 
0 0 0 0 0 0 0 0 0 0 
0.09394640000737575 0 0.1884693318025046 -0.1844031377463862 0 -0.03891301096013028 -0.2057644228176551 -0.04852315016970397 -0.1776289943590909 0 
0.01229440802442777 -0.03285883398183568 -0.4246166059646201 -0.2222152487330208 0.4516698034206584 0.04303882803949860 0.07161674363693155 0.1477655106238336 -0.2219688809295890 6.938893903907228e-18 
-0.5410294347909304 -0.1720782095520556 0.2823114541966458 -0.2439831043163924 -2.775557561562891e-17 0.8871448398976303 0.1577307705318459 -0.1758545384262337 -0.1445350293622765 0 
-0.1410522659621525 0.01316502326080850 0.3369307710579147 0.1691682159135651 0.1931712976967933 0.02125662136677349 0.1389423041070276 -0.006940262300353903 -0.1311257134490589 -0.1966179398938469 
-0.06937298330046322 -0.2804797501044317 0.1932256535007481 0.08624157892376667 0.4515921400504313 0.3704558336169460 -0.2643611861869845 -0.1960764399183030 -0.1756558111887338 0.2046308040258738 
-0.2986895659112951 -0.3482527724824899 0.3237949816947370 -0.1662402161228831 0.1376674383773307 0.3327446705791069 0.1580497670381354 -0.07737471227148640 -0.2822838814029642 0.1537745910921982 
-0.1400136055865727 -0.06298928583898464 0.4214461310749601 -0.07844222460808895 0.3446318826796165 0.2426322338193709 -0.06921733958430969 -0.1715150271258615 -0.1355587190525741 0.2627518681539076 
0.02440970987635370 -0.1351799944798257 -0.1432915370702098 -0.1047547853924960 0.1925903915261278 0.7582814134126894 -0.08241000834403907 -0.1662610474087342 -0.4170135741867689 0 
