solver_type L2R_L2LOSS_SVC_DUAL
nr_class 7
label 1 5 2 6 10 8 4
nr_feature 166
bias 1.000000000000000
w
0.04549693507885489 -0.04283142758026656 -0.1169560131007074 0.1552402280389097 -0.03934030116463033 -0.07628859144910488 0.05944713307550498 
0 0 0 0 0 0 0 
0 0 0 0 0 0 0 
0 0 0 0 0 0 0 
1.492084663443406 -1.250172644012137 -0.03311690774048848 -0.1247697383417765 0 -0.05469316971520879 -0.03818615309709834 
-0.1465163329202920 -0.3194417574229935 -0.009782458621191703 0.4580997949594650 0 -0.06505591076114947 -0.08645328577779476 
0 0 0 0 0 0 0 
0 0 0 0 0 0 0 
0 0 0 0 0 0 0 
0 0 0 0 0 0 0 
0 0 0 0 0 0 0 
0 0 0 0 0 0 0 
0 0.3219227776915422 -0.03947411948975941 -0.2256255562774163 0 0 0 
0 0 0 0 0 0 0 
0 0 0 0 0 0 0 
0 0 0 0 0 0 0 
0 0 0 0 0 0 0 
0.1656991762478387 -0.06971440262247630 -0.2717126422005510 0.1153997798375188 -0.1663738236406126 0.001227420782516670 0.2330209439810033 
0.2434391775139541 -0.09377907986007972 -0.4009245801629126 0.08753029169790791 -0.1888519270557620 -0.07097445609752157 0.2909533130604971 
0.3041913450560994 -0.3432190966775777 -0.4035774386921095 0.3623318850109948 0 -0.02456760517061776 0 
0 0 0 0 0 0 0 
0 0 0 0 0 0 0 
0 0 0 0 0 0 0 
0 0 0 0 0 0 0 
0 0 0 0 0 0 0 
0 0 0 0 0 0 0 
0 0 0 0 0 0 0 
-0.4241016463858616 -0.5485164993173725 -0.3448015838911273 1.148703154227970 -0.06648459248957239 -0.06489696106384503 -0.1049153017120612 
0 0 0 0 0 0 0 
0 0 0 0 0 0 0 
0 0 0 0 0 0 0 
0 0 0 0 0 0 0 
0 0 0 0 0 0 0 
0 0 0 0 0 0 0 
9.540979117872439e-18 0.3553747667228927 3.469446951953614e-18 -0.1427664824688445 0 -0.06750213198408253 -0.1997046017318107 
0.3986661823502513 -0.1825137459632154 0 -0.01227004545330285 0 -0.05294125038590977 -1.257674520083185e-17 
0 0 0 -0.09688255057229726 -0.01226098111559328 0 -0.06434149052683390 
-0.1038068128125879 0.2341749902516978 0.08607956662811425 -0.3125862812545419 0 0.1219780784956498 -0.2090167605185017 
-0.2436613391860107 0.08195852645289520 -6.938893903907228e-18 -0.1403026656762039 0.6018212292107500 -0.1349725844681892 -0.06716184020752133 
-2.341876692568690e-17 0.4279874898518887 -3.989863994746656e-17 -0.3864690280633096 3.469446951953614e-18 0.01203576181477144 -0.1174900722551562 
0 0 0 0 0 0 0 
0 0 0 0 0 0 0 
-0.3393093671309938 0.6876773936851210 -0.01211322226330575 -0.1488923331160111 0 0 -0.1444581458384487 
0.1972219094840669 -0.4506739231134540 -0.1919914067015343 -0.3043437665613928 0 0.5502500632956866 -0.1562724598456949 
-0.3799423564576155 -0.4872262826201971 1.041523359821798 -0.1383298627014270 0 -0.02310492227548434 -0.1868396138132983 
0 0 0 0 0 0 0 
-0.4878946073425958 0.4375551610321808 -0.09290364243287600 -0.2586789447032751 0 -0.07051090844514302 0.02163691950440463 
0.2637158292904484 0.1543691906854907 0 -0.2864250821020236 -0.03032401159415777 -0.02198193919933948 8.673617379884035e-19 
0 0 0 0 0 0 0 
-0.2299998347921616 0.1419041861216240 -0.1516335163439976 0.3170191197581733 0 -0.1792751322063872 -0.1921122936320804 
0.9858897349698169 -0.6029702643474191 0 -0.1996751539764217 -0.1640123044835834 0 0 
-0.5922440076677092 -0.09399777655100844 -0.09963358266555872 -0.04426617992477722 1.431146867680866e-17 -0.07353805936280838 0.3472191240287428 
-0.2013335926177632 0.4879219869030391 0 -0.1843928312671473 -0.04991072290439240 0 -0.1094764014130165 
-0.2466460300933713 0.3906053563941445 0.1263000763133625 -0.1003140873924014 -0.1613062631072657 -0.1106052324345720 -0.04713258510358655 
0.1482603542195661 0.02894972275824468 0.1218289234979439 -0.2370538462135003 -0.2071764093824457 -0.03698997178255565 -0.02107560111714348 
-0.2829768391743345 0.1294048909837450 -0.06577532444826686 0.1409964702429137 -0.1068392720018143 0.005463820850106438 0.1245548856839915 
-0.3498219541954059 -0.02852275764443624 0.2582644143201753 0.04205937631409299 0.1105626056796558 0.004725429310828555 -0.1403966225200699 
-0.02327669641045968 0.1281991911002401 0.04087274625529337 -0.05113295602372648 -0.008776349213094566 -0.1873595905206615 -0.06500484852107534 
-0.2355918770099504 0.2324084411139616 0.1069525074815513 -0.1009704005627895 -0.09312647170922260 -0.03364381401570369 0.1002344070393044 
0 0 0 0 0 0 0 
0 0 0 0 0 0 0 
0 0 0 0 0 0 0 
0 0 0 0 0 0 0 
0 0 0 0 0 0 0 
0 0 0 0 0 0 0 
0 0 0 0 0 0 0 
0 0 0 0 0 0 0 
0 0 0 0 0 0 0 
0 0 0 0 0 0 0 
0 0 0 0 0 0 0 
0 0 0 0 0 0 0 
0 0 0 0 0 0 0 
0 0 0 0 0 0 0 
0 0 0 0 0 0 0 
0 0 0 0 0 0 0 
0 0 0 0 0 0 0 
0 0 0 0 0 0 0 
0 0 0 0 0 0 0 
0 0 0 0 0 0 0 
0 0 0 0 0 0 0 
0 0 0 0 0 0 0 
0 0 0 0 0 0 0 
0 0 0 0 0 0 0 
0 0 0 0 0 0 0 
0 0 0 0 0 0 0 
0 0 0 0 0 0 0 
0 0 0 0 0 0 0 
0 0 0 0 0 0 0 
0 0 0 0 0 0 0 
0 0 0 0 0 0 0 
0 0 0 0 0 0 0 
0 0 0 0 0 0 0 
0 0 0 0 0 0 0 
0 0 0 0 0 0 0 
0 0 0 0 0 0 0 
0 0 0 0 0 0 0 
0 0 0 0 0 0 0 
0 0 0 0 0 0 0 
0 0 0 0 0 0 0 
0 0 0 0 0 0 0 
0 0 0 0 0 0 0 
0 0 0 0 0 0 0 
0 0 0 0 0 0 0 
0 0 0 0 0 0 0 
0 0 0 0 0 0 0 
0 0 0 0 0 0 0 
0 0 0 0 0 0 0 
0 0 0 0 0 0 0 
0 0 0 0 0 0 0 
0 0 0 0 0 0 0 
0 0 0 0 0 0 0 
0 0 0 0 0 0 0 
0 0 0 0 0 0 0 
0 0 0 0 0 0 0 
0 0 0 0 0 0 0 
0 0 0 0 0 0 0 
0 0 0 0 0 0 0 
0 0 0 0 0 0 0 
0 0 0 0 0 0 0 
0 0 0 0 0 0 0 
0 0 0 0 0 0 0 
0 0 0 0 0 0 0 
-0.08649483988658990 -0.05698405477263287 -0.2296331778852553 0.1258142510129955 0.01967866185018710 -0.05802267103029189 -0.003335410389343140 
-0.1092144819701107 -0.03310001739592217 0.04212108179988415 -0.01281848726453640 -0.2186314818297993 -0.08791882888530363 -0.02775651186010647 
-0.2592225750366343 0.1016532862765271 -0.02335279923192943 0.001077382277294037 1.647987302177967e-17 -0.1449092257273655 -0.2019020508360975 
-0.1329571610610920 -0.05361070844711741 -0.07672259657295741 0.04007139089540739 0.03319929826936868 -0.07833137588097139 -0.1635105612138360 
-0.03763767720662197 0.07514118659960467 0.09218650949645185 -0.2617195560111373 -0.1856267038811524 -0.06786131104328490 0.01820205460863337 
0.3824797542992272 0.02041184183994668 -0.1567235464595164 -0.5901018591095202 -0.1645347768907730 -0.03153220268130443 -0.06621720450554595 
-0.1465163329202920 -0.3194417574229935 -0.009782458621191703 0.4580997949594650 0 -0.06505591076114947 -0.08645328577779476 
-0.09612364361789316 0.4599736134268075 -0.03311690774048848 -0.1503214074028287 0 -0.05469316971520879 -0.1370830795715895 
0.4432289708571983 -0.4672089760881480 -0.05755094922114976 -0.2788692019217725 -0.06648459248957242 -0.06489696106384503 -0.1049153017120612 
0 0 0 0 0 0 0 
0 0 0 0 0 0 0 
0 0 0 0 0 0 0 
0 0 0 0 0 0 0 
0 0 0 0 0 0 0 
0 0 0 0 0 0 0 
0 0 0 0 0 0 0 
0 0 0 0 0 0 0 
0 0 0 0 0 0 0 
0 0 0 0 0 0 0 
0 0 0 0 0 0 0 
0 0 0 0 0 0 0 
0 0 0 0 0 0 0 
0 0 0 0 0 0 0 
0 0 0 0 0 0 0 
0.2650210525386098 -0.5572519612986846 -0.1556344094546878 0.06597172686835218 0.02719791696099970 -0.1518319433778417 -0.1661412673555942 
-0.6952603523912666 0.04365842629055308 0.1641877596366410 0.3166939717526121 -0.03268087566122377 -0.09068943706970307 -0.04519454984858258 
0.1731664386235871 -0.1265021531980843 0.07459910656585172 -0.1281320310062597 -0.09684162801126345 -0.05582676652544507 -0.2863166804356410 
0.3474861599238344 -0.1203473026766487 -0.02071366793317616 -0.2536103318762875 -0.1423921537097106 -0.03442261693999803 -0.1877407439836593 
-0.1843263371856563 0.2372321093848901 -0.1864944265512042 -0.1043115477023818 -0.1399336180881218 -0.1342601592937160 -0.1715006904276196 
-0.3490080541375578 0.5050080877780767 -0.2956282490205833 -0.3484152305128476 -0.1272091675292130 -0.07635833707132637 0.007777617772383502 
0.4004631060856397 -0.2549627922640339 -0.03289095767898853 -0.2169642500878278 -0.07054006893320960 -0.1098323965106947 0.07614496302097104 
0.4794977736496597 -0.1975266821957987 -0.5350367424774237 0.02319185861348100 -0.2945487431795282 -0.06066697503247883 -0.1775682019985518 
-0.4278373939672153 0.3198414136118422 -0.3065878760824311 0.2289460163444164 -0.1179137571201500 -0.03598949597317479 0.09163573533218239 
-0.5814261816208854 -0.4659171477627865 1.023827552974196 -0.6826061267306133 -1.387778780781446e-17 -0.2106588079995601 -0.1965618628389109 
0.08104677164964069 0.1516746074665841 -0.1407756955173098 -0.1038786505077720 -0.1123474745963515 -0.05705140809525287 -0.2107910396755845 
-0.1918340491086286 0.2022715117806452 -0.1207891636513625 0.01573617210385495 0.09668808243825866 -0.05346004867415628 -0.2009588677642424 
0.03906337817893377 0.08370310417403704 -0.1247754125476466 -0.04925502944159863 -0.03672179682500924 -0.1556975793627724 -0.1030258702465292 
0.5590317146756824 -0.3672123930584543 -0.2484375071341752 -0.1009019329464031 -0.1175559056889617 -0.07969734165132984 0.02429875593389422 
-0.5420916315610661 0.5328607030872599 -0.1513368565852187 -0.1914893044711722 -0.1735285283044973 -0.2653357075671821 -0.2273835354242788 
0.5533766040020309 -0.5447131314236615 -0.1723301960855208 -0.1436231853538007 -0.02666309663942692 -0.1656840557157793 -0.3046696189842568 
0.2691131123149932 -0.1250070103776860 -0.2669990281398003 -0.4602733846615567 -0.06288055356845400 -0.1245743545648202 -0.1085864286459237 
-0.3228560712987684 -0.1363061472698366 0.1380912363743830 0.1266181819218925 -0.3193274164593650 -0.09762753894094331 -0.1323317682032799 
-0.04245798654281006 -0.2731655859839236 -0.4525748444361504 -0.6687676925646264 -0.5823995949717390 -0.6532216567887199 -0.7729713512577517 
0.1446638929849415 -0.1518410069149110 -0.08306889235046189 0.04820190325068303 0.06688236795594577 -0.02716409473043305 0.04128866151539140 
-0.2681922822076646 0.06235171215141941 -0.008312351353237827 -0.1324259905400202 -0.3528261976568290 0.2208663002574900 0.1054611917582049 
